{"learner":{"attributes":{"scikit_learn":"{\"_estimator_type\": \"regressor\"}"},"feature_names":["month","day_of_year","day_of_week","dependable_capacity_mw","temp_min","temp_max","temp_avg","humidity","wind_speed","pressure","temp_range","cold_day_flag","hot_day_flag","high_wind_flag","high_humidity_flag","prev_impact_ratio","recent_avg_impact","recent_max_impact","recent_event_frequency","days_since_last_event","prior_high_impact_flag","prior_zero_impact_flag","summer_capacity_mw","winter_capacity_mw","planned_event_count_ytd","unplanned_event_count_ytd","distance_to_station_km","asset_baseline","season_Fall","season_Spring","season_Summer","season_Winter","fuel_category_Gas","fuel_category_Hydro","fuel_category_Nuclear","fuel_category_Solar","fuel_category_Steam","fuel_category_Wind","broad_asset_category_Baseload","broad_asset_category_Peaker","broad_asset_category_Renewable","operating_region_A","operating_region_B","operating_region_C","operating_region_D","operating_region_E","operating_region_F","operating_region_G","operating_region_H","operating_region_I","operating_region_J","operating_region_K"],"feature_types":["int","int","int","float","float","float","float","float","float","float","float","int","int","int","int","float","float","float","int","int","int","int","float","float","int","int","float","float","i","i","i","i","i","i","i","i","i","i","i","i","i","i","i","i","i","i","i","i","i","i","i","i"],"gradient_booster":{"model":{"cats":{"enc":[],"feature_segments":[],"sorted_idx":[]},"gbtree_model_param":{"num_parallel_tree":"1","num_trees":"300"},"iteration_indptr":[0,1,2,3,4,5,6,7,8,9,10,11,12,13,14,15,16,17,18,19,20,21,22,23,24,25,26,27,28,29,30,31,32,33,34,35,36,37,38,39,40,41,42,43,44,45,46,47,48,49,50,51,52,53,54,55,56,57,58,59,60,61,62,63,64,65,66,67,68,69,70,71,72,73,74,75,76,77,78,79,80,81,82,83,84,85,86,87,88,89,90,91,92,93,94,95,96,97,98,99,100,101,102,103,104,105,106,107,108,109,110,111,112,113,114,115,116,117,118,119,120,121,122,123,124,125,126,127,128,129,130,131,132,133,134,135,136,137,138,139,140,141,142,143,144,145,146,147,148,149,150,151,152,153,154,155,156,157,158,159,160,161,162,163,164,165,166,167,168,169,170,171,172,173,174,175,176,177,178,179,180,181,182,183,184,185,186,187,188,189,190,191,192,193,194,195,196,197,198,199,200,201,202,203,204,205,206,207,208,209,210,211,212,213,214,215,216,217,218,219,220,221,222,223,224,225,226,227,228,229,230,231,232,233,234,235,236,237,238,239,240,241,242,243,244,245,246,247,248,249,250,251,252,253,254,255,256,257,258,259,260,261,262,263,264,265,266,267,268,269,270,271,272,273,274,275,276,277,278,279,280,281,282,283,284,285,286,287,288,289,290,291,292,293,294,295,296,297,298,299,300],"tree_info":[0,0,0,0,0,0,0,0,0,0,0,0,0,0,0,0,0,0,0,0,0,0,0,0,0,0,0,0,0,0,0,0,0,0,0,0,0,0,0,0,0,0,0,0,0,0,0,0,0,0,0,0,0,0,0,0,0,0,0,0,0,0,0,0,0,0,0,0,0,0,0,0,0,0,0,0,0,0,0,0,0,0,0,0,0,0,0,0,0,0,0,0,0,0,0,0,0,0,0,0,0,0,0,0,0,0,0,0,0,0,0,0,0,0,0,0,0,0,0,0,0,0,0,0,0,0,0,0,0,0,0,0,0,0,0,0,0,0,0,0,0,0,0,0,0,0,0,0,0,0,0,0,0,0,0,0,0,0,0,0,0,0,0,0,0,0,0,0,0,0,0,0,0,0,0,0,0,0,0,0,0,0,0,0,0,0,0,0,0,0,0,0,0,0,0,0,0,0,0,0,0,0,0,0,0,0,0,0,0,0,0,0,0,0,0,0,0,0,0,0,0,0,0,0,0,0,0,0,0,0,0,0,0,0,0,0,0,0,0,0,0,0,0,0,0,0,0,0,0,0,0,0,0,0,0,0,0,0,0,0,0,0,0,0,0,0,0,0,0,0,0,0,0,0,0,0,0,0,0,0,0,0,0,0,0,0,0,0,0,0,0,0,0,0,0,0,0,0,0,0],"trees":[{"base_weights":[-1.732866E-3,2.4997748E-2,-3.8395306E-1,-4.483462E-1,-1.6378787E-1,-4.8441538E-1,-3.977877E-1,-2.4699222E-1,-1.0143009E-1,-4.8470086E-1,-2.2222222E-1,-2.5748503E-1,-4.028666E-1,-1.7573221E-1,-2.612766E-1,-1.708126E-1,-6.881804E-2,-2.2543669E-2,-2.4357822E-2,6.25E-3,-2.0833334E-2,-1.78125E-2,-8.238637E-3,-2.0443233E-2,-1.6088327E-2,-2.0833334E-2,-7.77027E-3,-1.1281447E-2,-1.5138889E-2,-7.5943395E-3,-1.5202703E-2,-3.6527887E-3,1.607143E-2],"categories":[],"categories_nodes":[],"categories_segments":[],"categories_sizes":[],"default_left":[0,0,0,0,0,0,0,0,0,0,0,0,0,0,0,0,0,0,0,0,0,0,0,0,0,0,0,0,0,0,0,0,0],"id":0,"left_children":[1,-1,3,5,7,9,11,13,15,17,19,21,23,25,27,29,31,-1,-1,-1,-1,-1,-1,-1,-1,-1,-1,-1,-1,-1,-1,-1,-1],"loss_changes":[4.9244663E3,0E0,2.0657227E2,2.037207E1,1.7096794E1,3.8464355E-1,3.2460938E0,1.3923798E0,4.260235E0,3.2592773E-1,6.597222E-1,1.4704733E0,2.074463E0,1.1057334E0,1.6699982E0,1.4744053E0,2.1502194E0,0E0,0E0,0E0,0E0,0E0,0E0,0E0,0E0,0E0,0E0,0E0,0E0,0E0,0E0,0E0,0E0],"parents":[2147483647,0,0,2,2,3,3,4,4,5,5,6,6,7,7,8,8,9,9,10,10,11,11,12,12,13,13,14,14,15,15,16,16],"right_children":[2,-1,4,6,8,10,12,14,16,18,20,22,24,26,28,30,32,-1,-1,-1,-1,-1,-1,-1,-1,-1,-1,-1,-1,-1,-1,-1,-1],"split_conditions":[1E0,1.1577499E-2,5.213112E-1,3.6838946E-1,6.164E-1,7.483E-1,1.82E1,1.42E1,6.5196383E-1,1.17E1,7.773E-1,4.136E-1,5.157232E-1,1.54E1,1E0,2.09E1,9.145E-1,-1.1452499E-2,-1.63725E-2,7.750094E-5,-1.43174995E-2,-5.2124993E-3,-2.7074993E-3,-7.3599997E-3,-4.4474998E-3,-4.8225E-3,-2.2224993E-3,-2.2224993E-3,-3.7725002E-3,-1.4824987E-3,-2.9874996E-3,-5.799994E-4,1.1925012E-3],"split_indices":[19,0,27,27,16,15,6,10,27,4,15,15,27,4,49,10,16,0,0,0,0,0,0,0,0,0,0,0,0,0,0,0,0],"split_type":[0,0,0,0,0,0,0,0,0,0,0,0,0,0,0,0,0,0,0,0,0,0,0,0,0,0,0,0,0,0,0,0,0],"sum_hessian":[2.5679E4,1.1104E4,1.4575E4,1.1276E4,3.299E3,6.576E3,4.7E3,1.412E3,1.887E3,6.568E3,8E0,1.66E2,4.534E3,2.38E2,1.174E3,6.02E2,1.285E3,4.57E2,6.111E3,3E0,5E0,7.9E1,8.7E1,4.218E3,3.16E2,1.7E1,2.21E2,6.35E2,5.39E2,5.29E2,7.3E1,1.272E3,1.3E1],"tree_param":{"num_deleted":"0","num_feature":"52","num_nodes":"33","size_leaf_vector":"1"}},{"base_weights":[5.47643E-3,2.4997765E-2,-3.7188673E-1,-4.354938E-1,-1.5159817E-1,-4.731954E-1,-3.828421E-1,-2.113319E-1,-7.338483E-2,-4.8245785E-1,-4.418146E-1,-2.6844263E-1,-3.8895053E-1,-1.9025674E-1,-3.0377907E-1,-3.773585E-2,-1.3454199E-1,-2.4272745E-2,-2.1191407E-2,-1.3043478E-2,-2.2214811E-2,-1.5024039E-2,-4.054054E-3,-1.975294E-2,-1.5634218E-2,-1.0096843E-2,-2.9761905E-3,-1.2303665E-2,-1.8668832E-2,-7.4029127E-3,-2.514368E-4,1.4583333E-2,-7.212476E-3],"categories":[],"categories_nodes":[],"categories_segments":[],"categories_sizes":[],"default_left":[0,0,0,0,0,0,0,0,0,0,0,0,0,0,0,0,0,0,0,0,0,0,0,0,0,0,0,0,0,0,0,0,0],"id":1,"left_children":[1,-1,3,5,7,9,11,13,15,17,19,21,23,25,27,29,31,-1,-1,-1,-1,-1,-1,-1,-1,-1,-1,-1,-1,-1,-1,-1,-1],"loss_changes":[4.821508E3,0E0,2.0527832E2,2.239087E1,1.5331932E1,1.7115479E0,3.2149048E0,3.5700073E0,3.0995135E0,6.907959E-1,5.6707764E-1,1.4403E0,1.9760742E0,2.3074608E0,1.2896862E0,3.2503583E0,2.2100878E0,0E0,0E0,0E0,0E0,0E0,0E0,0E0,0E0,0E0,0E0,0E0,0E0,0E0,0E0,0E0,0E0],"parents":[2147483647,0,0,2,2,3,3,4,4,5,5,6,6,7,7,8,8,9,9,10,10,11,11,12,12,13,13,14,14,15,15,16,16],"right_children":[2,-1,4,6,8,10,12,14,16,18,20,22,24,26,28,30,32,-1,-1,-1,-1,-1,-1,-1,-1,-1,-1,-1,-1,-1,-1,-1,-1],"split_conditions":[1E0,1.1048627E-2,5.213112E-1,3.6838946E-1,6.5196383E-1,3.0455068E-1,2.03E1,3.36E1,3.12E1,1E0,1.34E1,2.471E2,5.157232E-1,8.037E-1,1.76E1,4.93E1,9E0,-1.7446375E-2,-1.1268876E-2,-3.5673745E-3,-9.573875E-3,-4.4321255E-3,-1.8120006E-3,-7.094501E-3,-4.1126236E-3,-2.0333768E-3,-6.2837603E-4,-3.8038746E-3,-5.093874E-3,-9.434998E-4,-4.349947E-5,9.636253E-4,-1.3209999E-3],"split_indices":[19,0,27,27,27,27,6,26,26,12,6,3,27,15,10,7,1,0,0,0,0,0,0,0,0,0,0,0,0,0,0,0,0],"split_type":[0,0,0,0,0,0,0,0,0,0,0,0,0,0,0,0,0,0,0,0,0,0,0,0,0,0,0,0,0,0,0,0,0],"sum_hessian":[2.5837E4,1.1183E4,1.4654E4,1.137E4,3.284E3,6.621E3,4.749E3,1.861E3,1.423E3,5.101E3,1.52E3,2.43E2,4.506E3,1.518E3,3.43E2,9E2,5.23E2,4.846E3,2.55E2,2.2E1,1.498E3,2.07E2,3.6E1,4.168E3,3.38E2,1.393E3,1.25E2,1.9E2,1.53E2,2.05E2,6.95E2,1.1E1,5.12E2],"tree_param":{"num_deleted":"0","num_feature":"52","num_nodes":"33","size_leaf_vector":"1"}},{"base_weights":[1.2147244E-2,2.4997754E-2,-3.5985887E-1,-4.2730173E-1,-1.5577613E-1,-4.6753442E-1,-3.662924E-1,-2.2882831E-1,-8.954832E-2,-4.778935E-1,-4.325214E-1,-2.6459855E-1,-3.7301394E-1,-2.4856439E-1,-1.8083005E-1,-1.5158731E-1,-5.882353E-2,-2.3904284E-2,1.25E-2,-1.2790698E-2,-2.1868652E-2,-5.4545454E-3,-1.5113637E-2,-2.010479E-2,-1.764038E-2,-1.4398734E-2,-1.1159518E-2,4.761905E-3,-9.619342E-3,-9.055556E-3,-3.8674034E-3,-6.233062E-3,-1.598677E-3],"categories":[],"categories_nodes":[],"categories_segments":[],"categories_sizes":[],"default_left":[0,0,0,0,0,0,0,0,0,0,0,0,0,0,0,0,0,0,0,0,0,0,0,0,0,0,0,0,0,0,0,0,0],"id":2,"left_children":[1,-1,3,5,7,9,11,13,15,17,19,21,23,25,27,29,31,-1,-1,-1,-1,-1,-1,-1,-1,-1,-1,-1,-1,-1,-1,-1,-1],"loss_changes":[4.668613E3,0E0,2.0083154E2,2.6755371E1,1.7527245E1,2.1896973E0,2.8842773E0,1.5881958E0,3.6203632E0,8.314209E-1,1.1903992E0,1.5722885E0,2.262207E0,1.1547318E0,1.6326962E0,1.3668413E0,2.2498856E0,0E0,0E0,0E0,0E0,0E0,0E0,0E0,0E0,0E0,0E0,0E0,0E0,0E0,0E0,0E0,0E0],"parents":[2147483647,0,0,2,2,3,3,4,4,5,5,6,6,7,7,8,8,9,9,10,10,11,11,12,12,13,13,14,14,15,15,16,16],"right_children":[2,-1,4,6,8,10,12,14,16,18,20,22,24,26,28,30,32,-1,-1,-1,-1,-1,-1,-1,-1,-1,-1,-1,-1,-1,-1,-1,-1],"split_conditions":[1E0,1.0496196E-2,5.157232E-1,3.6838946E-1,6.164E-1,3.0455068E-1,2.09E1,1.24E1,6.5196383E-1,2.39E1,2.35E1,1.0065E3,4.0448564E-1,3.85E1,1.99E1,5.65E1,8.88E1,-1.6296554E-2,3.8844647E-4,-4.5340047E-3,-9.280681E-3,-1.102893E-3,-4.210518E-3,-7.5547756E-3,-6.114775E-3,-3.2347084E-3,-2.8947087E-3,7.977918E-4,-2.4449588E-3,-1.5364558E-3,-7.992074E-4,-1.2043864E-3,-2.6994795E-4],"split_indices":[19,0,27,27,16,27,6,8,27,10,5,9,27,4,6,4,3,0,0,0,0,0,0,0,0,0,0,0,0,0,0,0,0],"split_type":[0,0,0,0,0,0,0,0,0,0,0,0,0,0,0,0,0,0,0,0,0,0,0,0,0,0,0,0,0,0,0,0,0],"sum_hessian":[2.5725E4,1.113E4,1.4595E4,1.0969E4,3.626E3,6.606E3,4.363E3,1.723E3,1.903E3,5.088E3,1.518E3,2.73E2,4.09E3,1.218E3,5.05E2,6.29E2,1.274E3,5.087E3,1E0,4.2E1,1.476E3,5.4E1,2.19E2,1.669E3,2.421E3,4.73E2,7.45E2,2E1,4.85E2,4.49E2,1.8E2,3.68E2,9.06E2],"tree_param":{"num_deleted":"0","num_feature":"52","num_nodes":"33","size_leaf_vector":"1"}},{"base_weights":[1.8084694E-2,-3.1438488E-1,3.554712E-1,-4.313004E-1,-1.7426683E-1,1.801709E-1,4.1884258E-1,-4.664405E-1,-3.818429E-1,-2.2558568E-1,-8.1389815E-2,1.0408805E-1,2.4709141E-1,3.66706E-1,4.6164304E-1,-3.7696335E-1,-4.7066295E-1,-3.903696E-1,-1.9140625E-1,-2.0761246E-2,-2.4238108E-1,1.5073529E-1,-9.74059E-2,1.2914157E-1,-2.2813689E-2,4.0068492E-1,2.3343374E-1,3.7428072E-1,2.3849373E-1,4.7441286E-1,4.1447964E-1,-1.9518716E-2,1.0000001E-2,-2.3730392E-2,-1.920904E-2,-1.3977273E-2,-1.9980732E-2,-1.2612613E-2,9.722223E-3,-9.742647E-3,6.6558444E-3,-1.2841694E-2,1.0928962E-3,1.1827957E-2,-1.7045456E-3,-5.589648E-3,9.677419E-3,8.811938E-3,1.7006804E-3,1.6911766E-2,-3.8043477E-3,2.034483E-2,-1.25E-2,7.114362E-3,1.2996109E-2,1.7007513E-2,1.94375E-2,-8.82353E-3,1.3452915E-2,1.7602041E-2,2.3866516E-2,1.954955E-2,2.186933E-2],"categories":[],"categories_nodes":[],"categories_segments":[],"categories_sizes":[],"default_left":[0,0,0,0,0,0,0,0,0,0,0,0,0,0,0,0,0,0,0,0,0,0,0,0,0,0,0,0,0,0,0,0,0,0,0,0,0,0,0,0,0,0,0,0,0,0,0,0,0,0,0,0,0,0,0,0,0,0,0,0,0,0,0],"id":3,"left_children":[1,3,5,7,9,11,13,15,17,19,21,23,25,27,29,31,33,35,37,39,41,43,45,47,49,51,53,55,57,59,61,-1,-1,-1,-1,-1,-1,-1,-1,-1,-1,-1,-1,-1,-1,-1,-1,-1,-1,-1,-1,-1,-1,-1,-1,-1,-1,-1,-1,-1,-1,-1,-1],"loss_changes":[2.8873867E3,2.1231726E2,1.418534E2,1.2104004E1,2.8098297E1,1.7254837E1,2.0768433E1,1.3817749E0,4.700836E0,1.306395E1,7.8256474E0,5.05809E0,3.6928787E0,4.0236206E0,2.904541E0,1.5559654E0,1.1607666E0,2.7714539E0,3.0541658E0,7.7679315E0,1.3414093E1,2.1653638E0,8.251265E0,5.9437866E0,5.0843453E0,6.918278E-1,3.9708023E0,1.8416748E0,3.0787668E0,1.276062E0,4.235382E-1,0E0,0E0,0E0,0E0,0E0,0E0,0E0,0E0,0E0,0E0,0E0,0E0,0E0,0E0,0E0,0E0,0E0,0E0,0E0,0E0,0E0,0E0,0E0,0E0,0E0,0E0,0E0,0E0,0E0,0E0,0E0,0E0],"parents":[2147483647,0,0,1,1,2,2,3,3,4,4,5,5,6,6,7,7,8,8,9,9,10,10,11,11,12,12,13,13,14,14,15,15,16,16,17,17,18,18,19,19,20,20,21,21,22,22,23,23,24,24,25,25,26,26,27,27,28,28,29,29,30,30],"right_children":[2,4,6,8,10,12,14,16,18,20,22,24,26,28,30,32,34,36,38,40,42,44,46,48,50,52,54,56,58,60,62,-1,-1,-1,-1,-1,-1,-1,-1,-1,-1,-1,-1,-1,-1,-1,-1,-1,-1,-1,-1,-1,-1,-1,-1,-1,-1,-1,-1,-1,-1,-1,-1],"split_conditions":[5.519E-1,3.717E-1,6.62E-1,2.665E-1,4.796E-1,6.102E-1,7.72E-1,2.66E1,9.45E1,2.03E1,1.96E1,1E0,1.99E1,1E0,3.12E1,6.146E-1,8.58E1,1.99E1,3.55E-1,1E0,8.53E1,1E0,8.53E1,1E0,1.96E1,3.12E1,3.06E1,6.96E-1,5.98E1,1E0,1E0,-1.0600227E-2,2.194774E-3,-1.6271725E-2,-1.1383104E-2,-5.7297423E-3,-9.524226E-3,-5.8044787E-3,1.3080686E-3,-4.2721466E-3,2.5600076E-3,-5.4565365E-3,7.159069E-4,2.795893E-3,-1.9303755E-3,-2.2447587E-3,1.993464E-3,2.380535E-3,6.2128453E-4,3.1676323E-3,-9.2297496E-4,7.276386E-3,-5.342974E-3,1.9651146E-3,3.3463852E-3,5.761385E-3,7.891387E-3,-1.9968606E-3,3.5813854E-3,5.6213858E-3,1.4076385E-2,9.021386E-3,1.2151386E-2],"split_indices":[16,16,16,16,16,16,16,5,5,6,6,41,6,49,26,17,6,6,16,32,6,40,6,49,6,5,4,16,22,24,50,0,0,0,0,0,0,0,0,0,0,0,0,0,0,0,0,0,0,0,0,0,0,0,0,0,0,0,0,0,0,0,0],"split_type":[0,0,0,0,0,0,0,0,0,0,0,0,0,0,0,0,0,0,0,0,0,0,0,0,0,0,0,0,0,0,0,0,0,0,0,0,0,0,0,0,0,0,0,0,0,0,0,0,0,0,0,0,0,0,0,0,0,0,0,0,0,0,0],"sum_hessian":[2.5739E4,1.2964E4,1.2775E4,7.066E3,5.898E3,3.393E3,9.382E3,4.126E3,2.94E3,3.798E3,2.1E3,1.589E3,1.804E3,4.234E3,5.148E3,1.9E2,3.936E3,2.813E3,1.27E2,2.88E2,3.51E3,1.35E2,1.965E3,1.327E3,2.62E2,1.45E2,1.659E3,3.996E3,2.38E2,4.044E3,1.104E3,1.86E2,4E0,3.76E3,1.76E2,2.19E2,2.594E3,1.1E2,1.7E1,1.35E2,1.53E2,3.328E3,1.82E2,9.2E1,4.3E1,1.873E3,9.2E1,8.87E2,4.4E2,3.3E1,2.29E2,1.44E2,1E0,3.75E2,1.284E3,1.197E3,2.799E3,1.6E1,2.22E2,9.7E1,3.947E3,5.54E2,5.5E2],"tree_param":{"num_deleted":"0","num_feature":"52","num_nodes":"63","size_leaf_vector":"1"}},{"base_weights":[1.6346864E-2,2.499775E-2,-3.520639E-1,-4.108527E-1,-1.7389503E-1,-4.5497942E-1,-3.5595992E-1,-2.374816E-1,-1.3566063E-1,-4.7733438E-1,-4.3834049E-1,-2.7258065E-1,-3.6152336E-1,-2.4815725E-1,-1.4130434E-1,4.5918368E-2,-1.4381348E-1,-2.080537E-2,-2.404439E-2,-1.7096775E-2,-2.2134092E-2,-1.5651261E-2,-6.849315E-3,-1.914153E-2,-1.7123146E-2,-1.2097458E-2,-2.0833334E-2,-0E0,-1.21875005E-2,-1.6666668E-2,5.654762E-3,-9.411012E-3,-5.9343437E-3],"categories":[],"categories_nodes":[],"categories_segments":[],"categories_sizes":[],"default_left":[0,0,0,0,0,0,0,0,0,0,0,0,0,0,0,0,0,0,0,0,0,0,0,0,0,0,0,0,0,0,0,0,0],"id":4,"left_children":[1,-1,3,5,7,9,11,13,15,17,19,21,23,25,27,29,31,-1,-1,-1,-1,-1,-1,-1,-1,-1,-1,-1,-1,-1,-1,-1,-1],"loss_changes":[4.577806E3,0E0,1.5268616E2,2.639795E1,8.768707E0,2.050415E0,2.170227E0,1.3592606E0,3.3567238E0,3.614502E-1,1.3114014E0,1.657177E0,1.7297974E0,1.176506E0,1.9976904E0,2.5344386E0,2.3944626E0,0E0,0E0,0E0,0E0,0E0,0E0,0E0,0E0,0E0,0E0,0E0,0E0,0E0,0E0,0E0,0E0],"parents":[2147483647,0,0,2,2,3,3,4,4,5,5,6,6,7,7,8,8,9,9,10,10,11,11,12,12,13,13,14,14,15,15,16,16],"right_children":[2,-1,4,6,8,10,12,14,16,18,20,22,24,26,28,30,32,-1,-1,-1,-1,-1,-1,-1,-1,-1,-1,-1,-1,-1,-1,-1,-1],"split_conditions":[1E0,9.560314E-3,5.157232E-1,3.3495006E-1,5.956351E-1,1.8734443E-1,2.94E1,1.65E1,9E-1,1.06E1,2.56E1,4E0,4.0448564E-1,1.56E1,1.82E1,5.142E-1,6.264E-1,-1.2878427E-2,-1.7525641E-2,-6.0077147E-3,-1.171564E-2,-5.022994E-3,-2.6990937E-3,-6.9942116E-3,-5.6312117E-3,-3.0211227E-3,-4.898681E-3,-1.5109182E-4,-2.5520162E-3,-4.3050186E-3,5.779982E-4,-1.5673935E-3,-1.0229558E-3],"split_indices":[19,0,27,27,27,27,5,8,8,4,5,25,27,8,8,15,15,0,0,0,0,0,0,0,0,0,0,0,0,0,0,0,0],"split_type":[0,0,0,0,0,0,0,0,0,0,0,0,0,0,0,0,0,0,0,0,0,0,0,0,0,0,0,0,0,0,0,0,0],"sum_hessian":[2.5692E4,1.1109E4,1.4583E4,1.0964E4,3.619E3,6.074E3,4.89E3,1.357E3,2.262E3,2.58E3,3.494E3,3.09E2,4.581E3,1.22E3,1.37E2,9.7E1,2.165E3,1.48E2,2.432E3,1.54E2,3.34E3,2.37E2,7.2E1,2.154E3,2.427E3,1.179E3,4.1E1,5.8E1,7.9E1,1.4E1,8.3E1,7.8E2,1.385E3],"tree_param":{"num_deleted":"0","num_feature":"52","num_nodes":"33","size_leaf_vector":"1"}},{"base_weights":[2.6031377E-2,2.496211E-2,-3.3755738E-1,-3.9078936E-1,-1.5424399E-1,-4.4269976E-1,-3.3037078E-1,-1.9079655E-1,-1.0664336E-1,-4.6293688E-1,-4.1420117E-1,-1.928934E-1,-3.3568308E-1,-2.0809859E-1,-1.3439636E-1,-7.165948E-2,-1.7097415E-1,-1.9159837E-2,-2.343419E-2,-1.5454546E-2,-2.106706E-2,1.2820513E-3,-1.2264151E-2,-1.6038908E-2,-1.8683651E-2,-3.3088238E-3,-1.075388E-2,-9.0566045E-3,-3.1428572E-3,-4.1149943E-3,7.7380957E-3,-1.0135135E-3,-9.825582E-3],"categories":[],"categories_nodes":[],"categories_segments":[],"categories_sizes":[],"default_left":[0,0,0,0,0,0,0,0,0,0,0,0,0,0,0,0,0,0,0,0,0,0,0,0,0,0,0,0,0,0,0,0,0],"id":5,"left_children":[1,-1,3,5,7,9,11,13,15,17,19,21,23,25,27,29,31,-1,-1,-1,-1,-1,-1,-1,-1,-1,-1,-1,-1,-1,-1,-1,-1],"loss_changes":[4.441746E3,0E0,1.4239868E2,3.5335327E1,5.6987915E0,3.315918E0,3.7562866E0,1.7851334E0,3.2060223E0,1.4463501E0,1.7722473E0,2.2617302E0,2.7317505E0,1.3922424E0,1.4563828E0,2.2484884E0,1.93186E0,0E0,0E0,0E0,0E0,0E0,0E0,0E0,0E0,0E0,0E0,0E0,0E0,0E0,0E0,0E0,0E0],"parents":[2147483647,0,0,2,2,3,3,4,4,5,5,6,6,7,7,8,8,9,9,10,10,11,11,12,12,13,13,14,14,15,15,16,16],"right_children":[2,-1,4,6,8,10,12,14,16,18,20,22,24,26,28,30,32,-1,-1,-1,-1,-1,-1,-1,-1,-1,-1,-1,-1,-1,-1,-1,-1],"split_conditions":[1E0,9.058053E-3,5.213112E-1,3.3495006E-1,6.5196383E-1,2.2079158E-1,1.82E1,6.63E1,3.12E1,1.96E1,1.96E1,1.0065E3,1.2E1,1.25E1,6.069E-1,9.766E-1,8.419E-1,-1.0212319E-2,-1.5761858E-2,-5.9226104E-3,-1.0135756E-2,7.730276E-5,-4.404267E-3,-5.5896505E-3,-6.523616E-3,-6.776691E-4,-2.3614794E-3,-2.190128E-3,-5.405605E-4,-6.093741E-4,6.389737E-4,-8.147061E-5,-1.7573744E-3],"split_indices":[19,0,27,27,27,27,6,6,26,6,6,9,19,10,16,15,17,0,0,0,0,0,0,0,0,0,0,0,0,0,0,0,0],"split_type":[0,0,0,0,0,0,0,0,0,0,0,0,0,0,0,0,0,0,0,0,0,0,0,0,0,0,0,0,0,0,0,0,0],"sum_hessian":[2.5814E4,1.1216E4,1.4598E4,1.1312E4,3.286E3,6.081E3,5.231E3,1.857E3,1.429E3,3.547E3,2.534E3,1.96E2,5.035E3,1.419E3,4.38E2,9.27E2,5.02E2,2.43E2,3.304E3,1.64E2,2.37E3,3.8E1,1.58E2,3.623E3,1.412E3,6.7E1,1.352E3,2.64E2,1.74E2,8.86E2,4.1E1,7.3E1,4.29E2],"tree_param":{"num_deleted":"0","num_feature":"52","num_nodes":"33","size_leaf_vector":"1"}},{"base_weights":[2.7538894E-2,2.4532562E-2,-3.257649E-1,-3.8285112E-1,-1.5204678E-1,-4.250537E-1,-3.0789742E-1,-1.9133241E-1,-9.205903E-2,-4.523475E-1,-3.9661708E-1,-3.1232166E-1,-1.0119048E-1,-2.1514085E-1,-1.46E-1,-1.7263843E-1,-6.98299E-2,-2.4439571E-2,-2.1870064E-2,-2.0073554E-2,-1.49700595E-2,-1.66001E-2,-1.4543983E-2,-1.2790698E-2,2.9761905E-3,-9.424084E-3,-1.3465665E-2,-7.5983717E-3,8.928572E-3,-3.3333336E-3,-1.2716763E-2,3.3707866E-3,-4.0816325E-3],"categories":[],"categories_nodes":[],"categories_segments":[],"categories_sizes":[],"default_left":[0,0,0,0,0,0,0,0,0,0,0,0,0,0,0,0,0,0,0,0,0,0,0,0,0,0,0,0,0,0,0,0,0],"id":6,"left_children":[1,-1,3,5,7,9,11,13,15,17,19,21,23,25,27,29,31,-1,-1,-1,-1,-1,-1,-1,-1,-1,-1,-1,-1,-1,-1,-1,-1],"loss_changes":[4.1858696E3,0E0,1.4385608E2,3.441809E1,8.445137E0,5.2419434E0,3.5697632E0,2.3095703E0,2.5368366E0,1.7236938E0,1.4978638E0,1.5301819E0,2.1026437E0,2E0,1.4797812E0,2.640914E0,1.8149047E0,0E0,0E0,0E0,0E0,0E0,0E0,0E0,0E0,0E0,0E0,0E0,0E0,0E0,0E0,0E0,0E0],"parents":[2147483647,0,0,2,2,3,3,4,4,5,5,6,6,7,7,8,8,9,9,10,10,11,11,12,12,13,13,14,14,15,15,16,16],"right_children":[2,-1,4,6,8,10,12,14,16,18,20,22,24,26,28,30,32,-1,-1,-1,-1,-1,-1,-1,-1,-1,-1,-1,-1,-1,-1,-1,-1],"split_conditions":[1E0,8.671648E-3,5.157232E-1,3.9157254E-1,6.5196383E-1,2.2079158E-1,8.74E1,1.19E1,4.82E1,9.984077E-2,1E0,4.373E-1,6.41E-1,6.75E1,1.0301E3,3E0,1.3E1,-1.8578766E-2,-1.3099265E-2,-8.748981E-3,-4.97058E-3,-5.659319E-3,-4.671819E-3,-3.583009E-3,3.2621025E-4,-2.0359517E-3,-3.1056583E-3,-1.6868279E-3,1.2192399E-3,-5.5902154E-4,-1.8574328E-3,3.6209673E-4,-6.760419E-4],"split_indices":[19,0,27,27,27,27,6,8,7,27,12,15,17,7,9,2,10,0,0,0,0,0,0,0,0,0,0,0,0,0,0,0,0],"split_type":[0,0,0,0,0,0,0,0,0,0,0,0,0,0,0,0,0,0,0,0,0,0,0,0,0,0,0,0,0,0,0,0,0],"sum_hessian":[2.5581E4,1.107E4,1.4511E4,1.0921E4,3.59E3,6.984E3,3.937E3,2.168E3,1.422E3,3.556E3,3.428E3,3.854E3,8.3E1,1.419E3,7.49E2,3.06E2,1.116E3,1.025E3,2.531E3,3.262E3,1.66E2,2.002E3,1.852E3,4.2E1,4.1E1,9.54E2,4.65E2,7.36E2,1.3E1,1.34E2,1.72E2,8.8E1,1.028E3],"tree_param":{"num_deleted":"0","num_feature":"52","num_nodes":"33","size_leaf_vector":"1"}},{"base_weights":[2.5134126E-2,4.7098655E-1,-3.1599534E-1,4.6564457E-1,4.843404E-1,-4.1994098E-1,-2.3368162E-1,4.4842166E-1,4.7048417E-1,2.4290143E-2,4.3367347E-1,-4.4705367E-1,-3.889442E-1,-2.795255E-1,-1.2694195E-1,4.4892776E-1,-0E0,4.7258285E-1,4.3543956E-1,4.4329897E-1,-1.25E-2,-4.38786E-1,-4.9317738E-1,-3.9390245E-1,-2.8671327E-1,-3.0053803E-1,-2.3350112E-1,-8.394971E-2,-1.7990868E-1,2.2888284E-2,2.1688988E-2,1.25E-2,-1.25E-2,2.3777518E-2,2.254155E-2,2.1900827E-2,-1.25E-2,1.0000001E-2,2.2580644E-2,-2.2200948E-2,-1.7714286E-2,-2.4754902E-2,-6.25E-3,-1.3592233E-2,-1.9915102E-2,1.6666668E-2,-1.4893617E-2,-9.722223E-3,-1.5361035E-2,-9.274757E-3,-1.326959E-2,-6.61882E-3,-2.100551E-3,-1.2670455E-2,-6.516768E-3],"categories":[],"categories_nodes":[],"categories_segments":[],"categories_sizes":[],"default_left":[0,0,0,0,0,0,0,0,0,0,0,0,0,0,0,0,0,0,0,0,0,0,0,0,0,0,0,0,0,0,0,0,0,0,0,0,0,0,0,0,0,0,0,0,0,0,0,0,0,0,0,0,0,0,0],"id":7,"left_children":[1,3,5,7,9,11,13,15,17,-1,19,21,23,25,27,29,31,33,35,37,-1,39,41,43,45,47,49,51,53,-1,-1,-1,-1,-1,-1,-1,-1,-1,-1,-1,-1,-1,-1,-1,-1,-1,-1,-1,-1,-1,-1,-1,-1,-1,-1],"loss_changes":[3.912295E3,5.698242E-1,1.245907E2,4.5495605E-1,2.355957E-2,5.237549E0,3.9771973E1,4.026184E-1,2.5146484E-1,0E0,7.557335E-1,1.0908203E0,1.4137878E0,5.4325867E0,5.554825E0,3.866577E-2,2.5E-1,1.6357422E-1,7.5245667E-1,1.0588646E-1,0E0,1.1320801E0,3.008728E-1,1.4329529E0,1.088726E0,2.7074585E0,2.6881027E0,2.740285E0,3.9567795E0,0E0,0E0,0E0,0E0,0E0,0E0,0E0,0E0,0E0,0E0,0E0,0E0,0E0,0E0,0E0,0E0,0E0,0E0,0E0,0E0,0E0,0E0,0E0,0E0,0E0,0E0],"parents":[2147483647,0,0,1,1,2,2,3,3,4,4,5,5,6,6,7,7,8,8,10,10,11,11,12,12,13,13,14,14,15,15,16,16,17,17,18,18,19,19,21,21,22,22,23,23,24,24,25,25,26,26,27,27,28,28],"right_children":[2,4,6,8,10,12,14,16,18,-1,20,22,24,26,28,30,32,34,36,38,-1,40,42,44,46,48,50,52,54,-1,-1,-1,-1,-1,-1,-1,-1,-1,-1,-1,-1,-1,-1,-1,-1,-1,-1,-1,-1,-1,-1,-1,-1,-1,-1],"split_conditions":[1E0,8.245E-1,3.55E-1,1.39E1,5E0,2.386E-1,5.835E-1,8.217E-1,6E0,1.2968066E-2,9.207E-1,1E0,8.49E1,4.892E-1,2.66E1,1E0,1.09E2,1E0,2.33E1,1E0,-5.0418376E-4,1E0,1.041E2,2.46E1,9.934E2,2.03E1,1.79E1,5.86E1,6.646E-1,4.2883367E-3,4.7723176E-3,1.4128066E-2,-1.0269344E-3,7.5660157E-3,6.854567E-3,6.059818E-3,-1.693368E-5,8.071939E-3,1.0898066E-2,-1.3093802E-2,-8.661052E-3,-1.8349828E-2,-5.0631347E-3,-4.6053836E-3,-8.584303E-3,2.0801767E-3,-5.1220516E-3,-3.6456378E-3,-5.2322E-3,-2.2443482E-3,-4.194525E-3,-8.9962635E-4,-3.9622784E-4,-2.710484E-3,-1.1479974E-3],"split_indices":[19,16,16,26,24,16,16,16,24,0,16,50,6,16,26,48,1,43,10,20,0,11,5,5,9,6,26,7,16,0,0,0,0,0,0,0,0,0,0,0,0,0,0,0,0,0,0,0,0,0,0,0,0,0,0],"split_type":[0,0,0,0,0,0,0,0,0,0,0,0,0,0,0,0,0,0,0,0,0,0,0,0,0,0,0,0,0,0,0,0,0,0,0,0,0,0,0,0,0,0,0,0,0,0,0,0,0,0,0,0,0,0,0],"sum_hessian":[2.5721E4,1.1149E4,1.4572E4,7.989E3,3.16E3,6.438E3,8.134E3,1.773E3,6.216E3,3.063E3,9.7E1,3.427E3,3.011E3,5.689E3,2.445E3,1.771E3,2E0,5.853E3,3.63E2,9.6E1,1E0,2.915E3,5.12E2,2.869E3,1.42E2,3.902E3,1.787E3,1.351E3,1.094E3,1.1E3,6.71E2,1E0,1E0,5.132E3,7.21E2,3.62E2,1E0,4E0,9.2E1,2.741E3,1.74E2,5.09E2,3E0,1.02E2,2.767E3,2E0,1.4E2,2.33E2,3.669E3,7.16E2,1.071E3,6.26E2,7.25E2,4.39E2,6.55E2],"tree_param":{"num_deleted":"0","num_feature":"52","num_nodes":"55","size_leaf_vector":"1"}},{"base_weights":[2.0168819E-2,-2.650141E-1,3.3325174E-1,-3.9363447E-1,-1.3709797E-1,2.500747E-1,4.332315E-1,-4.2037395E-1,-3.32928E-1,-1.8118869E-1,1.0974823E-2,1.7005758E-1,3.0100295E-1,4.003635E-1,4.7223318E-1,-4.773166E-1,-4.0395245E-1,-7.936508E-2,-3.4077233E-1,6.014151E-2,-2.0257537E-1,2.1768707E-1,-1.06913755E-2,9.5933266E-2,2.1311475E-1,2.9384497E-1,4.3446603E-1,4.7636363E-1,3.9262354E-1,2.5E-1,4.72573E-1,-2.3957323E-2,-4.166667E-3,-2.060089E-2,-1.4658635E-2,1.3636365E-2,-7.54717E-3,-1.746956E-2,-9.198113E-3,-4.848485E-3,7.9807695E-3,-1.087605E-2,3.3864544E-3,1.1111111E-3,1.5048544E-2,-1.1541325E-3,1.3114753E-2,1.5151516E-3,6.78392E-3,1.962963E-2,9.847985E-3,2.0523649E-2,1.4207079E-2,-1.25E-2,2.1951219E-2,-1.25E-2,2.3996351E-2,1.7746253E-2,2.0588236E-2,2.0000001E-2,-1.25E-2,2.2949604E-2,2.4064347E-2],"categories":[],"categories_nodes":[],"categories_segments":[],"categories_sizes":[],"default_left":[0,0,0,0,0,0,0,0,0,0,0,0,0,0,0,0,0,0,0,0,0,0,0,0,0,0,0,0,0,0,0,0,0,0,0,0,0,0,0,0,0,0,0,0,0,0,0,0,0,0,0,0,0,0,0,0,0,0,0,0,0,0,0],"id":8,"left_children":[1,3,5,7,9,11,13,15,17,19,21,23,25,27,29,31,33,35,37,39,41,43,45,47,49,51,53,55,57,59,61,-1,-1,-1,-1,-1,-1,-1,-1,-1,-1,-1,-1,-1,-1,-1,-1,-1,-1,-1,-1,-1,-1,-1,-1,-1,-1,-1,-1,-1,-1,-1,-1],"loss_changes":[2.2954504E3,2.2129956E2,1.0180432E2,1.0748901E1,4.4050697E1,2.7219604E1,6.9436035E0,4.158142E0,4.062393E0,2.684555E1,6.939785E0,8.293625E0,3.7776794E0,1.5929565E0,7.36084E-2,7.0695496E-1,3.1118164E0,1.6289035E0,2.6306763E0,6.641946E0,1.9309128E1,2.3863335E0,4.7519126E0,2.4974232E0,4.6981125E0,4.27771E0,7.524872E-1,8.317642E-1,1.8396912E0,5.5E-1,7.897949E-2,0E0,0E0,0E0,0E0,0E0,0E0,0E0,0E0,0E0,0E0,0E0,0E0,0E0,0E0,0E0,0E0,0E0,0E0,0E0,0E0,0E0,0E0,0E0,0E0,0E0,0E0,0E0,0E0,0E0,0E0,0E0,0E0],"parents":[2147483647,0,0,1,1,2,2,3,3,4,4,5,5,6,6,7,7,8,8,9,9,10,10,11,11,12,12,13,13,14,14,15,15,16,16,17,17,18,18,19,19,20,20,21,21,22,22,23,23,24,24,25,25,26,26,27,27,28,28,29,29,30,30],"right_children":[2,4,6,8,10,12,14,16,18,20,22,24,26,28,30,32,34,36,38,40,42,44,46,48,50,52,54,56,58,60,62,-1,-1,-1,-1,-1,-1,-1,-1,-1,-1,-1,-1,-1,-1,-1,-1,-1,-1,-1,-1,-1,-1,-1,-1,-1,-1,-1,-1,-1,-1,-1,-1],"split_conditions":[5.452064E-1,3.6838946E-1,7.333232E-1,2.5217357E-1,5.157232E-1,6.5196383E-1,8.480655E-1,9.984077E-2,2.35E1,2.06E1,3E1,6.004E-1,8.53E1,2.12E1,8.291E-1,1.041E2,1E0,2.943E-1,1E0,1E0,8.53E1,4.98E1,8.58E1,1.27E1,2.03E1,1.96E1,7.45E1,6.59E-1,7.759501E-1,1.71E1,5.98E1,-1.6839541E-2,-4.809977E-3,-1.1558431E-2,-6.918111E-3,1.1777387E-3,-2.919995E-3,-7.0864866E-3,-3.2042325E-3,-1.3565653E-3,1.7175913E-3,-4.005361E-3,7.1510224E-4,9.54777E-5,2.4225847E-3,-2.0819307E-4,2.0161762E-3,2.8611123E-4,1.1960358E-3,5.4594576E-3,1.7919943E-3,1.0469017E-2,3.4810156E-3,-7.0629717E-4,1.0993371E-2,-1.0702342E-3,1.3479016E-2,6.467414E-3,9.117466E-3,1.2539016E-2,-6.659836E-4,1.1849016E-2,1.3061839E-2],"split_indices":[27,27,27,27,27,27,27,27,5,6,5,16,6,6,17,5,11,16,12,32,6,3,6,26,6,6,4,16,27,8,3,0,0,0,0,0,0,0,0,0,0,0,0,0,0,0,0,0,0,0,0,0,0,0,0,0,0,0,0,0,0,0,0],"split_type":[0,0,0,0,0,0,0,0,0,0,0,0,0,0,0,0,0,0,0,0,0,0,0,0,0,0,0,0,0,0,0,0,0,0,0,0,0,0,0,0,0,0,0,0,0,0,0,0,0,0,0,0,0,0,0,0,0,0,0,0,0,0,0],"sum_hessian":[2.5707E4,1.3453E4,1.2254E4,6.707E3,6.746E3,6.691E3,5.563E3,4.652E3,2.055E3,5.198E3,1.548E3,2.604E3,4.087E3,3.025E3,2.538E3,1.035E3,3.617E3,6.2E1,1.993E3,4.23E2,4.775E3,1.46E2,1.402E3,9.58E2,1.646E3,3.882E3,2.05E2,2.74E2,2.751E3,5E0,2.533E3,1.03E3,5E0,3.369E3,2.48E2,1E1,5.2E1,1.888E3,1.05E2,1.64E2,2.59E2,4.525E3,2.5E2,4.4E1,1.02E2,1.342E3,6E1,3.62E2,5.96E2,1.34E2,1.512E3,2.95E2,3.587E3,1E0,2.04E2,1E0,2.73E2,9.33E2,1.818E3,4E0,1E0,1.011E3,1.522E3],"tree_param":{"num_deleted":"0","num_feature":"52","num_nodes":"63","size_leaf_vector":"1"}},{"base_weights":[2.0458616E-2,-2.667055E-1,3.0880862E-1,-3.8005206E-1,-1.4986591E-1,1.786199E-1,3.7729222E-1,-4.3244803E-1,-3.4536213E-1,-2.0024163E-1,-9.475074E-2,9.968652E-2,2.2310686E-1,3.2352203E-1,4.2591333E-1,-4.1909307E-1,-4.8710316E-1,-3.5452357E-1,-1.725E-1,-2.1291788E-1,-3.0303031E-2,-1.0722933E-1,1.6546762E-1,4.5622688E-2,1.5541402E-1,4.0127388E-1,2.1254681E-1,3.0300665E-1,3.5998604E-1,4.0343428E-1,4.6147057E-1,-2.1190593E-2,-1.1818182E-2,-1.3636365E-2,-2.4544535E-2,-1.1099138E-2,-1.8159773E-2,-1.6949152E-3,-1.1443662E-2,-1.1130079E-2,-1.3071896E-3,-8.558559E-3,4.9586776E-3,4.5643155E-3,-6.2617883E-3,1.4224137E-2,3.9634146E-3,-5.902778E-3,3.0743245E-3,9.991198E-3,1.9495413E-3,2.0352565E-2,-1.25E-2,9.960613E-3,1.6795367E-2,7.657658E-3,1.5483476E-2,1.6815035E-2,2.0793838E-2,8.163265E-3,2.0385338E-2,2.3302285E-2,1.2162163E-2],"categories":[],"categories_nodes":[],"categories_segments":[],"categories_sizes":[],"default_left":[0,0,0,0,0,0,0,0,0,0,0,0,0,0,0,0,0,0,0,0,0,0,0,0,0,0,0,0,0,0,0,0,0,0,0,0,0,0,0,0,0,0,0,0,0,0,0,0,0,0,0,0,0,0,0,0,0,0,0,0,0,0,0],"id":9,"left_children":[1,3,5,7,9,11,13,15,17,19,21,23,25,27,29,31,33,35,37,39,41,43,45,47,49,51,53,55,57,59,61,-1,-1,-1,-1,-1,-1,-1,-1,-1,-1,-1,-1,-1,-1,-1,-1,-1,-1,-1,-1,-1,-1,-1,-1,-1,-1,-1,-1,-1,-1,-1,-1],"loss_changes":[2.1269802E3,1.7038513E2,1.1420618E2,1.1723328E1,1.758104E1,1.5498627E1,2.1817749E1,1.6921692E0,6.1705627E0,7.126068E0,9.853386E0,4.7983932E0,5.2316895E0,2.8772278E0,3.3363037E0,1.7062683E0,2.7534485E-1,4.21344E0,1.5549269E0,5.5666656E0,4.230214E0,1.0345478E1,1.4034541E0,2.113068E0,4.05093E0,6.92503E-1,4.325119E0,2.5096283E0,1.7558136E0,2.7121582E0,1.5839233E0,0E0,0E0,0E0,0E0,0E0,0E0,0E0,0E0,0E0,0E0,0E0,0E0,0E0,0E0,0E0,0E0,0E0,0E0,0E0,0E0,0E0,0E0,0E0,0E0,0E0,0E0,0E0,0E0,0E0,0E0,0E0,0E0],"parents":[2147483647,0,0,1,1,2,2,3,3,4,4,5,5,6,6,7,7,8,8,9,9,10,10,11,11,12,12,13,13,14,14,15,15,16,16,17,17,18,18,19,19,20,20,21,21,22,22,23,23,24,24,25,25,26,26,27,27,28,28,29,29,30,30],"right_children":[2,4,6,8,10,12,14,16,18,20,22,24,26,28,30,32,34,36,38,40,42,44,46,48,50,52,54,56,58,60,62,-1,-1,-1,-1,-1,-1,-1,-1,-1,-1,-1,-1,-1,-1,-1,-1,-1,-1,-1,-1,-1,-1,-1,-1,-1,-1,-1,-1,-1,-1,-1,-1],"split_conditions":[5.479E-1,3.55E-1,6.865E-1,2.063E-1,4.507E-1,6.069E-1,7.922E-1,1E0,1E0,1E0,8.53E1,1.0131E3,1.89E1,1.988E2,8.717E-1,8.81E1,1.13E1,1.86E1,8.68E1,1E0,1E0,2.03E1,1.0111E3,4.047E-1,1E0,1.29E1,8.91E1,1E0,1E0,1.84E1,5E0,-1.2724808E-2,-6.1944984E-3,-1.3750359E-2,-1.626036E-2,-4.577792E-3,-8.192335E-3,-4.0830672E-4,-4.0675164E-3,-4.4695674E-3,-3.8146452E-4,-3.0698702E-3,1.3138488E-3,8.7691995E-4,-1.9131467E-3,1.8626362E-3,6.076336E-4,-1.1706889E-3,6.394416E-4,1.676163E-3,3.3197107E-4,5.9263143E-3,-4.6236516E-4,2.1422685E-3,3.6536083E-3,2.5017366E-3,4.8123077E-3,5.9157135E-3,8.218891E-3,2.3334117E-3,9.514037E-3,1.2271571E-2,7.9231635E-3],"split_indices":[16,16,16,16,16,16,16,50,12,11,6,9,6,22,16,6,10,6,6,12,32,6,9,15,49,4,5,25,47,22,24,0,0,0,0,0,0,0,0,0,0,0,0,0,0,0,0,0,0,0,0,0,0,0,0,0,0,0,0,0,0,0,0],"split_type":[0,0,0,0,0,0,0,0,0,0,0,0,0,0,0,0,0,0,0,0,0,0,0,0,0,0,0,0,0,0,0,0,0,0,0,0,0,0,0,0,0,0,0,0,0,0,0,0,0,0,0,0,0,0,0,0,0,0,0,0,0,0,0],"sum_hessian":[2.5685E4,1.2869E4,1.2816E4,6.531E3,6.338E3,4.419E3,8.397E3,2.597E3,3.934E3,3.31E3,3.028E3,1.594E3,2.825E3,3.991E3,4.406E3,2.094E3,5.03E2,3.735E3,1.99E2,3.08E3,2.3E2,2.89E3,1.38E2,8.1E2,7.84E2,1.56E2,2.669E3,2.56E3,1.431E3,2.707E3,1.699E3,2.04E3,5.4E1,1E1,4.93E2,2.31E2,3.504E3,5.8E1,1.41E2,2.928E3,1.52E2,1.1E2,1.2E2,2.4E2,2.65E3,5.7E1,8.1E1,7.1E1,7.39E2,5.67E2,2.17E2,1.55E2,1E0,2.411E3,2.58E2,1.1E2,2.45E3,1.01E3,4.21E2,4.8E1,2.659E3,1.663E3,3.6E1],"tree_param":{"num_deleted":"0","num_feature":"52","num_nodes":"63","size_leaf_vector":"1"}},{"base_weights":[1.8263146E-2,4.3418688E-1,-3.0167946E-1,4.313218E-1,2.465619E-2,-2.451187E-1,-3.9506966E-1,4.0861088E-1,4.3425256E-1,-2.971504E-1,-2.1350917E-1,-4.2565247E-1,-3.5992143E-1,4.1988635E-1,3.7926137E-1,4.4880277E-1,4.267567E-1,-2.536885E-1,-3.2128146E-1,-2.42377E-1,-1.8286867E-1,-4.127447E-1,-4.8535156E-1,-2.2348484E-1,-3.672328E-1,2.1757813E-2,1.8879669E-2,-1.25E-2,1.9088319E-2,1.870229E-2,2.2593627E-2,2.1819357E-2,2.0717679E-2,-0E0,-1.2938963E-2,-1.6564343E-2,-9.166667E-3,-1.0255242E-2,-1.325419E-2,-2.75E-3,-9.383327E-3,-2.0856773E-2,-1.4835166E-2,-2.4361493E-2,-6.25E-3,3.846154E-3,-1.2708333E-2,-1.7298814E-2,-2.0133482E-2],"categories":[],"categories_nodes":[],"categories_segments":[],"categories_sizes":[],"default_left":[0,0,0,0,0,0,0,0,0,0,0,0,0,0,0,0,0,0,0,0,0,0,0,0,0,0,0,0,0,0,0,0,0,0,0,0,0,0,0,0,0,0,0,0,0,0,0,0,0],"id":10,"left_children":[1,3,5,7,-1,9,11,13,15,17,19,21,23,25,27,29,31,33,35,37,39,41,43,45,47,-1,-1,-1,-1,-1,-1,-1,-1,-1,-1,-1,-1,-1,-1,-1,-1,-1,-1,-1,-1,-1,-1,-1,-1],"loss_changes":[3.4065005E3,1.666748E0,7.6331665E1,5.29541E-1,0E0,1.4761902E1,5.711731E0,2.4812317E-1,8.3288574E-1,3.488556E0,4.918762E0,2.0436401E0,2.456665E0,4.0400696E-1,6.503029E-1,5.593872E-1,5.620117E-1,1.5755844E0,2.9550629E0,2.3881378E0,1.6620712E0,1.0995483E0,2.8564453E-1,1.2362032E0,1.6790771E0,0E0,0E0,0E0,0E0,0E0,0E0,0E0,0E0,0E0,0E0,0E0,0E0,0E0,0E0,0E0,0E0,0E0,0E0,0E0,0E0,0E0,0E0,0E0,0E0],"parents":[2147483647,0,0,1,1,2,2,3,3,5,5,6,6,7,7,8,8,9,9,10,10,11,11,12,12,13,13,14,14,15,15,16,16,17,17,18,18,19,19,20,20,21,21,22,22,23,23,24,24],"right_children":[2,4,6,8,-1,10,12,14,16,18,20,22,24,26,28,30,32,34,36,38,40,42,44,46,48,-1,-1,-1,-1,-1,-1,-1,-1,-1,-1,-1,-1,-1,-1,-1,-1,-1,-1,-1,-1,-1,-1,-1,-1],"split_conditions":[1E0,1E0,2E1,1E0,1.3122993E-2,4.217E-1,4.324E-1,1.0178E3,2E0,5E0,7.539E-1,1E0,1.06E1,1E0,1.1E1,1.19E1,2.222E2,5.1E0,9.04E1,9.19E1,9E-1,7.75E1,1.041E2,1.0006E3,3E0,4.4184388E-3,3.432131E-3,-4.4157804E-4,4.7522592E-3,8.479871E-3,9.05363E-3,6.5271975E-3,6.4555914E-3,1.7138645E-4,-4.3166936E-3,-6.2651457E-3,-2.2561222E-3,-2.949214E-3,-4.0362193E-3,-4.4636428E-4,-1.7776325E-3,-1.0894859E-2,-7.7036717E-3,-1.5874842E-2,-3.7564605E-3,1.0767356E-3,-5.108142E-3,-7.4969204E-3,-8.910737E-3],"split_indices":[19,45,19,24,0,15,17,9,24,19,17,50,4,28,10,10,23,4,5,22,8,4,5,9,24,0,0,0,0,0,0,0,0,0,0,0,0,0,0,0,0,0,0,0,0,0,0,0,0],"split_type":[0,0,0,0,0,0,0,0,0,0,0,0,0,0,0,0,0,0,0,0,0,0,0,0,0,0,0,0,0,0,0,0,0,0,0,0,0,0,0,0,0,0,0,0,0,0,0,0,0],"sum_hessian":[2.5597E4,1.1129E4,1.4468E4,1.0621E4,5.08E2,9.013E3,5.455E3,1.23E3,9.391E3,3.403E3,5.61E3,2.911E3,2.544E3,8.79E2,3.51E2,3.173E3,6.218E3,1.219E3,2.184E3,2.885E3,2.725E3,2.4E3,5.11E2,1.31E2,2.413E3,6.39E2,2.4E2,1E0,3.5E2,1.3E2,3.043E3,3.481E3,2.737E3,2.4E1,1.195E3,2.035E3,1.49E2,1.096E3,1.789E3,9.9E1,2.626E3,2.31E3,9E1,5.08E2,3E0,1.2E1,1.19E2,1.515E3,8.98E2],"tree_param":{"num_deleted":"0","num_feature":"52","num_nodes":"49","size_leaf_vector":"1"}},{"base_weights":[1.8935537E-2,4.1346067E-1,-2.843932E-1,3.9851284E-1,4.6490172E-1,-3.668603E-1,-1.9758351E-1,3.8884163E-1,4.1920117E-1,-1.25E-2,4.6528894E-1,-4.0262294E-1,-3.0887553E-1,-2.4723837E-1,-1.5002781E-1,4.4529262E-1,3.8472754E-1,-1.25E-2,4.195381E-1,4.4782168E-1,4.764276E-1,-4.3851054E-1,-3.7357002E-1,-7.857143E-2,-3.1460676E-1,-2.5318182E-1,-1.0638298E-1,-1.3439597E-1,-2.2528364E-1,1.970803E-2,2.3540856E-2,2.2230115E-2,1.9027455E-2,2.3557693E-2,2.0696638E-2,2.274061E-2,2.0036764E-2,-0E0,2.385306E-2,-2.4274662E-2,-2.1114755E-2,-1.9251747E-2,-1.3217214E-2,-6.349207E-3,1.5625E-2,-1.6034156E-2,-9.2E-3,-1.3023331E-2,-5.959302E-3,1.25E-2,-7.2265626E-3,-6.941096E-3,1.6025642E-3,-8.032128E-3,-1.3414635E-2],"categories":[],"categories_nodes":[],"categories_segments":[],"categories_sizes":[],"default_left":[0,0,0,0,0,0,0,0,0,0,0,0,0,0,0,0,0,0,0,0,0,0,0,0,0,0,0,0,0,0,0,0,0,0,0,0,0,0,0,0,0,0,0,0,0,0,0,0,0,0,0,0,0,0,0],"id":11,"left_children":[1,3,5,7,9,11,13,15,17,-1,19,21,23,25,27,29,31,-1,33,35,37,39,41,43,45,47,49,51,53,-1,-1,-1,-1,-1,-1,-1,-1,-1,-1,-1,-1,-1,-1,-1,-1,-1,-1,-1,-1,-1,-1,-1,-1,-1,-1],"loss_changes":[3.055792E3,8.349243E0,1.0327405E2,1.559082E0,8.063965E-1,1.5225098E1,1.6575165E1,1.1940918E0,7.2024536E-1,0E0,2.7148438E-1,4.606262E0,3.7080078E0,2.8529205E0,4.200012E0,3.2733154E-1,1.2035522E0,0E0,5.942383E-1,1.426239E-1,4.5455933E-1,1.3499146E0,3.0726929E0,1.3649802E0,2.1305847E0,3.1902008E0,1.9530834E0,2.199768E0,1.6722546E0,0E0,0E0,0E0,0E0,0E0,0E0,0E0,0E0,0E0,0E0,0E0,0E0,0E0,0E0,0E0,0E0,0E0,0E0,0E0,0E0,0E0,0E0,0E0,0E0,0E0,0E0],"parents":[2147483647,0,0,1,1,2,2,3,3,4,4,5,5,6,6,7,7,8,8,10,10,11,11,12,12,13,13,14,14,15,15,16,16,18,18,19,19,20,20,21,21,22,22,23,23,24,24,25,25,26,26,27,27,28,28],"right_children":[2,4,6,8,10,12,14,16,18,-1,20,22,24,26,28,30,32,-1,34,36,38,40,42,44,46,48,50,52,54,-1,-1,-1,-1,-1,-1,-1,-1,-1,-1,-1,-1,-1,-1,-1,-1,-1,-1,-1,-1,-1,-1,-1,-1,-1,-1],"split_conditions":[1E0,8.480655E-1,4.000015E-1,7.333232E-1,3.667E-1,2.5217357E-1,5.157232E-1,2.52E1,2.811E-1,-1.8454075E-3,5.98E1,1.757487E-1,2.35E1,1E0,3.48E1,5.287081E-1,4.0448564E-1,-1.3486565E-3,1.23E1,5.65E1,8.291E-1,1.74E1,7.23E1,6.7E1,9.45E1,1E0,1.28E1,9.766E-1,7.897E-1,3.4987896E-3,9.233698E-3,2.6314915E-3,4.6465695E-3,1.2292764E-2,8.130699E-3,1.0654017E-2,1.1690149E-2,1.0963917E-3,1.1678374E-2,-1.4831101E-2,-1.2383481E-2,-9.321694E-3,-6.0245246E-3,-2.3621887E-3,1.2640491E-3,-6.1038635E-3,-2.8939159E-3,-4.0998333E-3,-1.4173851E-3,2.0889908E-3,-2.1140368E-3,-1.2584239E-3,1.3625622E-4,-2.1930337E-3,-2.6237115E-3],"split_indices":[19,27,27,27,15,27,27,5,15,0,3,27,5,14,26,27,27,0,4,3,17,26,4,19,5,11,10,15,17,0,0,0,0,0,0,0,0,0,0,0,0,0,0,0,0,0,0,0,0,0,0,0,0,0,0],"split_type":[0,0,0,0,0,0,0,0,0,0,0,0,0,0,0,0,0,0,0,0,0,0,0,0,0,0,0,0,0,0,0,0,0,0,0,0,0,0,0,0,0,0,0,0,0,0,0,0,0,0,0,0,0,0,0],"sum_hessian":[2.5533E4,1.1098E4,1.4435E4,8.606E3,2.492E3,7.401E3,7.034E3,5.878E3,2.728E3,1E0,2.491E3,4.574E3,2.827E3,3.439E3,3.595E3,3.92E2,5.486E3,1E0,2.727E3,9.86E2,1.505E3,2.04E3,2.534E3,6.9E1,2.758E3,3.299E3,1.4E2,2.979E3,6.16E2,1.36E2,2.56E2,3.51E2,5.135E3,2.59E2,2.468E3,8.51E2,1.35E2,2E0,1.503E3,5.16E2,1.524E3,2.291E3,2.43E2,6.2E1,7E0,2.634E3,1.24E2,3.128E3,1.71E2,1.3E1,1.27E2,2.902E3,7.7E1,2.48E2,3.68E2],"tree_param":{"num_deleted":"0","num_feature":"52","num_nodes":"55","size_leaf_vector":"1"}},{"base_weights":[1.56493E-2,3.9936402E-1,-2.7862883E-1,3.769199E-1,4.40452E-1,-3.683143E-1,-2.0304985E-1,3.6583012E-1,3.9692128E-1,4.0317622E-1,4.5258185E-1,-3.9790693E-1,-3.0678672E-1,-2.5362873E-1,-1.5304326E-1,4.8660713E-1,3.627774E-1,3.916975E-1,4.8880598E-1,4.0650827E-1,-0E0,-1.25E-2,4.5290345E-1,-4.580868E-1,-3.8024727E-1,-3.119396E-1,-7.2916664E-2,-1.5162455E-1,-2.6129827E-1,-1.4048114E-1,-2.2213115E-1,2.4774775E-2,-1.25E-2,2.0689657E-2,1.7904192E-2,1.8290354E-2,2.0547947E-2,2.4807692E-2,1.0000001E-2,2.3922414E-2,1.9812427E-2,-1.875E-2,1.25E-2,2.2137405E-2,2.3622245E-2,-2.2951629E-2,1.25E-2,-1.9558437E-2,-1.5127021E-2,-1.602919E-2,-9.022556E-3,6.2500004E-4,-2.2222223E-2,-1.594203E-2,-4.7846893E-3,-1.3300142E-2,-6.934307E-3,-9.628612E-3,-6.3044303E-3,-5.3333337E-3,-1.1893657E-2],"categories":[],"categories_nodes":[],"categories_segments":[],"categories_sizes":[],"default_left":[0,0,0,0,0,0,0,0,0,0,0,0,0,0,0,0,0,0,0,0,0,0,0,0,0,0,0,0,0,0,0,0,0,0,0,0,0,0,0,0,0,0,0,0,0,0,0,0,0,0,0,0,0,0,0,0,0,0,0,0,0],"id":12,"left_children":[1,3,5,7,9,11,13,15,17,19,21,23,25,27,29,31,33,35,37,39,41,-1,43,45,47,49,51,53,55,57,59,-1,-1,-1,-1,-1,-1,-1,-1,-1,-1,-1,-1,-1,-1,-1,-1,-1,-1,-1,-1,-1,-1,-1,-1,-1,-1,-1,-1,-1,-1],"loss_changes":[2.9043843E3,1.0129272E1,9.859741E1,1.4578857E0,1.5980835E0,1.1996948E1,1.994754E1,1.5422974E0,1.0401917E0,1.3111572E0,7.8271484E-1,4.598633E0,2.5875092E0,3.0325623E0,3.4195251E0,8.571625E-1,9.4158936E-1,1.0629883E0,1.8513107E-1,5.248871E-1,9.375E-1,0E0,3.786621E-1,7.938385E-1,2.8333435E0,2.3506317E0,1.5288194E0,2.5601377E0,2.0691528E0,2.5000381E0,1.0833874E0,0E0,0E0,0E0,0E0,0E0,0E0,0E0,0E0,0E0,0E0,0E0,0E0,0E0,0E0,0E0,0E0,0E0,0E0,0E0,0E0,0E0,0E0,0E0,0E0,0E0,0E0,0E0,0E0,0E0,0E0],"parents":[2147483647,0,0,1,1,2,2,3,3,4,4,5,5,6,6,7,7,8,8,9,9,10,10,11,11,12,12,13,13,14,14,15,15,16,16,17,17,18,18,19,19,20,20,22,22,23,23,24,24,25,25,26,26,27,27,28,28,29,29,30,30],"right_children":[2,4,6,8,10,12,14,16,18,20,22,24,26,28,30,32,34,36,38,40,42,-1,44,46,48,50,52,54,56,58,60,-1,-1,-1,-1,-1,-1,-1,-1,-1,-1,-1,-1,-1,-1,-1,-1,-1,-1,-1,-1,-1,-1,-1,-1,-1,-1,-1,-1,-1,-1],"split_conditions":[1E0,8.005992E-1,3.648E-1,7.0585084E-1,1E0,2.5217357E-1,4.5044386E-1,3.414E-1,8.58E1,1.031E3,2.811E-1,9.984077E-2,9.76E1,2.09E1,3.48E1,1E0,2.6E1,1.0114E3,1.0274E3,3.21E1,1.09E2,-1.2812227E-3,1.594E2,3.135E-1,7.78E1,1E0,2.88E1,2E0,9.45E1,5.213112E-1,4.594E-1,2.638556E-3,-6.472558E-4,6.1444314E-3,3.7440048E-3,6.702371E-3,6.7432583E-3,1.2664467E-2,1.2286921E-2,1.1033773E-2,8.267246E-3,-1.5419603E-3,1.6650498E-3,9.96463E-3,1.1605802E-2,-1.3841263E-2,8.7762624E-4,-9.557338E-3,-7.6477337E-3,-5.840484E-3,-2.977407E-3,9.649396E-5,-7.8369E-3,-5.0685676E-3,-1.0214783E-3,-4.6258494E-3,-1.3564728E-3,-3.044358E-3,-1.1971056E-3,-1.8803098E-3,-2.7417957E-3],"split_indices":[19,27,16,27,25,27,27,16,6,9,15,27,5,6,26,42,5,9,9,5,1,0,3,16,6,11,26,24,5,27,16,0,0,0,0,0,0,0,0,0,0,0,0,0,0,0,0,0,0,0,0,0,0,0,0,0,0,0,0,0,0],"split_type":[0,0,0,0,0,0,0,0,0,0,0,0,0,0,0,0,0,0,0,0,0,0,0,0,0,0,0,0,0,0,0,0,0,0,0,0,0,0,0,0,0,0,0,0,0,0,0,0,0,0,0,0,0,0,0,0,0,0,0,0,0],"sum_hessian":[2.5719E4,1.1163E4,1.4556E4,7.226E3,3.937E3,6.655E3,7.901E3,4.661E3,2.565E3,9.75E2,2.962E3,4.49E3,2.165E3,3.926E3,3.975E3,1.11E2,4.55E3,2.432E3,1.33E2,9.67E2,8E0,1E0,2.961E3,1.013E3,3.477E3,2.118E3,4.7E1,2.76E2,3.65E3,3.366E3,6.09E2,1.1E2,1E0,3.76E2,4.174E3,1.046E3,1.386E3,1.29E2,4E0,1.15E2,8.52E2,3E0,5E0,1.964E3,9.97E2,1.012E3,1E0,3.045E3,4.32E2,1.986E3,1.32E2,3.9E1,8E0,6.8E1,2.08E2,3.514E3,1.36E2,7.26E2,2.64E3,7.4E1,5.35E2],"tree_param":{"num_deleted":"0","num_feature":"52","num_nodes":"61","size_leaf_vector":"1"}},{"base_weights":[1.636951E-2,-2.2705133E-1,2.7952853E-1,-3.3947924E-1,-1.1556252E-1,2.1248056E-1,3.912292E-1,-4.036488E-1,-2.9733434E-1,-1.4876112E-1,-3.9037084E-3,1.3451087E-1,2.515075E-1,3.4647003E-1,4.272053E-1,-4.5338115E-1,-3.740942E-1,-1.5272728E-1,-3.078877E-1,4.2394016E-2,-1.6481327E-1,1.6554055E-1,-2.1942446E-2,3.3526012E-1,1.2000832E-1,2.4341434E-1,4.122449E-1,4.2961165E-1,3.370907E-1,3.9744848E-1,4.4656736E-1,-2.1158008E-2,-2.3980584E-2,-1.904762E-2,-4.375E-3,-5.5921054E-3,-1.71875E-2,-1.6698394E-2,-1.3144517E-2,-5.1515154E-3,7.1729957E-3,-8.894607E-3,1.5939598E-3,-5.2083336E-4,1.2376238E-2,-1.5219005E-3,1.1931818E-2,1.7410716E-2,-4.166667E-3,5.474213E-3,1.6239317E-2,1.9321535E-2,1.1636323E-2,1.3793103E-2,2.1428572E-2,2.2702703E-2,1.0227273E-2,-2.0000001E-2,1.6944593E-2,2.0541206E-2,1.714976E-2,-0E0,2.2386363E-2],"categories":[],"categories_nodes":[],"categories_segments":[],"categories_sizes":[],"default_left":[0,0,0,0,0,0,0,0,0,0,0,0,0,0,0,0,0,0,0,0,0,0,0,0,0,0,0,0,0,0,0,0,0,0,0,0,0,0,0,0,0,0,0,0,0,0,0,0,0,0,0,0,0,0,0,0,0,0,0,0,0,0,0],"id":13,"left_children":[1,3,5,7,9,11,13,15,17,19,21,23,25,27,29,31,33,35,37,39,41,43,45,47,49,51,53,55,57,59,61,-1,-1,-1,-1,-1,-1,-1,-1,-1,-1,-1,-1,-1,-1,-1,-1,-1,-1,-1,-1,-1,-1,-1,-1,-1,-1,-1,-1,-1,-1,-1,-1],"loss_changes":[1.6455952E3,1.6723303E2,9.236481E1,1.7848206E1,2.4843178E1,2.3445312E1,7.305847E0,3.6974792E0,6.078705E0,1.5858589E1,4.7015657E0,7.459469E0,6.587433E0,1.4678192E0,1.2986145E0,5.7073975E-1,3.2215576E0,2.109303E0,4.301239E0,5.908454E0,1.2266296E1,2.1375842E0,3.0843956E0,9.671135E-1,5.1452904E0,7.395294E0,4.2730713E-1,1.0403671E0,2.6089172E0,6.0128784E-1,7.9974365E-1,0E0,0E0,0E0,0E0,0E0,0E0,0E0,0E0,0E0,0E0,0E0,0E0,0E0,0E0,0E0,0E0,0E0,0E0,0E0,0E0,0E0,0E0,0E0,0E0,0E0,0E0,0E0,0E0,0E0,0E0,0E0,0E0],"parents":[2147483647,0,0,1,1,2,2,3,3,4,4,5,5,6,6,7,7,8,8,9,9,10,10,11,11,12,12,13,13,14,14,15,15,16,16,17,17,18,18,19,19,20,20,21,21,22,22,23,23,24,24,25,25,26,26,27,27,28,28,29,29,30,30],"right_children":[2,4,6,8,10,12,14,16,18,20,22,24,26,28,30,32,34,36,38,40,42,44,46,48,50,52,54,56,58,60,62,-1,-1,-1,-1,-1,-1,-1,-1,-1,-1,-1,-1,-1,-1,-1,-1,-1,-1,-1,-1,-1,-1,-1,-1,-1,-1,-1,-1,-1,-1,-1,-1],"split_conditions":[5.452064E-1,3.6838946E-1,7.759501E-1,2.063E-1,5.157232E-1,6.5196383E-1,8.480655E-1,9.984077E-2,1.89E1,2.03E1,3E1,1.96E1,8.53E1,3.06E1,5.98E1,1.92E1,8.87E1,7.26E1,3.171E-1,1E0,8.4E1,4.98E1,9.63E1,1.33E1,8.53E1,1.93E1,1.84E1,8.967E-1,1.06E1,2.99E2,4.872E-1,-1.2605836E-2,-1.3347188E-2,-9.643613E-3,-2.8030293E-3,-2.3000762E-3,-5.8265626E-3,-7.6190247E-3,-5.3963372E-3,-8.1558526E-4,1.4080837E-3,-3.0523264E-3,2.7188958E-4,-4.9674512E-5,1.9652308E-3,-2.83134E-4,1.4758855E-3,3.7052126E-3,-3.8545727E-4,9.963453E-4,4.586171E-3,1.0157249E-2,2.793376E-3,6.8355547E-3,8.999293E-3,1.08281225E-2,5.477834E-3,-4.7817678E-4,6.9367546E-3,9.584615E-3,9.182273E-3,6.8730074E-3,1.0403976E-2],"split_indices":[27,27,27,16,27,27,27,27,6,6,5,6,6,5,3,3,6,7,16,32,6,3,5,4,6,6,3,16,4,1,15,0,0,0,0,0,0,0,0,0,0,0,0,0,0,0,0,0,0,0,0,0,0,0,0,0,0,0,0,0,0,0,0],"split_type":[0,0,0,0,0,0,0,0,0,0,0,0,0,0,0,0,0,0,0,0,0,0,0,0,0,0,0,0,0,0,0,0,0,0,0,0,0,0,0,0,0,0,0,0,0,0,0,0,0,0,0,0,0,0,0,0,0,0,0,0,0,0,0],"sum_hessian":[2.5687E4,1.3344E4,1.2343E4,6.643E3,6.701E3,7.715E3,4.628E3,2.63E3,4.013E3,5.165E3,1.536E3,2.575E3,5.14E3,2.067E3,2.561E3,9.75E2,1.655E3,2.74E2,3.739E3,4E2,4.765E3,1.47E2,1.389E3,1.72E2,2.403E3,4.896E3,2.44E2,2.05E2,1.862E3,1.018E3,1.543E3,4.61E2,5.14E2,1.616E3,3.9E1,2.27E2,4.7E1,2.363E3,1.376E3,1.64E2,2.36E2,4.468E3,2.97E2,4.7E1,1E2,1.346E3,4.3E1,1.67E2,5E0,2.287E3,1.16E2,3.38E2,4.558E3,2.8E1,2.16E2,1.84E2,2.1E1,4E0,1.858E3,8.12E2,2.06E2,4E0,1.539E3],"tree_param":{"num_deleted":"0","num_feature":"52","num_nodes":"63","size_leaf_vector":"1"}},{"base_weights":[1.3701026E-2,3.7209928E-1,-2.6088002E-1,3.552662E-1,4.2961934E-1,-3.6559668E-1,-2.0482562E-1,3.501938E-1,3.9844617E-1,4.0311244E-1,4.4662738E-1,-4.04309E-1,-3.2560927E-1,-2.4071008E-1,-1.5668146E-1,3.5600537E-1,3.1164384E-1,3.325688E-1,4.1885966E-1,3.8330975E-1,4.5E-1,-1.25E-2,4.472477E-1,-4.7916666E-1,-3.8591415E-1,-3.3627927E-1,-2.2406639E-1,-2.449466E-1,-1.2435233E-1,-1.4770912E-1,-2.6732674E-1,1.755032E-2,2.0279147E-2,1.6656091E-2,1.1914894E-2,1.2121213E-2,2.0208335E-2,2.1730132E-2,1.48148155E-2,1.5277778E-2,1.9974228E-2,2.4400001E-2,2.0933736E-2,1.5517241E-2,2.2479974E-2,-2.422998E-2,-1.5277778E-2,-1.3322368E-2,-1.9758066E-2,-1.1025641E-2,-1.7351378E-2,1.2500001E-3,-1.2274775E-2,-1.252276E-2,-7.698675E-3,-3.1666667E-3,-1.6477274E-2,-5.9018987E-3,-8.45977E-3,-1.3879599E-2,2.0000001E-2],"categories":[],"categories_nodes":[],"categories_segments":[],"categories_sizes":[],"default_left":[0,0,0,0,0,0,0,0,0,0,0,0,0,0,0,0,0,0,0,0,0,0,0,0,0,0,0,0,0,0,0,0,0,0,0,0,0,0,0,0,0,0,0,0,0,0,0,0,0,0,0,0,0,0,0,0,0,0,0,0,0],"id":14,"left_children":[1,3,5,7,9,11,13,15,17,19,21,23,25,27,29,31,33,35,37,39,41,-1,43,45,47,49,51,53,55,57,59,-1,-1,-1,-1,-1,-1,-1,-1,-1,-1,-1,-1,-1,-1,-1,-1,-1,-1,-1,-1,-1,-1,-1,-1,-1,-1,-1,-1,-1,-1],"loss_changes":[2.5319731E3,1.0653931E1,8.543677E1,1.7528076E0,9.569702E-1,7.729065E0,1.6359222E1,1.6231079E0,1.0723572E0,7.522888E-1,7.716675E-1,3.3622131E0,2.6365662E0,2.649231E0,3.9870987E0,1.5228271E0,1.5306015E0,1.3090267E0,1.1910248E0,7.670975E-1,1.4089203E-1,0E0,3.5177612E-1,3.2730865E-1,2.1848145E0,2.7393036E0,1.2924185E0,2.589386E0,2.3956194E0,2.373291E0,2.1866684E0,0E0,0E0,0E0,0E0,0E0,0E0,0E0,0E0,0E0,0E0,0E0,0E0,0E0,0E0,0E0,0E0,0E0,0E0,0E0,0E0,0E0,0E0,0E0,0E0,0E0,0E0,0E0,0E0,0E0,0E0],"parents":[2147483647,0,0,1,1,2,2,3,3,4,4,5,5,6,6,7,7,8,8,9,9,10,10,11,11,12,12,13,13,14,14,15,15,16,16,17,17,18,18,19,19,20,20,22,22,23,23,24,24,25,25,26,26,27,27,28,28,29,29,30,30],"right_children":[2,4,6,8,10,12,14,16,18,20,22,24,26,28,30,32,34,36,38,40,42,-1,44,46,48,50,52,54,56,58,60,-1,-1,-1,-1,-1,-1,-1,-1,-1,-1,-1,-1,-1,-1,-1,-1,-1,-1,-1,-1,-1,-1,-1,-1,-1,-1,-1,-1,-1,-1],"split_conditions":[1E0,8.480655E-1,3.0455068E-1,1E0,5.77E1,2.063E-1,4.5044386E-1,1E0,7.576E-1,1.89E1,4.49E-1,8.224546E-2,9.01E1,9.45E1,7.866E-1,9.23E1,7.644E-1,1E0,1E0,7.326E-1,3E0,-9.61715E-4,8.852E-1,8.06E1,3.03E1,2.83E1,1.33E1,1E0,2.88E1,2.14E1,9.344E-1,4.8409165E-3,6.781213E-3,3.4075081E-3,3.3748732E-3,2.339849E-3,4.6025515E-3,1.010592E-2,4.917461E-3,8.168853E-3,9.487107E-3,1.0107696E-2,9.670207E-3,4.714343E-3,1.0127959E-2,-1.3065124E-2,-1.044093E-2,-6.701705E-3,-1.0115985E-2,-4.7391723E-3,-8.027921E-3,5.744234E-4,-5.0316155E-3,-4.2443583E-3,-2.028911E-3,-4.9079955E-4,-4.834442E-3,-1.131475E-3,-2.1209808E-3,-1.7727584E-3,3.2533408E-4],"split_indices":[19,27,27,11,22,16,27,48,17,10,15,27,5,5,16,5,15,32,35,15,2,0,17,4,5,5,10,11,26,26,16,0,0,0,0,0,0,0,0,0,0,0,0,0,0,0,0,0,0,0,0,0,0,0,0,0,0,0,0,0,0],"split_type":[0,0,0,0,0,0,0,0,0,0,0,0,0,0,0,0,0,0,0,0,0,0,0,0,0,0,0,0,0,0,0,0,0,0,0,0,0,0,0,0,0,0,0,0,0,0,0,0,0,0,0,0,0,0,0,0,0,0,0,0,0],"sum_hessian":[2.5727E4,1.116E4,1.4567E4,8.639E3,2.521E3,5.077E3,9.49E3,7.739E3,9E2,9.95E2,1.526E3,2.575E3,2.502E3,5.435E3,4.055E3,6.718E3,1.021E3,2.17E2,6.83E2,7.06E2,2.89E2,1E0,1.525E3,5.03E2,2.072E3,2.262E3,2.4E2,5.243E3,1.92E2,3.753E3,3.02E2,6.11E3,6.08E2,7.87E2,2.34E2,9.8E1,1.19E2,6.03E2,8E1,1.25E2,5.81E2,1.24E2,1.65E2,2.8E1,1.497E3,4.86E2,1.7E1,1.51E2,1.921E3,1.94E2,2.068E3,1.9E1,2.21E2,4.942E3,3.01E2,1.49E2,4.3E1,1.579E3,2.174E3,2.98E2,4E0],"tree_param":{"num_deleted":"0","num_feature":"52","num_nodes":"61","size_leaf_vector":"1"}},{"base_weights":[1.239589E-2,3.542752E-1,-2.4902135E-1,3.351897E-1,4.195151E-1,-3.471722E-1,-1.8851276E-1,3.1432885E-1,3.5593417E-1,2.5581396E-1,4.221908E-1,-4.147764E-1,-3.210723E-1,-2.2462444E-1,-1.4492044E-1,4.6276596E-1,3.1094232E-1,3.5057616E-1,4.2105263E-1,-1.25E-1,2.875E-1,4.1180906E-1,4.6391752E-1,-4.245348E-1,-2.580645E-1,-3.3185244E-1,-1.8518518E-1,-2.2973835E-1,-1.17256634E-1,-1.0505481E-1,-1.7164485E-1,1.4062501E-2,2.4683544E-2,1.8984547E-2,1.5128955E-2,2.1282053E-2,1.733149E-2,-1.25E-2,2.1195652E-2,-1.6666668E-2,1.25E-2,1.6216217E-2,-6.25E-3,1.9882277E-2,2.2889612E-2,2.3535792E-2,1.6E-2,-1.637168E-2,-2.1620613E-2,-1.5548781E-2,6.25E-3,-1.6999133E-2,-1.1035156E-2,-1.471519E-2,-3.0357144E-3,1.25E-2,-1.1535592E-2,-3.846154E-3,-1.796875E-2,-5.1199263E-3,-1.764706E-2,-8.017792E-3,-1.3438736E-2],"categories":[],"categories_nodes":[],"categories_segments":[],"categories_sizes":[],"default_left":[0,0,0,0,0,0,0,0,0,0,0,0,0,0,0,0,0,0,0,0,0,0,0,0,0,0,0,0,0,0,0,0,0,0,0,0,0,0,0,0,0,0,0,0,0,0,0,0,0,0,0,0,0,0,0,0,0,0,0,0,0,0,0],"id":15,"left_children":[1,3,5,7,9,11,13,15,17,19,21,23,25,27,29,31,33,35,37,39,41,43,45,47,49,51,53,55,57,59,61,-1,-1,-1,-1,-1,-1,-1,-1,-1,-1,-1,-1,-1,-1,-1,-1,-1,-1,-1,-1,-1,-1,-1,-1,-1,-1,-1,-1,-1,-1,-1,-1],"loss_changes":[2.296442E3,1.3722778E1,8.6411865E1,3.617981E0,9.940491E-1,9.663147E0,1.4150909E1,2.0206604E0,1.357544E0,5.547967E-1,8.8067627E-1,2.250061E0,5.8127136E0,2.677765E0,4.3340683E0,3.884697E-1,2.307434E0,1.0350342E0,7.2597504E-1,3.9583334E-1,6.4814186E-1,1.1140137E0,3.238907E-1,9.6829224E-1,1.92383E0,3.281189E0,4.016012E0,2.2531586E0,2.1793578E0,1.0450459E0,2.6367416E0,0E0,0E0,0E0,0E0,0E0,0E0,0E0,0E0,0E0,0E0,0E0,0E0,0E0,0E0,0E0,0E0,0E0,0E0,0E0,0E0,0E0,0E0,0E0,0E0,0E0,0E0,0E0,0E0,0E0,0E0,0E0,0E0],"parents":[2147483647,0,0,1,1,2,2,3,3,4,4,5,5,6,6,7,7,8,8,9,9,10,10,11,11,12,12,13,13,14,14,15,15,16,16,17,17,18,18,19,19,20,20,21,21,22,22,23,23,24,24,25,25,26,26,27,27,28,28,29,29,30,30],"right_children":[2,4,6,8,10,12,14,16,18,20,22,24,26,28,30,32,34,36,38,40,42,44,46,48,50,52,54,56,58,60,62,-1,-1,-1,-1,-1,-1,-1,-1,-1,-1,-1,-1,-1,-1,-1,-1,-1,-1,-1,-1,-1,-1,-1,-1,-1,-1,-1,-1,-1,-1,-1,-1],"split_conditions":[1E0,8.480655E-1,3.0543125E-1,6.817548E-1,6E0,1.551054E-1,4.5044386E-1,3.3495006E-1,8.36E1,1.0018E3,4E0,2.424E-1,1E0,1E0,1.82E1,2.66E1,2.76E1,2.52E1,1.07E1,5E0,2.18E1,1.95E1,3.49E2,2.9E1,9.04E1,8.4E1,1E0,1.52E1,2.1E1,1.4E1,7.866E-1,3.1098544E-3,1.9826472E-3,5.4892735E-3,3.0231818E-3,1.1252155E-2,6.3002915E-3,-2.0322204E-5,9.7091645E-3,-2.3290918E-3,4.77238E-3,1.0717034E-2,-3.4843982E-4,8.976906E-3,8.582482E-3,1.0291035E-2,9.032475E-3,-8.287928E-3,-1.20072765E-2,-7.0221247E-3,1.8136755E-3,-7.73536E-3,-3.9636656E-3,-6.02089E-3,-6.288916E-4,1.3632805E-3,-3.7240074E-3,-1.2361169E-3,-4.4424385E-3,-9.901196E-4,-3.6219582E-3,-1.9177109E-3,-1.627326E-3],"split_indices":[19,27,27,27,1,27,27,27,6,9,25,16,11,14,26,5,5,5,10,2,10,10,1,5,5,6,32,5,10,19,16,0,0,0,0,0,0,0,0,0,0,0,0,0,0,0,0,0,0,0,0,0,0,0,0,0,0,0,0,0,0,0,0],"split_type":[0,0,0,0,0,0,0,0,0,0,0,0,0,0,0,0,0,0,0,0,0,0,0,0,0,0,0,0,0,0,0,0,0,0,0,0,0,0,0,0,0,0,0,0,0,0,0,0,0,0,0,0,0,0,0,0,0,0,0,0,0,0,0],"sum_hessian":[2.5693E4,1.1133E4,1.456E4,8.618E3,2.515E3,5.551E3,9.009E3,4.305E3,4.313E3,4.2E1,2.473E3,1.542E3,4.009E3,4.925E3,4.084E3,9.3E1,4.212E3,3.991E3,3.22E2,3E0,3.9E1,1.989E3,4.84E2,1.45E3,9.2E1,3.713E3,2.96E2,4.7E3,2.25E2,1.641E3,2.443E3,1.5E1,7.8E1,4.52E2,3.76E3,1.94E2,3.797E3,1E0,3.21E2,2E0,1E0,3.6E1,3E0,1.528E3,4.61E2,4.6E2,2.4E1,1.12E2,1.338E3,8.1E1,1.1E1,3.458E3,2.55E2,1.57E2,1.39E2,9E0,4.691E3,1.94E2,3.1E1,1.625E3,1.6E1,2.191E3,2.52E2],"tree_param":{"num_deleted":"0","num_feature":"52","num_nodes":"63","size_leaf_vector":"1"}},{"base_weights":[1.1069178E-2,3.3916554E-1,-2.4010853E-1,3.1923878E-1,4.078737E-1,-3.1994873E-1,-1.6567144E-1,2.9207036E-1,3.4173194E-1,3.954887E-1,4.5570865E-1,-3.9171824E-1,-2.8925452E-1,-1.9002347E-1,-1.3396399E-1,4.5679012E-1,2.8852162E-1,3.368882E-1,4.2037037E-1,2.2580644E-1,3.979644E-1,1.25E-1,4.5742574E-1,-3.6758137E-1,-4.6168223E-1,-3.1783566E-1,-2.597777E-1,-1.9520214E-1,-5.1612902E-2,-1.2188971E-1,-2.5164473E-1,-0E0,2.3417722E-2,1.713666E-2,1.4052336E-2,1.6574834E-2,1.8716095E-2,-1.25E-2,2.118959E-2,-1.6666668E-2,1.3793103E-2,1.5966387E-2,2.0140769E-2,-1.25E-2,1.6666668E-2,1.607143E-2,2.3018293E-2,-1.8745897E-2,-5.5555557E-3,-1.4166667E-2,-2.3567194E-2,-1.7931549E-2,-1.4499328E-2,-1.3309586E-2,-6.3596494E-3,-6.3844086E-3,-1.00937085E-2,-0E0,-1.2903226E-2,-5.019042E-3,-7.827616E-3,-1.5086207E-2,-9.160305E-3],"categories":[],"categories_nodes":[],"categories_segments":[],"categories_sizes":[],"default_left":[0,0,0,0,0,0,0,0,0,0,0,0,0,0,0,0,0,0,0,0,0,0,0,0,0,0,0,0,0,0,0,0,0,0,0,0,0,0,0,0,0,0,0,0,0,0,0,0,0,0,0,0,0,0,0,0,0,0,0,0,0,0,0],"id":16,"left_children":[1,3,5,7,9,11,13,15,17,19,21,23,25,27,29,31,33,35,37,39,41,43,45,47,49,51,53,55,57,59,61,-1,-1,-1,-1,-1,-1,-1,-1,-1,-1,-1,-1,-1,-1,-1,-1,-1,-1,-1,-1,-1,-1,-1,-1,-1,-1,-1,-1,-1,-1,-1,-1],"loss_changes":[2.118196E3,1.5128784E1,8.646625E1,5.182556E0,1.3020325E0,1.5357727E1,5.793396E0,2.1608276E0,1.6574097E0,7.4819946E-1,2.3129272E-1,3.378296E0,4.064972E0,3.0434113E0,4.6256523E0,4.2787933E-1,1.4605713E0,7.748413E-1,7.252312E-1,9.595846E-1,6.209717E-1,3.9583334E-1,5.394745E-2,2.9068298E0,7.883301E-1,2.730606E0,2.0317688E0,1.8237915E0,1.6516129E0,2.201561E0,9.8664093E-1,0E0,0E0,0E0,0E0,0E0,0E0,0E0,0E0,0E0,0E0,0E0,0E0,0E0,0E0,0E0,0E0,0E0,0E0,0E0,0E0,0E0,0E0,0E0,0E0,0E0,0E0,0E0,0E0,0E0,0E0,0E0,0E0],"parents":[2147483647,0,0,1,1,2,2,3,3,4,4,5,5,6,6,7,7,8,8,9,9,10,10,11,11,12,12,13,13,14,14,15,15,16,16,17,17,18,18,19,19,20,20,21,21,22,22,23,23,24,24,25,25,26,26,27,27,28,28,29,29,30,30],"right_children":[2,4,6,8,10,12,14,16,18,20,22,24,26,28,30,32,34,36,38,40,42,44,46,48,50,52,54,56,58,60,62,-1,-1,-1,-1,-1,-1,-1,-1,-1,-1,-1,-1,-1,-1,-1,-1,-1,-1,-1,-1,-1,-1,-1,-1,-1,-1,-1,-1,-1,-1,-1,-1],"split_conditions":[1E0,8.480655E-1,3.9157254E-1,6.76754E-1,4E0,1.757487E-1,5.213112E-1,3.0543125E-1,1E0,6E0,1E0,2.155E2,2.5217357E-1,7.66E1,7.6436806E-1,4E-1,1.13E1,7.75E1,7.38E1,1.0018E3,1.25E1,5E0,2.97E1,7.87E1,1.06E1,1.79E1,1E0,1.42E1,1E0,2.66E1,2.41E2,-4.170239E-5,2.320379E-3,4.5353444E-3,2.7574748E-3,5.8966577E-3,6.7018582E-3,-2.1886707E-3,9.601012E-3,-2.2126362E-3,1.0768734E-2,7.194364E-3,8.557716E-3,-3.8063826E-4,1.3735423E-2,6.2633487E-3,9.98936E-3,-9.854893E-3,-3.0927912E-3,-9.250808E-3,-1.1629003E-2,-7.0284544E-3,-7.451658E-3,-4.914321E-3,-2.5660053E-3,-1.9587874E-3,-3.2745681E-3,-3.7076326E-5,-2.9762373E-3,-9.687603E-4,-1.7439462E-3,-1.7637194E-3,-1.0848657E-3],"split_indices":[19,27,27,27,25,27,27,27,12,1,20,22,27,4,27,8,4,7,4,9,10,0,7,4,4,26,12,4,37,26,1,0,0,0,0,0,0,0,0,0,0,0,0,0,0,0,0,0,0,0,0,0,0,0,0,0,0,0,0,0,0,0,0],"split_type":[0,0,0,0,0,0,0,0,0,0,0,0,0,0,0,0,0,0,0,0,0,0,0,0,0,0,0,0,0,0,0,0,0,0,0,0,0,0,0,0,0,0,0,0,0,0,0,0,0,0,0,0,0,0,0,0,0,0,0,0,0,0,0],"sum_hessian":[2.5701E4,1.1144E4,1.4557E4,8.643E3,2.501E3,7.022E3,7.535E3,3.921E3,4.722E3,1.994E3,5.07E2,2.1E3,4.922E3,4.259E3,3.276E3,8E1,3.841E3,4.453E3,2.69E2,3E1,1.964E3,3E0,5.04E2,1.566E3,5.34E2,2.494E3,2.428E3,4.105E3,1.54E2,2.973E3,3.03E2,2E0,7.8E1,4.6E2,3.381E3,3.901E3,5.52E2,1E0,2.68E2,2E0,2.8E1,1.18E2,1.846E3,1E0,2E0,1.3E1,4.91E2,1.522E3,4.4E1,2.9E1,5.05E2,1.007E3,1.487E3,2.315E3,1.13E2,3.71E2,3.734E3,1.24E2,3E1,1.837E3,1.136E3,1.73E2,1.3E2],"tree_param":{"num_deleted":"0","num_feature":"52","num_nodes":"63","size_leaf_vector":"1"}},{"base_weights":[1.3496093E-2,3.2669234E-1,-2.2885054E-1,3.075942E-1,3.913129E-1,-3.26836E-1,-1.75628E-1,2.821459E-1,3.251029E-1,3.3289474E-1,4.013857E-1,-3.9353988E-1,-2.983441E-1,-2.1710686E-1,-1.4285715E-1,4.234234E-1,2.774685E-1,3.2034633E-1,4.1501975E-1,-8.3333336E-2,3.3866668E-1,2.2058824E-1,4.040807E-1,-4.0530583E-1,-2.9192546E-1,-3.0794802E-1,-1.7254902E-1,-2.2218026E-1,-8.6538464E-2,-1.0208483E-1,-1.5759312E-1,3.125E-3,2.235577E-2,1.3146186E-2,1.5488614E-2,2.046371E-2,1.5774326E-2,2.195946E-2,1.171875E-2,-1.875E-2,1.6666668E-2,1.5785256E-2,2.2265626E-2,-1.25E-2,1.5517241E-2,1.1805556E-2,2.0338578E-2,-1.9115925E-2,-2.217262E-2,-2.0416668E-2,-1.1029412E-2,-1.5826646E-2,-8.461539E-3,-1.5878377E-2,-5.6318683E-3,-1.1306271E-2,-5.1923078E-3,-1.4583333E-3,-1.3513513E-2,-4.7742412E-3,-1.5853658E-2,-7.3264986E-3,-1.04850745E-2],"categories":[],"categories_nodes":[],"categories_segments":[],"categories_sizes":[],"default_left":[0,0,0,0,0,0,0,0,0,0,0,0,0,0,0,0,0,0,0,0,0,0,0,0,0,0,0,0,0,0,0,0,0,0,0,0,0,0,0,0,0,0,0,0,0,0,0,0,0,0,0,0,0,0,0,0,0,0,0,0,0,0,0],"id":17,"left_children":[1,3,5,7,9,11,13,15,17,19,21,23,25,27,29,31,33,35,37,39,41,43,45,47,49,51,53,55,57,59,61,-1,-1,-1,-1,-1,-1,-1,-1,-1,-1,-1,-1,-1,-1,-1,-1,-1,-1,-1,-1,-1,-1,-1,-1,-1,-1,-1,-1,-1,-1,-1,-1],"loss_changes":[1.9431675E3,1.36623535E1,7.521118E1,3.7512817E0,1.3633728E0,9.535339E0,1.2685211E1,2.2105408E0,2.0495605E0,9.4115067E-1,9.657593E-1,1.6953888E0,4.2514343E0,2.7146149E0,3.1256027E0,9.2121315E-1,1.5221863E0,1.9673462E0,1.0016823E0,8.541667E-1,7.776947E-1,1.5136917E0,8.6761475E-1,1.020401E0,1.2469044E0,3.887024E0,2.179747E0,1.8308258E0,1.6365169E0,1.943449E0,2.1823883E0,0E0,0E0,0E0,0E0,0E0,0E0,0E0,0E0,0E0,0E0,0E0,0E0,0E0,0E0,0E0,0E0,0E0,0E0,0E0,0E0,0E0,0E0,0E0,0E0,0E0,0E0,0E0,0E0,0E0,0E0,0E0,0E0],"parents":[2147483647,0,0,1,1,2,2,3,3,4,4,5,5,6,6,7,7,8,8,9,9,10,10,11,11,12,12,13,13,14,14,15,15,16,16,17,17,18,18,19,19,20,20,21,21,22,22,23,23,24,24,25,25,26,26,27,27,28,28,29,29,30,30],"right_children":[2,4,6,8,10,12,14,16,18,20,22,24,26,28,30,32,34,36,38,40,42,44,46,48,50,52,54,56,58,60,62,-1,-1,-1,-1,-1,-1,-1,-1,-1,-1,-1,-1,-1,-1,-1,-1,-1,-1,-1,-1,-1,-1,-1,-1,-1,-1,-1,-1,-1,-1,-1,-1],"split_conditions":[1E0,8.480655E-1,3.0455068E-1,6.655291E-1,7.36E-1,1.551054E-1,4.1508958E-1,3.414E-1,9.45E1,4.49E-1,6E0,2.148E-1,1E0,9.4E1,1.39E1,9.6E0,3.09E1,2.52E1,2.11E1,5.41E1,6.24E1,8.139E-1,6E0,2.155E2,5.11E1,1E0,7.3E0,8.72E1,2.88E1,8.919E-1,3.08E2,8.395314E-4,2.3037314E-3,2.4134011E-3,3.6602467E-3,9.433634E-3,5.236992E-3,9.267792E-3,7.619202E-3,-1.7221898E-3,9.6619874E-4,7.6509775E-3,9.789831E-3,-1.3329805E-3,7.673055E-3,7.25666E-3,8.2217725E-3,-1.0352078E-2,-1.0810757E-2,-8.673542E-3,-6.3353525E-3,-7.1772547E-3,-2.352725E-3,-6.086701E-3,-1.9889206E-3,-3.83925E-3,-1.9815208E-3,-1.0273561E-3,-3.0997403E-3,-9.533271E-4,-2.1480264E-3,-1.8361807E-3,-2.3739666E-3],"split_indices":[19,27,27,27,15,27,27,16,5,15,18,16,11,5,26,26,26,5,10,7,4,15,1,22,5,12,8,7,26,15,1,0,0,0,0,0,0,0,0,0,0,0,0,0,0,0,0,0,0,0,0,0,0,0,0,0,0,0,0,0,0,0,0],"split_type":[0,0,0,0,0,0,0,0,0,0,0,0,0,0,0,0,0,0,0,0,0,0,0,0,0,0,0,0,0,0,0,0,0,0,0,0,0,0,0,0,0,0,0,0,0,0,0,0,0,0,0,0,0,0,0,0,0,0,0,0,0,0,0],"sum_hessian":[2.5599E4,1.1167E4,1.4432E4,8.624E3,2.543E3,5.078E3,9.354E3,3.522E3,5.102E3,3.79E2,2.164E3,1.516E3,3.562E3,4.126E3,5.228E3,1.1E2,3.412E3,4.85E3,2.52E2,5E0,3.74E2,3.3E1,2.131E3,1.356E3,1.6E2,3.308E3,2.54E2,3.971E3,1.55E2,1.39E3,3.838E3,7E0,1.03E2,2.359E3,1.053E3,2.47E2,4.603E3,2.21E2,3.1E1,3E0,2E0,3.11E2,6.3E1,5E0,2.8E1,3.5E1,2.096E3,8.53E2,5.03E2,5.9E1,1.01E2,3.114E3,1.94E2,7.3E1,1.81E2,3.842E3,1.29E2,1.19E2,3.6E1,1.35E3,4E1,3.169E3,6.69E2],"tree_param":{"num_deleted":"0","num_feature":"52","num_nodes":"63","size_leaf_vector":"1"}},{"base_weights":[1.1987761E-2,3.0917227E-1,-2.1479787E-1,2.643827E-1,3.4093344E-1,-3.1259736E-1,-1.6195184E-1,4.3564355E-1,2.605153E-1,3.2193115E-1,3.865415E-1,-3.7022653E-1,-2.877227E-1,-1.9508167E-1,-1.1745875E-1,-0E0,4.5360824E-1,2.3043267E-1,2.8531188E-1,3.1648937E-1,4.0033785E-1,3.3665836E-1,3.9947265E-1,-3.724854E-1,2.0000001E-2,-2.9751572E-1,-1.5674603E-1,-1.1338798E-1,-2.0092447E-1,-1.1035313E-1,-1.9907407E-1,1.6666668E-2,-1.6666668E-2,2.3177084E-2,-1.25E-2,1.3207547E-2,1.0451307E-2,1.943128E-2,1.378022E-2,1.9437173E-2,1.54704545E-2,1.4112904E-2,2.1489363E-2,1.4666666E-2,1.9491525E-2,1.828125E-2,2.0736994E-2,-1.9060586E-2,-9.589042E-3,-1.5220146E-2,-8.918919E-3,-1.0519802E-2,2.9411765E-3,-8.867925E-3,2.6960785E-3,-1.1429894E-2,-9.020179E-3,-6.2431744E-3,-3.5030243E-3,-1.0390625E-2,2.0000001E-2],"categories":[],"categories_nodes":[],"categories_segments":[],"categories_sizes":[],"default_left":[0,0,0,0,0,0,0,0,0,0,0,0,0,0,0,0,0,0,0,0,0,0,0,0,0,0,0,0,0,0,0,0,0,0,0,0,0,0,0,0,0,0,0,0,0,0,0,0,0,0,0,0,0,0,0,0,0,0,0,0,0],"id":18,"left_children":[1,3,5,7,9,11,13,15,17,19,21,23,25,27,29,31,33,35,37,39,41,43,45,47,-1,49,51,53,55,57,59,-1,-1,-1,-1,-1,-1,-1,-1,-1,-1,-1,-1,-1,-1,-1,-1,-1,-1,-1,-1,-1,-1,-1,-1,-1,-1,-1,-1,-1,-1],"loss_changes":[1.7401267E3,1.5807007E1,7.563422E1,2.9603577E0,5.5391846E0,7.2559204E0,1.3993805E1,7.9044724E-1,3.3215942E0,1.8440857E0,1.1020813E0,2.8370514E0,4.560669E0,2.578125E0,2.3331223E0,6.666667E-1,7.938404E-1,1.4295197E0,2.3851318E0,2.0917664E0,9.0799713E-1,8.0942917E-1,6.3227844E-1,2.3568726E0,0E0,2.6870422E0,2.926834E0,3.9268165E0,2.8458862E0,2.176712E0,1.779254E0,0E0,0E0,0E0,0E0,0E0,0E0,0E0,0E0,0E0,0E0,0E0,0E0,0E0,0E0,0E0,0E0,0E0,0E0,0E0,0E0,0E0,0E0,0E0,0E0,0E0,0E0,0E0,0E0,0E0,0E0],"parents":[2147483647,0,0,1,1,2,2,3,3,4,4,5,5,6,6,7,7,8,8,9,9,10,10,11,11,12,12,13,13,14,14,15,15,16,16,17,17,18,18,19,19,20,20,21,21,22,22,23,23,25,25,26,26,27,27,28,28,29,29,30,30],"right_children":[2,4,6,8,10,12,14,16,18,20,22,24,26,28,30,32,34,36,38,40,42,44,46,48,-1,50,52,54,56,58,60,-1,-1,-1,-1,-1,-1,-1,-1,-1,-1,-1,-1,-1,-1,-1,-1,-1,-1,-1,-1,-1,-1,-1,-1,-1,-1,-1,-1,-1,-1],"split_conditions":[1E0,7.0585084E-1,3.0455068E-1,3.381E-1,8.628E-1,1.551054E-1,4.5044386E-1,2.14E1,6.3949364E-1,8.36E1,8.18E-1,2.34E1,1E0,2.09E1,7.835E-1,1E0,1E0,3.51E1,2.73E1,1.17E1,1.0058E3,1.75E1,8.25E1,8.49E1,5.3824636E-4,1E0,1.37E2,2.471E2,4.96E1,6.5924686E-1,9.344E-1,2.2579655E-3,-1.2094527E-3,2.0558566E-3,-1.3717711E-3,2.2485002E-3,1.7037079E-3,7.930941E-3,3.5798817E-3,9.284851E-3,5.5783107E-3,5.8897557E-3,1.01289665E-2,6.336926E-3,7.952434E-3,7.714215E-3,8.345929E-3,-9.953076E-3,-6.3709575E-3,-6.935108E-3,-2.6998788E-3,-4.221964E-3,5.438246E-4,-2.5926463E-3,5.1442685E-4,-3.736776E-3,-3.0605048E-3,-1.5555666E-3,-6.678969E-4,-1.3417095E-3,5.375266E-4],"split_indices":[19,27,27,16,16,27,27,5,27,6,15,10,11,6,16,2,42,4,5,4,9,10,3,6,0,12,19,3,6,27,16,0,0,0,0,0,0,0,0,0,0,0,0,0,0,0,0,0,0,0,0,0,0,0,0,0,0,0,0,0,0],"split_type":[0,0,0,0,0,0,0,0,0,0,0,0,0,0,0,0,0,0,0,0,0,0,0,0,0,0,0,0,0,0,0,0,0,0,0,0,0,0,0,0,0,0,0,0,0,0,0,0,0,0,0,0,0,0,0,0,0,0,0,0,0],"sum_hessian":[2.5817E4,1.1174E4,1.4643E4,4.64E3,6.534E3,5.135E3,9.508E3,1E2,4.54E3,4.618E3,1.916E3,1.544E3,3.591E3,5.448E3,4.06E3,4E0,9.6E1,2.056E3,2.484E3,4.323E3,2.95E2,4E2,1.516E3,1.54E3,4E0,3.34E3,2.51E2,3.65E2,5.083E3,3.737E3,3.23E2,2E0,2E0,9.5E1,1E0,7.94E2,1.262E3,2.1E2,2.274E3,3.81E2,3.942E3,6.1E1,2.34E2,2.24E2,1.76E2,4.79E2,1.037E3,1.468E3,7.2E1,3.156E3,1.84E2,2.01E2,5E1,2.64E2,1.01E2,2.16E3,2.923E3,2.746E3,9.91E2,3.19E2,4E0],"tree_param":{"num_deleted":"0","num_feature":"52","num_nodes":"61","size_leaf_vector":"1"}},{"base_weights":[1.27701E-2,2.9726946E-1,-2.0615183E-1,2.6552692E-1,3.3476648E-1,-2.9639864E-1,-1.550329E-1,2.5726745E-1,3.1284916E-1,4.1825902E-1,3.26232E-1,-2.8254002E-1,-4.2714572E-1,-1.777422E-1,-1.0809917E-1,2.4100393E-1,2.861381E-1,3.0012077E-1,4.632353E-1,2.2916667E-1,4.2745537E-1,3.1808436E-1,4.0133038E-1,-2.9034066E-1,-1.6027875E-1,1.25E-1,-4.307229E-1,-1.1150443E-1,-1.8429855E-1,-7.393244E-2,-1.4481811E-1,-1.4285715E-2,1.2102393E-2,1.9343067E-2,1.3896974E-2,3.125E-3,1.5341614E-2,2.3863636E-2,-0E0,1.875E-2,-2.0000001E-2,-1.25E-2,2.147651E-2,1.9696971E-2,1.5468294E-2,-6.25E-3,2.0256696E-2,-1.4880952E-2,-7.466064E-3,4.6296298E-4,-9.935898E-3,-1.25E-2,1.6666668E-2,-1.20689655E-2,-2.2074468E-2,-8.083141E-3,2.631579E-3,-9.780472E-3,-6.8614134E-3,-5.436338E-3,-2.2962112E-3,-1.0077856E-2,-5.369318E-3],"categories":[],"categories_nodes":[],"categories_segments":[],"categories_sizes":[],"default_left":[0,0,0,0,0,0,0,0,0,0,0,0,0,0,0,0,0,0,0,0,0,0,0,0,0,0,0,0,0,0,0,0,0,0,0,0,0,0,0,0,0,0,0,0,0,0,0,0,0,0,0,0,0,0,0,0,0,0,0,0,0,0,0],"id":19,"left_children":[1,3,5,7,9,11,13,15,17,19,21,23,25,27,29,31,33,35,37,39,41,43,45,47,49,51,53,55,57,59,61,-1,-1,-1,-1,-1,-1,-1,-1,-1,-1,-1,-1,-1,-1,-1,-1,-1,-1,-1,-1,-1,-1,-1,-1,-1,-1,-1,-1,-1,-1,-1,-1],"loss_changes":[1.5998041E3,1.3206238E1,6.692096E1,2.2857666E0,3.5097656E0,9.38855E0,9.859985E0,2.3538818E0,1.5741577E0,7.210922E-1,2.7157288E0,4.48172E0,1.0433807E0,2.691513E0,3.7843552E0,1.8875275E0,1.4234924E0,1.3013153E0,4.4217968E-1,2.3520832E0,7.3709106E-1,2.653778E0,9.5350647E-1,4.5353394E0,1.8721929E0,3.9583334E-1,9.086304E-1,4.6600394E0,2.997757E0,1.5240393E0,3.0727901E0,0E0,0E0,0E0,0E0,0E0,0E0,0E0,0E0,0E0,0E0,0E0,0E0,0E0,0E0,0E0,0E0,0E0,0E0,0E0,0E0,0E0,0E0,0E0,0E0,0E0,0E0,0E0,0E0,0E0,0E0,0E0,0E0],"parents":[2147483647,0,0,1,1,2,2,3,3,4,4,5,5,6,6,7,7,8,8,9,9,10,10,11,11,12,12,13,13,14,14,15,15,16,16,17,17,18,18,19,19,20,20,21,21,22,22,23,23,24,24,25,25,26,26,27,27,28,28,29,29,30,30],"right_children":[2,4,6,8,10,12,14,16,18,20,22,24,26,28,30,32,34,36,38,40,42,44,46,48,50,52,54,56,58,60,62,-1,-1,-1,-1,-1,-1,-1,-1,-1,-1,-1,-1,-1,-1,-1,-1,-1,-1,-1,-1,-1,-1,-1,-1,-1,-1,-1,-1,-1,-1,-1,-1],"split_conditions":[1E0,9.728E-1,5.097E-1,7E0,3E0,1E0,3E0,2.88E1,8.25E1,7.178E-1,7.27E1,1E0,3E0,8.4E0,2.66E1,1.54E1,3.323E-1,6.123E-1,8.53E1,1.93E1,9.758E-1,1.93E1,3.727E-1,8.49E1,1.52E1,4.41E1,1.93E1,1.35E1,7.28E1,5.78E1,6.234E-1,-2.5939003E-3,2.6091249E-3,3.614746E-3,3.8390101E-3,1.8794358E-3,4.8908144E-3,1.0371364E-2,3.2262595E-3,6.9318474E-3,-1.3691754E-3,-2.0805628E-3,8.552796E-3,9.613742E-3,5.7350444E-3,-6.139368E-4,8.522651E-3,-6.3913763E-3,-3.0634732E-3,1.16847456E-4,-4.787986E-3,-1.320486E-2,1.6920038E-3,-8.02436E-3,-1.002436E-2,-2.116759E-3,3.4851432E-4,-3.3989132E-3,-2.1885813E-3,-9.3939755E-4,-4.894763E-4,-2.3568987E-3,-1.1215806E-3],"split_indices":[19,17,17,18,26,50,18,26,6,15,4,11,1,26,26,3,15,15,7,10,17,6,15,6,26,7,6,8,7,7,15,0,0,0,0,0,0,0,0,0,0,0,0,0,0,0,0,0,0,0,0,0,0,0,0,0,0,0,0,0,0,0,0],"split_type":[0,0,0,0,0,0,0,0,0,0,0,0,0,0,0,0,0,0,0,0,0,0,0,0,0,0,0,0,0,0,0,0,0,0,0,0,0,0,0,0,0,0,0,0,0,0,0,0,0,0,0,0,0,0,0,0,0,0,0,0,0,0,0],"sum_hessian":[2.5684E4,1.1169E4,1.4515E4,6.053E3,5.116E3,5.247E3,9.268E3,5.159E3,8.94E2,4.7E2,4.646E3,4.747E3,5E2,6.244E3,3.024E3,3.306E3,1.853E3,8.27E2,6.7E1,2.3E1,4.47E2,4.196E3,4.5E2,4.461E3,2.86E2,3E0,4.97E2,5.64E2,5.68E3,1.568E3,1.456E3,6E0,3.3E3,1.36E2,1.717E3,2.3E1,8.04E2,6.5E1,2E0,1.9E1,4E0,1E0,4.46E2,4.28E2,3.768E3,3E0,4.47E2,4.241E3,2.2E2,5.3E1,2.33E2,1E0,2E0,2.8E1,4.69E2,4.32E2,1.32E2,4.577E3,1.103E3,6.98E2,8.7E2,5.77E2,8.79E2],"tree_param":{"num_deleted":"0","num_feature":"52","num_nodes":"63","size_leaf_vector":"1"}},{"base_weights":[1.0292165E-2,2.8405994E-1,-1.9625849E-1,2.4232456E-1,3.1893244E-1,-2.8588128E-1,-1.4107814E-1,2.2733855E-1,2.7525574E-1,2.9874438E-1,3.6676055E-1,-3.800578E-1,-2.642052E-1,-1.6305365E-1,-8.7304614E-2,2.830482E-1,2.145144E-1,4.0492958E-1,2.6212227E-1,2.9009247E-1,3.729977E-1,4.0405616E-1,3.4537444E-1,-3.4319526E-1,-4.1447368E-1,-2.7665156E-1,-1.0574018E-1,-1.693152E-1,-3.883495E-2,-7.693878E-2,-2.3275863E-1,1.14730885E-2,1.7353952E-2,9.620992E-3,1.24430265E-2,2.0833334E-2,-0E0,1.2175732E-2,1.790393E-2,1.7546296E-2,1.3994147E-2,1.4646465E-2,1.9764012E-2,2.0336991E-2,-6.25E-3,1.6856601E-2,2.2289157E-2,-1.748992E-2,-2.0833334E-3,-2.0888468E-2,6.25E-3,-1.4186633E-2,-7.6419213E-3,4.477612E-3,-7.7358494E-3,-9.834806E-3,-7.445745E-3,1.1217949E-3,-5.0324677E-3,2.1875E-2,-3.929595E-3,7.5000003E-3,-1.2727273E-2],"categories":[],"categories_nodes":[],"categories_segments":[],"categories_sizes":[],"default_left":[0,0,0,0,0,0,0,0,0,0,0,0,0,0,0,0,0,0,0,0,0,0,0,0,0,0,0,0,0,0,0,0,0,0,0,0,0,0,0,0,0,0,0,0,0,0,0,0,0,0,0,0,0,0,0,0,0,0,0,0,0,0,0],"id":20,"left_children":[1,3,5,7,9,11,13,15,17,19,21,23,25,27,29,31,33,35,37,39,41,43,45,47,49,51,53,55,57,59,61,-1,-1,-1,-1,-1,-1,-1,-1,-1,-1,-1,-1,-1,-1,-1,-1,-1,-1,-1,-1,-1,-1,-1,-1,-1,-1,-1,-1,-1,-1,-1,-1],"loss_changes":[1.4477697E3,1.5946899E1,7.212811E1,2.4128723E0,5.678955E0,1.1249664E1,1.066124E1,2.4062042E0,2.5574493E0,2.6035156E0,1.2761993E0,1.1746216E0,8.89151E0,4.9806824E0,3.9369278E0,2.1266098E0,2.0852814E0,6.748829E-1,2.453598E0,2.2525635E0,6.638756E-1,9.609375E-1,7.890625E-1,9.9487686E-1,9.98085E-1,3.632782E0,3.1798034E0,3.3802795E0,1.1725712E0,2.1179342E0,1.4891853E0,0E0,0E0,0E0,0E0,0E0,0E0,0E0,0E0,0E0,0E0,0E0,0E0,0E0,0E0,0E0,0E0,0E0,0E0,0E0,0E0,0E0,0E0,0E0,0E0,0E0,0E0,0E0,0E0,0E0,0E0,0E0,0E0],"parents":[2147483647,0,0,1,1,2,2,3,3,4,4,5,5,6,6,7,7,8,8,9,9,10,10,11,11,12,12,13,13,14,14,15,15,16,16,17,17,18,18,19,19,20,20,21,21,22,22,23,23,24,24,25,25,26,26,27,27,28,28,29,29,30,30],"right_children":[2,4,6,8,10,12,14,16,18,20,22,24,26,28,30,32,34,36,38,40,42,44,46,48,50,52,54,56,58,60,62,-1,-1,-1,-1,-1,-1,-1,-1,-1,-1,-1,-1,-1,-1,-1,-1,-1,-1,-1,-1,-1,-1,-1,-1,-1,-1,-1,-1,-1,-1,-1,-1],"split_conditions":[1E0,7.126326E-1,3.0543125E-1,5E0,8.659E-1,9.984077E-2,5.452064E-1,4.71E1,1.89E1,7.99E1,1.74E1,1.92E1,1E0,9.28E1,8.005992E-1,2.51E1,1.19E2,1.0255E3,8.66E1,1.51E1,9.254E-1,9.61E1,7.57E1,8.89E1,1.041E2,8.49E1,1.52E1,4.0448564E-1,5.95E1,4.398E-1,7.162E-1,2.2941574E-3,3.7381784E-3,1.9263923E-3,2.3780258E-3,8.9219455E-3,5.793497E-3,3.3211277E-3,4.9454453E-3,7.50618E-3,4.8919055E-3,5.92306E-3,8.410121E-3,7.560992E-3,-4.040304E-3,6.894067E-3,1.2253257E-2,-9.341913E-3,-5.9481116E-4,-9.380286E-3,1.5965045E-3,-6.136026E-3,-2.433996E-3,8.9740753E-4,-3.7893064E-3,-3.3414722E-3,-2.3131475E-3,3.7029386E-4,-1.574646E-3,3.1146214E-3,-7.5700285E-4,2.2660494E-4,-1.4622614E-3],"split_indices":[19,27,27,24,16,27,27,7,6,6,26,3,11,5,27,26,3,9,5,4,17,7,4,7,5,6,26,27,7,16,16,0,0,0,0,0,0,0,0,0,0,0,0,0,0,0,0,0,0,0,0,0,0,0,0,0,0,0,0,0,0,0,0],"split_type":[0,0,0,0,0,0,0,0,0,0,0,0,0,0,0,0,0,0,0,0,0,0,0,0,0,0,0,0,0,0,0,0,0,0,0,0,0,0,0,0,0,0,0,0,0,0,0,0,0,0,0,0,0,0,0,0,0,0,0,0,0,0,0],"sum_hessian":[2.5601E4,1.1009E4,1.4592E4,5.015E3,5.994E3,5.559E3,9.033E3,3.452E3,1.563E3,4.22E3,1.774E3,1.037E3,4.522E3,6.411E3,2.622E3,6.42E2,2.81E3,1.41E2,1.422E3,3.784E3,4.36E2,6.4E2,1.134E3,5.06E2,5.31E2,4.192E3,3.3E2,6.103E3,3.08E2,2.449E3,1.73E2,3.52E2,2.9E2,1.714E3,1.096E3,1.37E2,4E0,1.194E3,2.28E2,5.39E2,3.245E3,9.8E1,3.38E2,6.37E2,3E0,1.052E3,8.2E1,4.95E2,1.1E1,5.28E2,3E0,3.964E3,2.28E2,6.6E1,2.64E2,2.602E3,3.501E3,1.55E2,1.53E2,7E0,2.442E3,9E0,1.64E2],"tree_param":{"num_deleted":"0","num_feature":"52","num_nodes":"63","size_leaf_vector":"1"}},{"base_weights":[9.606035E-3,2.6798818E-1,-1.8896149E-1,2.441294E-1,3.2817924E-1,-2.8267667E-1,-1.4280583E-1,1.9616613E-1,2.5574356E-1,3.1876966E-1,4.142395E-1,-3.437305E-1,-2.519562E-1,-1.6992643E-1,-1.0654362E-1,3.898305E-1,1.8845388E-1,2.4995926E-1,3.7091503E-1,3.1038418E-1,4.1201717E-1,-8.3333336E-2,4.2269737E-1,-3.1838366E-1,-4.0271968E-1,-2.6054215E-1,-1.2740384E-1,-1.7432559E-1,-5.0251257E-2,-7.967033E-2,-1.312759E-1,2.3333333E-2,6.6666673E-3,9.516667E-3,-9.375E-3,1.6143499E-2,1.2049735E-2,-3.125E-3,1.9063545E-2,-1.3888889E-3,1.5629787E-2,-1.25E-2,2.0797415E-2,-1.875E-2,1.6666668E-2,2.1287128E-2,-1.25E-2,-1.701891E-2,-1.1513158E-2,-8.088236E-3,-2.1011237E-2,-1.3428218E-2,-5.900621E-3,-1.3306453E-2,-3.4013607E-3,-8.93135E-3,-3.9529917E-3,-4.716981E-3,6.097561E-3,-5.053572E-3,-1.4925373E-3,2.631579E-3,-6.8085105E-3],"categories":[],"categories_nodes":[],"categories_segments":[],"categories_sizes":[],"default_left":[0,0,0,0,0,0,0,0,0,0,0,0,0,0,0,0,0,0,0,0,0,0,0,0,0,0,0,0,0,0,0,0,0,0,0,0,0,0,0,0,0,0,0,0,0,0,0,0,0,0,0,0,0,0,0,0,0,0,0,0,0,0,0],"id":21,"left_children":[1,3,5,7,9,11,13,15,17,19,21,23,25,27,29,31,33,35,37,39,41,43,45,47,49,51,53,55,57,59,61,-1,-1,-1,-1,-1,-1,-1,-1,-1,-1,-1,-1,-1,-1,-1,-1,-1,-1,-1,-1,-1,-1,-1,-1,-1,-1,-1,-1,-1,-1,-1,-1],"loss_changes":[1.3192897E3,1.5966675E1,6.2852173E1,4.409607E0,2.4341736E0,8.910645E0,9.564667E0,2.264E0,4.198822E0,2.1092224E0,1.3356247E0,2.26857E0,3.3835602E0,2.9252472E0,2.7624092E0,1.100565E0,1.1005173E0,3.9334106E0,1.397274E0,1.9748077E0,7.1035767E-1,8.541667E-1,7.291794E-1,2.104004E0,1.9481964E0,3.384781E0,1.6951993E0,2.1884308E0,1.5223378E0,2.131503E0,1.9612808E0,0E0,0E0,0E0,0E0,0E0,0E0,0E0,0E0,0E0,0E0,0E0,0E0,0E0,0E0,0E0,0E0,0E0,0E0,0E0,0E0,0E0,0E0,0E0,0E0,0E0,0E0,0E0,0E0,0E0,0E0,0E0,0E0],"parents":[2147483647,0,0,1,1,2,2,3,3,4,4,5,5,6,6,7,7,8,8,9,9,10,10,11,11,12,12,13,13,14,14,15,15,16,16,17,17,18,18,19,19,20,20,21,21,22,22,23,23,24,24,25,25,26,26,27,27,28,28,29,29,30,30],"right_children":[2,4,6,8,10,12,14,16,18,20,22,24,26,28,30,32,34,36,38,40,42,44,46,48,50,52,54,56,58,60,62,-1,-1,-1,-1,-1,-1,-1,-1,-1,-1,-1,-1,-1,-1,-1,-1,-1,-1,-1,-1,-1,-1,-1,-1,-1,-1,-1,-1,-1,-1,-1,-1],"split_conditions":[1E0,8.245E-1,2.943E-1,7.539E-1,1E0,1.615E-1,4.892E-1,2.943E-1,8.68E1,7.52E1,9.254E-1,1E0,1E0,9.45E1,2.34E1,1.0163E3,2.33E1,1.23E1,4.737E-1,1.5E1,8.04E1,2E0,2.34E1,1E0,3.5E1,8.49E1,6.9E0,1E0,1.02E3,1.26E1,1.18E1,2.0186633E-3,1.7266556E-3,1.5303076E-3,-1.9135178E-4,5.9177727E-3,3.504573E-3,-4.5456292E-4,7.53067E-3,-2.746731E-4,6.0294033E-3,-5.0827446E-3,1.0432288E-2,-1.572603E-3,1.2192336E-2,9.620883E-3,-6.4177336E-3,-7.956184E-3,-5.601935E-3,-6.5941275E-3,-9.186628E-3,-5.851069E-3,-2.0927698E-3,-4.5570247E-3,-2.042319E-3,-2.9420392E-3,-1.5795708E-3,-1.8913373E-3,1.2506224E-3,-1.0200859E-3,-2.7849973E-4,2.8834792E-4,-1.6392618E-3],"split_indices":[19,16,16,17,11,16,16,16,6,4,17,50,11,5,26,9,8,4,16,23,6,24,10,38,1,6,8,14,9,8,10,0,0,0,0,0,0,0,0,0,0,0,0,0,0,0,0,0,0,0,0,0,0,0,0,0,0,0,0,0,0,0,0],"split_type":[0,0,0,0,0,0,0,0,0,0,0,0,0,0,0,0,0,0,0,0,0,0,0,0,0,0,0,0,0,0,0,0,0,0,0,0,0,0,0,0,0,0,0,0,0,0,0,0,0,0,0,0,0,0,0,0,0,0,0,0,0,0,0],"sum_hessian":[2.5712E4,1.1173E4,1.4539E4,8.005E3,3.168E3,4.796E3,9.743E3,1.564E3,6.441E3,2.86E3,3.08E2,1.602E3,3.194E3,5.572E3,4.171E3,5.8E1,1.506E3,6.136E3,3.05E2,2.628E3,2.32E2,5E0,3.03E2,1.125E3,4.77E2,2.987E3,2.07E2,5.374E3,1.98E2,2.001E3,2.17E3,4.4E1,1.4E1,1.499E3,7E0,6.68E2,5.468E3,7E0,2.98E2,1.7E1,2.611E3,1E0,2.31E2,3E0,2E0,3.02E2,1E0,8.98E2,2.27E2,3.3E1,4.44E2,2.827E3,1.6E2,6.1E1,1.46E2,5.141E3,2.33E2,1.58E2,4E1,1.399E3,6.02E2,5.6E1,2.114E3],"tree_param":{"num_deleted":"0","num_feature":"52","num_nodes":"63","size_leaf_vector":"1"}},{"base_weights":[1.2273274E-2,2.6067114E-1,-1.7820626E-1,2.3920864E-1,3.3287725E-1,-2.7222005E-1,-1.2745616E-1,1.9103992E-1,2.552204E-1,-2.5E-1,3.3411673E-1,-3.369916E-1,-2.4396068E-1,-1.6422392E-1,-9.858624E-2,4.375E-1,1.8628842E-1,2.4731915E-1,3.3333334E-1,-2.0000001E-2,1.25E-2,3.1135172E-1,3.6747572E-1,-3.0880928E-1,-3.926499E-1,-2.5338957E-1,-1.1363637E-1,-1.7199488E-1,-4.347826E-2,-9.1763005E-2,-1.6991343E-1,2.3076924E-2,-1.25E-2,1.0998736E-2,8.301887E-3,1.20768E-2,1.846591E-2,1.8013308E-2,5.6818184E-3,1.51385935E-2,2.0550847E-2,1.2711865E-2,1.869856E-2,-1.5588522E-2,1.25E-2,-2.05062E-2,-6.6176476E-3,-1.2997771E-2,-6.9060773E-3,1.6853933E-3,-9.902597E-3,-9.338812E-3,-6.989465E-3,-3.4375002E-3,1.9642858E-2,-6.0790726E-3,-3.7938666E-3,-1.9375E-2,-7.4468083E-3],"categories":[],"categories_nodes":[],"categories_segments":[],"categories_sizes":[],"default_left":[0,0,0,0,0,0,0,0,0,0,0,0,0,0,0,0,0,0,0,0,0,0,0,0,0,0,0,0,0,0,0,0,0,0,0,0,0,0,0,0,0,0,0,0,0,0,0,0,0,0,0,0,0,0,0,0,0,0,0],"id":22,"left_children":[1,3,5,7,9,11,13,15,17,19,21,23,25,27,29,31,33,35,37,-1,-1,39,41,43,45,47,49,51,53,55,57,-1,-1,-1,-1,-1,-1,-1,-1,-1,-1,-1,-1,-1,-1,-1,-1,-1,-1,-1,-1,-1,-1,-1,-1,-1,-1,-1,-1],"loss_changes":[1.2182584E3,1.7238525E1,6.9496155E1,6.598053E0,1.9315796E0,9.267517E0,1.0031815E1,2.440956E0,3.9077148E0,5.5E-1,1.8244019E0,2.3084717E0,4.3457794E0,3.897766E0,2.5662537E0,7.764425E-1,1.4062653E0,4.0558167E0,3.456047E0,0E0,0E0,1.1787415E0,6.625061E-1,1.787262E0,2.297264E0,2.4760132E0,3.0167084E0,1.8352203E0,2.8168283E0,2.2853127E0,2.0510254E0,0E0,0E0,0E0,0E0,0E0,0E0,0E0,0E0,0E0,0E0,0E0,0E0,0E0,0E0,0E0,0E0,0E0,0E0,0E0,0E0,0E0,0E0,0E0,0E0,0E0,0E0,0E0,0E0],"parents":[2147483647,0,0,1,1,2,2,3,3,4,4,5,5,6,6,7,7,8,8,9,9,10,10,11,11,12,12,13,13,14,14,15,15,16,16,17,17,18,18,21,21,22,22,23,23,24,24,25,25,26,26,27,27,28,28,29,29,30,30],"right_children":[2,4,6,8,10,12,14,16,18,20,22,24,26,28,30,32,34,36,38,-1,-1,40,42,44,46,48,50,52,54,56,58,-1,-1,-1,-1,-1,-1,-1,-1,-1,-1,-1,-1,-1,-1,-1,-1,-1,-1,-1,-1,-1,-1,-1,-1,-1,-1,-1,-1],"split_conditions":[1E0,8.480655E-1,3.0455068E-1,6.3949364E-1,4.49E-1,1.551054E-1,4.1508958E-1,2.3806903E-1,1E0,7.639E-1,1.594E2,2.155E2,1E0,1E0,4.06E1,8.89E1,5.08E1,9.57E1,1E0,-1.7860383E-3,4.2659133E-3,1E0,9.666E-1,2.34E1,1E0,1E0,5.44E1,1.85E1,5E1,5.157232E-1,4.05E1,1.916495E-3,-4.3459237E-4,1.8212885E-3,1.4438167E-3,3.6403239E-3,7.2990595E-3,8.09913E-3,3.1440407E-3,5.896665E-3,9.2729E-3,6.7223595E-3,7.3364736E-3,-7.939907E-3,1.3786495E-3,-8.749797E-3,-4.403709E-3,-5.753362E-3,-2.790548E-3,3.385827E-4,-4.0530297E-3,-3.095065E-3,-2.589643E-3,-1.2536675E-3,2.0370693E-3,-1.8244892E-3,-7.7824073E-4,-3.617388E-3,-2.0928294E-3],"split_indices":[19,27,27,27,15,27,27,27,11,16,22,22,11,11,26,7,5,5,35,0,0,11,17,10,11,12,7,10,19,27,7,0,0,0,0,0,0,0,0,0,0,0,0,0,0,0,0,0,0,0,0,0,0,0,0,0,0,0,0],"split_type":[0,0,0,0,0,0,0,0,0,0,0,0,0,0,0,0,0,0,0,0,0,0,0,0,0,0,0,0,0,0,0,0,0,0,0,0,0,0,0,0,0,0,0,0,0,0,0,0,0,0,0,0,0,0,0,0,0,0,0],"sum_hessian":[2.5746E4,1.1174E4,1.4572E4,8.617E3,2.557E3,5.107E3,9.465E3,2.153E3,6.464E3,5E0,2.552E3,1.548E3,3.559E3,4.161E3,5.304E3,3.9E1,2.114E3,5.874E3,5.9E2,4E0,1E0,1.523E3,1.029E3,1.032E3,5.16E2,3.318E3,2.41E2,3.909E3,2.52E2,4.843E3,4.61E2,3.8E1,1E0,7.9E2,1.324E3,5.611E3,2.63E2,5.25E2,6.5E1,1.406E3,1.17E2,5.8E1,9.71E2,1.027E3,5E0,4.83E2,3.3E1,3.138E3,1.8E2,8.8E1,1.53E2,2.676E3,1.233E3,2.39E2,1.3E1,1.681E3,3.162E3,3.9E1,4.22E2],"tree_param":{"num_deleted":"0","num_feature":"52","num_nodes":"59","size_leaf_vector":"1"}},{"base_weights":[7.147574E-3,2.4380721E-1,-1.7343515E-1,2.0351799E-1,2.958239E-1,-2.5845364E-1,-1.2837838E-1,1.5974441E-1,2.2690617E-1,2.6329443E-1,3.252256E-1,-3.2610124E-1,-2.2929037E-1,-1.5862368E-1,-9.99797E-2,4.1447368E-1,1.5051985E-1,2.199014E-1,3.3891213E-1,2.5714287E-1,3.853211E-1,3.1517094E-1,4.3571427E-1,-2.9397234E-1,-3.8921568E-1,-2.3825401E-1,-1.0460251E-1,-1.6472603E-1,-4.752066E-2,-1.02678575E-1,1.8018018E-2,2.1333335E-2,-1.25E-2,8.266626E-3,5.070994E-3,1.6033756E-2,1.0661968E-2,5.882353E-3,1.7713005E-2,1.734104E-2,1.2469257E-2,-1.25E-2,1.9675925E-2,1.1823363E-2,1.6444724E-2,1.5178571E-2,2.2677597E-2,-1.4856151E-2,2.0000001E-2,-1.9791668E-2,7.1428576E-3,-1.2306826E-2,-5.541237E-3,-8.0000004E-4,-1.0000001E-2,-3.3482143E-3,-8.640297E-3,-2.3076924E-2,-1.1956522E-3,-5.9057204E-3,-4.0302267E-3,7.843138E-3,-4.918033E-3],"categories":[],"categories_nodes":[],"categories_segments":[],"categories_sizes":[],"default_left":[0,0,0,0,0,0,0,0,0,0,0,0,0,0,0,0,0,0,0,0,0,0,0,0,0,0,0,0,0,0,0,0,0,0,0,0,0,0,0,0,0,0,0,0,0,0,0,0,0,0,0,0,0,0,0,0,0,0,0,0,0,0,0],"id":23,"left_children":[1,3,5,7,9,11,13,15,17,19,21,23,25,27,29,31,33,35,37,39,41,43,45,47,49,51,53,55,57,59,61,-1,-1,-1,-1,-1,-1,-1,-1,-1,-1,-1,-1,-1,-1,-1,-1,-1,-1,-1,-1,-1,-1,-1,-1,-1,-1,-1,-1,-1,-1,-1,-1],"loss_changes":[1.1002117E3,2.3290222E1,5.59021E1,6.395172E0,4.5635376E0,9.901794E0,8.183456E0,5.085949E0,3.1359558E0,1.6371918E0,2.6944275E0,2.9698792E0,3.928238E0,3.1251602E0,1.570591E0,7.2241306E-1,1.5222054E0,2.5190277E0,7.699585E-1,1.4475098E0,6.6604996E-1,2.449646E0,3.5730743E-1,2.3315735E0,1.8522949E0,3.286438E0,2.0169373E0,3.4482117E0,2.354265E0,1.6314392E0,1.8090299E0,0E0,0E0,0E0,0E0,0E0,0E0,0E0,0E0,0E0,0E0,0E0,0E0,0E0,0E0,0E0,0E0,0E0,0E0,0E0,0E0,0E0,0E0,0E0,0E0,0E0,0E0,0E0,0E0,0E0,0E0,0E0,0E0],"parents":[2147483647,0,0,1,1,2,2,3,3,4,4,5,5,6,6,7,7,8,8,9,9,10,10,11,11,12,12,13,13,14,14,15,15,16,16,17,17,18,18,19,19,20,20,21,21,22,22,23,23,24,24,25,25,26,26,27,27,28,28,29,29,30,30],"right_children":[2,4,6,8,10,12,14,16,18,20,22,24,26,28,30,32,34,36,38,40,42,44,46,48,50,52,54,56,58,60,62,-1,-1,-1,-1,-1,-1,-1,-1,-1,-1,-1,-1,-1,-1,-1,-1,-1,-1,-1,-1,-1,-1,-1,-1,-1,-1,-1,-1,-1,-1,-1,-1],"split_conditions":[1E0,7.6436806E-1,3.0455068E-1,6.3949364E-1,8.480655E-1,1.551054E-1,4.2350614E-1,3.135E-1,8.49E1,9.51E1,1E0,2.155E2,1E0,8.4E1,8.53E1,4.2350614E-1,1E0,2.56E1,8.4E0,1.93E1,1.15E1,3.04E1,9.902E-1,2.35E1,8.51E1,8.49E1,2.508E-1,2.12E1,1.24E1,6.206E-1,7.056E-1,1.785396E-3,-1.8636942E-3,1.5587062E-3,6.795213E-4,7.0052207E-3,3.034103E-3,1.6889184E-3,6.6345707E-3,7.2053927E-3,4.8402073E-3,-3.2240392E-3,8.9350855E-3,5.3359526E-3,6.0403408E-3,8.312839E-3,1.039113E-2,-7.190646E-3,1.4196046E-3,-8.267307E-3,2.2084997E-3,-5.4391697E-3,-2.4933235E-3,-9.265289E-4,-4.3358593E-3,-9.466216E-4,-2.8099082E-3,-5.447083E-3,-4.222125E-4,-1.4734596E-3,-8.3054154E-4,7.858716E-4,-1.8219904E-3],"split_indices":[19,27,27,27,27,27,27,16,6,5,11,22,11,6,6,27,28,5,26,6,10,6,17,10,4,6,16,6,10,15,17,0,0,0,0,0,0,0,0,0,0,0,0,0,0,0,0,0,0,0,0,0,0,0,0,0,0,0,0,0,0,0,0],"split_type":[0,0,0,0,0,0,0,0,0,0,0,0,0,0,0,0,0,0,0,0,0,0,0,0,0,0,0,0,0,0,0,0,0,0,0,0,0,0,0,0,0,0,0,0,0,0,0,0,0,0,0,0,0,0,0,0,0,0,0,0,0,0,0],"sum_hessian":[2.5742E4,1.1141E4,1.4601E4,6.281E3,4.86E3,5.056E3,9.545E3,2.19E3,4.091E3,2.312E3,2.548E3,1.52E3,3.536E3,4.62E3,4.925E3,7.5E1,2.115E3,3.853E3,2.38E2,2.204E3,1.08E2,2.339E3,2.09E2,1.011E3,5.09E2,3.298E3,2.38E2,4.379E3,2.41E2,4.815E3,1.1E2,7.4E1,1E0,1.623E3,4.92E2,2.36E2,3.617E3,1.6E1,2.22E2,1.72E2,2.032E3,1E0,1.07E2,3.5E2,1.989E3,2.7E1,1.82E2,1.007E3,4E0,5.03E2,6E0,3.105E3,1.93E2,1.24E2,1.14E2,3.35E2,4.044E3,1.2E1,2.29E2,2.831E3,1.984E3,5E1,6E1],"tree_param":{"num_deleted":"0","num_feature":"52","num_nodes":"63","size_leaf_vector":"1"}},{"base_weights":[9.145631E-3,-1.5023877E-1,1.8212001E-1,-2.5081012E-1,-9.716207E-2,1.282569E-1,2.7053916E-1,-3.456023E-1,-2.2307478E-1,-1.1475297E-1,-1.3734467E-2,6.749903E-2,1.5868205E-1,2.3354156E-1,3.0011564E-1,-3.8258785E-1,-2.8978622E-1,-1.0326087E-1,-2.330009E-1,-1.2513065E-1,1.1818182E-2,-3.454969E-2,9.710744E-2,5.840164E-2,2.4596775E-1,1.5211585E-1,2.874494E-1,3.1514084E-1,2.205228E-1,2.9078013E-1,4.1161618E-1,-1.9466883E-2,9.375E-3,-1.5505465E-2,-7.5892857E-3,-9.504132E-3,-1.7628206E-3,-9.922127E-3,-1.3863951E-2,-6.6917776E-3,-3.267974E-4,-7.436709E-3,3.816794E-3,5.482456E-3,-2.4255319E-3,-1.5625E-2,5.531915E-3,1.0606061E-2,2.3615994E-3,2.1428572E-2,1.0336539E-2,1.2651515E-2,7.2372775E-3,9.669811E-3,1.778169E-2,1.465164E-2,2.1951219E-2,1.0636418E-2,1.7401962E-2,2.0276498E-2,1.3961486E-2,2.122905E-2,1.3750001E-2],"categories":[],"categories_nodes":[],"categories_segments":[],"categories_sizes":[],"default_left":[0,0,0,0,0,0,0,0,0,0,0,0,0,0,0,0,0,0,0,0,0,0,0,0,0,0,0,0,0,0,0,0,0,0,0,0,0,0,0,0,0,0,0,0,0,0,0,0,0,0,0,0,0,0,0,0,0,0,0,0,0,0,0],"id":24,"left_children":[1,3,5,7,9,11,13,15,17,19,21,23,25,27,29,31,33,35,37,39,41,43,45,47,49,51,53,55,57,59,61,-1,-1,-1,-1,-1,-1,-1,-1,-1,-1,-1,-1,-1,-1,-1,-1,-1,-1,-1,-1,-1,-1,-1,-1,-1,-1,-1,-1,-1,-1,-1,-1],"loss_changes":[7.099398E2,7.151544E1,5.87778E1,1.2092957E1,1.2874847E1,1.4178894E1,5.044464E0,2.0484848E0,4.2383423E0,9.519218E0,3.5310624E0,4.1469183E0,4.2802277E0,2.1411972E0,2.5804443E0,2.4818268E0,1.1336632E0,1.6228764E0,5.0083466E0,6.9128036E0,5.7085114E0,2.598259E0,1.3758209E0,4.179447E0,7.99839E-1,3.584053E0,1.5152225E0,6.4917946E-1,1.713028E0,3.0637665E0,2.3394012E-1,0E0,0E0,0E0,0E0,0E0,0E0,0E0,0E0,0E0,0E0,0E0,0E0,0E0,0E0,0E0,0E0,0E0,0E0,0E0,0E0,0E0,0E0,0E0,0E0,0E0,0E0,0E0,0E0,0E0,0E0,0E0,0E0],"parents":[2147483647,0,0,1,1,2,2,3,3,4,4,5,5,6,6,7,7,8,8,9,9,10,10,11,11,12,12,13,13,14,14,15,15,16,16,17,17,18,18,19,19,20,20,21,21,22,22,23,23,24,24,25,25,26,26,27,27,28,28,29,29,30,30],"right_children":[2,4,6,8,10,12,14,16,18,20,22,24,26,28,30,32,34,36,38,40,42,44,46,48,50,52,54,56,58,60,62,-1,-1,-1,-1,-1,-1,-1,-1,-1,-1,-1,-1,-1,-1,-1,-1,-1,-1,-1,-1,-1,-1,-1,-1,-1,-1,-1,-1,-1,-1,-1,-1],"split_conditions":[5.452064E-1,2.5217357E-1,7.759501E-1,9.984077E-2,5.157232E-1,6.5196383E-1,8.480655E-1,3.121E-1,2.06E1,1E0,6.909E-1,8.53E1,8.53E1,1.57E1,8.22E1,8.51E1,2.208E2,3E0,1E0,8.36E1,2E0,3E1,2.04E1,2.76E1,4.815E-1,1.02E1,1.099E2,6E0,7.71E1,1.2E1,8.51E1,-8.243941E-3,2.3030743E-3,-7.508941E-3,-4.8207184E-3,-4.084793E-3,-8.9841784E-4,-4.610233E-3,-5.7461592E-3,-1.8298127E-3,-4.6409667E-5,-1.9700124E-3,9.933561E-4,1.2404174E-3,-5.13503E-4,-2.8170093E-3,9.872512E-4,2.0794794E-3,5.3964555E-4,6.2339813E-3,2.52437E-3,5.3010704E-3,1.5980036E-3,3.1228573E-3,6.4646215E-3,5.314988E-3,9.3181655E-3,3.8417892E-3,8.2289195E-3,8.964735E-3,5.2358434E-3,1.0223816E-2,9.241635E-3],"split_indices":[27,27,27,27,27,27,27,17,6,11,15,6,6,4,6,4,3,24,32,6,24,5,5,5,15,4,3,2,4,4,4,0,0,0,0,0,0,0,0,0,0,0,0,0,0,0,0,0,0,0,0,0,0,0,0,0,0,0,0,0,0,0,0],"split_type":[0,0,0,0,0,0,0,0,0,0,0,0,0,0,0,0,0,0,0,0,0,0,0,0,0,0,0,0,0,0,0,0,0,0,0,0,0,0,0,0,0,0,0,0,0,0,0,0,0,0,0,0,0,0,0,0,0,0,0,0,0,0,0],"sum_hessian":[2.5749E4,1.3401E4,1.2348E4,4.628E3,8.773E3,7.675E3,4.673E3,1.045E3,3.583E3,7.245E3,1.528E3,2.562E3,5.113E3,2.08E3,2.593E3,6.25E2,4.2E2,2.75E2,3.308E3,6.696E3,5.49E2,1.287E3,2.41E2,2.439E3,1.23E2,4.867E3,2.46E2,2.83E2,1.797E3,2.396E3,1.97E2,6.18E2,7E0,3.65E2,5.5E1,1.2E2,1.55E2,1.861E3,1.447E3,6.238E3,4.58E2,1.57E2,3.92E2,1.13E2,1.174E3,7E0,2.34E2,1.64E2,2.275E3,2E1,1.03E2,3.29E2,4.538E3,1.05E2,1.41E2,2.43E2,4E1,1.696E3,1.01E2,2.16E2,2.18E3,1.78E2,1.9E1],"tree_param":{"num_deleted":"0","num_feature":"52","num_nodes":"63","size_leaf_vector":"1"}},{"base_weights":[5.471184E-3,2.3060985E-1,-1.659465E-1,1.9448E-1,2.7710223E-1,-2.432827E-1,-1.2387507E-1,1.6039926E-1,2.123505E-1,2.688815E-1,3.860947E-1,-3.0926165E-1,-2.1486223E-1,-1.528777E-1,-1.0092873E-1,4.390244E-1,1.5491958E-1,2.0888117E-1,4.1791046E-1,2.5918716E-1,3.6609337E-1,2.1276596E-1,4.1267124E-1,-1.7465754E-1,-3.2308793E-1,-2.239988E-1,-9.072581E-2,-1.7017208E-1,-1.23714656E-1,3.1496063E-2,-1.04174756E-1,2.3125E-2,-1.25E-2,1.0477002E-2,6.691754E-3,1.0186376E-2,1.7429577E-2,2.3469388E-2,1.3157896E-2,1.2023381E-2,1.4906014E-2,2.0225694E-2,1.3541668E-2,-1.3888889E-3,1.75E-2,-0E0,2.0775862E-2,-1.1270492E-2,4E-3,-1.459893E-2,-1.9247312E-2,-1.0355519E-2,-1.3389009E-2,3.164557E-3,-8.088236E-3,-8.244154E-3,-1.5591398E-2,-4.646283E-3,-7.952974E-3,-3.896104E-3,9.803922E-3,-1.5555556E-2,-5.1165293E-3],"categories":[],"categories_nodes":[],"categories_segments":[],"categories_sizes":[],"default_left":[0,0,0,0,0,0,0,0,0,0,0,0,0,0,0,0,0,0,0,0,0,0,0,0,0,0,0,0,0,0,0,0,0,0,0,0,0,0,0,0,0,0,0,0,0,0,0,0,0,0,0,0,0,0,0,0,0,0,0,0,0,0,0],"id":25,"left_children":[1,3,5,7,9,11,13,15,17,19,21,23,25,27,29,31,33,35,37,39,41,43,45,47,49,51,53,55,57,59,61,-1,-1,-1,-1,-1,-1,-1,-1,-1,-1,-1,-1,-1,-1,-1,-1,-1,-1,-1,-1,-1,-1,-1,-1,-1,-1,-1,-1,-1,-1,-1,-1],"loss_changes":[9.911001E2,1.859314E1,4.740805E1,3.7724304E0,4.243561E0,9.564331E0,6.2702637E0,3.2206612E0,2.8345032E0,4.1600647E0,1.4691849E0,2.8170624E0,4.0547943E0,2.0821152E0,2.2711906E0,7.788105E-1,2.406536E0,2.8313904E0,4.1021538E-1,2.9230042E0,1.3800392E0,1.5612292E0,3.429451E-1,1.9050031E0,2.5798035E0,2.4185638E0,2.7236545E0,1.9077911E0,1.6785069E0,2.3023326E0,1.9335327E0,0E0,0E0,0E0,0E0,0E0,0E0,0E0,0E0,0E0,0E0,0E0,0E0,0E0,0E0,0E0,0E0,0E0,0E0,0E0,0E0,0E0,0E0,0E0,0E0,0E0,0E0,0E0,0E0,0E0,0E0,0E0,0E0],"parents":[2147483647,0,0,1,1,2,2,3,3,4,4,5,5,6,6,7,7,8,8,9,9,10,10,11,11,12,12,13,13,14,14,15,15,16,16,17,17,18,18,19,19,20,20,21,21,22,22,23,23,24,24,25,25,26,26,27,27,28,28,29,29,30,30],"right_children":[2,4,6,8,10,12,14,16,18,20,22,24,26,28,30,32,34,36,38,40,42,44,46,48,50,52,54,56,58,60,62,-1,-1,-1,-1,-1,-1,-1,-1,-1,-1,-1,-1,-1,-1,-1,-1,-1,-1,-1,-1,-1,-1,-1,-1,-1,-1,-1,-1,-1,-1,-1,-1],"split_conditions":[1E0,7.6436806E-1,3.0455068E-1,6.3949364E-1,7.52E1,1.551054E-1,4.1508958E-1,2.3806903E-1,9.19E1,1E0,6.757E-1,1.36E1,1E0,4.344E-1,9.969E2,8.35E1,1.0083E3,7.99E1,7.773E-1,8.7812465E-1,1E0,1.0107E3,2.32E1,2.73E-1,2.155E2,3.253E-1,5.29E1,1.0279E3,1.014E3,1.763E2,9.98E2,2.082652E-3,-6.0856342E-5,1.6252071E-3,1.1726528E-3,2.8467805E-3,5.411941E-3,7.0698382E-3,5.5387453E-3,4.4132355E-3,5.635828E-3,8.992282E-3,5.251333E-3,-1.1234939E-3,1.0098869E-2,2.7132153E-3,8.528218E-3,-5.3747618E-3,8.580927E-4,-7.1984115E-3,-7.588508E-3,-4.5522056E-3,-5.183852E-3,9.312816E-4,-3.1339885E-3,-2.7602948E-3,-2.9106073E-3,-1.6489596E-3,-2.7054572E-3,-1.3109021E-3,1.2570918E-3,-2.879984E-3,-1.163052E-3],"split_indices":[19,27,27,27,4,27,27,27,7,11,15,4,11,15,9,4,9,4,15,27,40,9,7,15,22,15,7,9,9,3,9,0,0,0,0,0,0,0,0,0,0,0,0,0,0,0,0,0,0,0,0,0,0,0,0,0,0,0,0,0,0,0,0],"split_type":[0,0,0,0,0,0,0,0,0,0,0,0,0,0,0,0,0,0,0,0,0,0,0,0,0,0,0,0,0,0,0,0,0,0,0,0,0,0,0,0,0,0,0,0,0,0,0,0,0,0,0,0,0,0,0,0,0,0,0,0,0,0,0],"sum_hessian":[2.5679E4,1.11E4,1.4579E4,6.249E3,4.851E3,5.135E3,9.444E3,2.153E3,4.096E3,4.514E3,3.37E2,1.543E3,3.592E3,4.169E3,5.275E3,4E1,2.113E3,4.03E3,6.6E1,4.108E3,4.06E2,4.6E1,2.91E2,1.45E2,1.398E3,3.345E3,2.47E2,2.614E3,1.555E3,1.26E2,5.149E3,3.9E1,1E0,5.86E2,1.527E3,3.889E3,1.41E2,4.8E1,1.8E1,2.779E3,1.329E3,2.87E2,1.19E2,1.7E1,2.9E1,2E0,2.89E2,1.21E2,2.4E1,9.34E2,4.64E2,2.418E3,9.27E2,7.8E1,1.69E2,2.522E3,9.2E1,8.33E2,7.22E2,7.6E1,5E1,4.4E1,5.105E3],"tree_param":{"num_deleted":"0","num_feature":"52","num_nodes":"63","size_leaf_vector":"1"}},{"base_weights":[4.172353E-3,2.1398419E-1,-1.5680127E-1,1.7887793E-1,2.5954986E-1,-2.4053404E-1,-1.1831255E-1,4.181818E-1,1.7673934E-1,2.5095484E-1,3.562341E-1,-3.6132076E-1,-2.2462872E-1,-1.417117E-1,-8.638308E-2,4.7E-1,-8.3333336E-2,1.3633803E-1,1.9276434E-1,2.4222705E-1,3.6963695E-1,3.1834534E-1,4.4396552E-1,-3.6761904E-1,2.5E-1,-2.4734983E-1,-1.8574297E-1,-1.4850368E-1,-5.6470588E-2,-6.372763E-2,-1.1339937E-1,2.4456521E-2,1.0000001E-2,-1.875E-2,1.6666668E-2,9.084195E-3,5.414013E-3,5.157593E-3,1.0015792E-2,1.120056E-2,1.4114462E-2,1.171875E-2,1.920956E-2,-4.166667E-3,1.6300367E-2,-0E0,2.2991072E-2,-5.2083335E-3,-1.8974103E-2,2.0000001E-2,-1.25E-2,-1.2855376E-2,-2.4793388E-3,-5.987395E-3,-9.904535E-3,-7.702298E-3,-2.9126215E-3,2.2916667E-2,-3.5628022E-3,4.2105266E-3,-3.5047792E-3,-7.1575693E-3,-4.1402956E-3],"categories":[],"categories_nodes":[],"categories_segments":[],"categories_sizes":[],"default_left":[0,0,0,0,0,0,0,0,0,0,0,0,0,0,0,0,0,0,0,0,0,0,0,0,0,0,0,0,0,0,0,0,0,0,0,0,0,0,0,0,0,0,0,0,0,0,0,0,0,0,0,0,0,0,0,0,0,0,0,0,0,0,0],"id":26,"left_children":[1,3,5,7,9,11,13,15,17,19,21,23,25,27,29,31,33,35,37,39,41,43,45,47,49,51,53,55,57,59,61,-1,-1,-1,-1,-1,-1,-1,-1,-1,-1,-1,-1,-1,-1,-1,-1,-1,-1,-1,-1,-1,-1,-1,-1,-1,-1,-1,-1,-1,-1,-1,-1],"loss_changes":[8.661721E2,1.7763977E1,4.6740356E1,3.1461792E0,3.9351501E0,8.696594E0,7.417145E0,1.4684849E0,4.0124054E0,4.5209656E0,1.1650124E0,2.132553E0,3.5234985E0,3.3130798E0,2.568348E0,1.6043472E-1,8.541667E-1,2.2386703E0,3.0001678E0,2.964569E0,5.0645065E-1,8.827572E-1,8.165798E-1,1.6012726E0,5.5E-1,4.902237E0,1.1937218E0,2.6485825E0,3.2675924E0,2.1641703E0,1.733942E0,0E0,0E0,0E0,0E0,0E0,0E0,0E0,0E0,0E0,0E0,0E0,0E0,0E0,0E0,0E0,0E0,0E0,0E0,0E0,0E0,0E0,0E0,0E0,0E0,0E0,0E0,0E0,0E0,0E0,0E0,0E0,0E0],"parents":[2147483647,0,0,1,1,2,2,3,3,4,4,5,5,6,6,7,7,8,8,9,9,10,10,11,11,12,12,13,13,14,14,15,15,16,16,17,17,18,18,19,19,20,20,21,21,22,22,23,23,24,24,25,25,26,26,27,27,28,28,29,29,30,30],"right_children":[2,4,6,8,10,12,14,16,18,20,22,24,26,28,30,32,34,36,38,40,42,44,46,48,50,52,54,56,58,60,62,-1,-1,-1,-1,-1,-1,-1,-1,-1,-1,-1,-1,-1,-1,-1,-1,-1,-1,-1,-1,-1,-1,-1,-1,-1,-1,-1,-1,-1,-1,-1,-1],"split_conditions":[1E0,7.6436806E-1,2.5217357E-1,2.943E-1,1E0,8.224546E-2,4.892E-1,1.0195E3,5.975E-1,7.57E1,3E0,8.51E1,1E0,8.19E1,2.66E1,1.0179E3,9.3E0,4.34E1,8.4E0,8.7812465E-1,1.25E1,4.513E-1,1.12E1,9E0,6.99E1,8.49E1,1.1E1,1E0,1.2E0,1.2E0,6.234E-1,1.8399805E-3,1.4565795E-3,-6.365091E-4,2.2356943E-3,1.4958204E-3,9.897262E-4,1.3514638E-3,2.7762502E-3,4.041621E-3,5.312045E-3,4.540351E-3,7.796198E-3,-6.2354803E-3,5.989717E-3,4.462765E-3,9.26767E-3,-4.3450217E-3,-7.2523193E-3,2.7426311E-3,-1.0257053E-2,-5.425304E-3,-1.1131138E-3,-2.028516E-3,-4.8823054E-3,-2.5004006E-3,-9.374693E-4,4.6345787E-3,-1.1929035E-3,4.3552817E-4,-7.082261E-4,-1.8076993E-3,-8.664608E-4],"split_indices":[19,27,27,16,11,27,16,9,16,4,25,4,38,7,26,9,8,6,26,27,10,15,10,4,7,6,19,11,8,8,15,0,0,0,0,0,0,0,0,0,0,0,0,0,0,0,0,0,0,0,0,0,0,0,0,0,0,0,0,0,0,0,0],"split_type":[0,0,0,0,0,0,0,0,0,0,0,0,0,0,0,0,0,0,0,0,0,0,0,0,0,0,0,0,0,0,0,0,0,0,0,0,0,0,0,0,0,0,0,0,0,0,0,0,0,0,0,0,0,0,0,0,0,0,0,0,0,0,0],"sum_hessian":[2.5644E4,1.1133E4,1.4511E4,6.291E3,4.842E3,4.568E3,9.943E3,5.4E1,6.237E3,4.45E3,3.92E2,5.29E2,4.039E3,5.736E3,4.207E3,4.9E1,5E0,1.774E3,4.463E3,4.148E3,3.02E2,2.77E2,1.15E2,5.24E2,5E0,2.546E3,1.493E3,5.312E3,4.24E2,2.29E3,1.917E3,4.5E1,4E0,3E0,2E0,6.76E2,1.098E3,3.48E2,4.115E3,2.856E3,1.292E3,3.1E1,2.71E2,5E0,2.72E2,4E0,1.11E2,2.3E1,5.01E2,4E0,1E0,2.426E3,1.2E2,2.37E2,1.256E3,5.004E3,3.08E2,1.1E1,4.13E2,9.4E1,2.196E3,9.7E2,9.47E2],"tree_param":{"num_deleted":"0","num_feature":"52","num_nodes":"63","size_leaf_vector":"1"}},{"base_weights":[5.1560435E-3,2.0431073E-1,-1.4710931E-1,1.6896497E-1,2.5046614E-1,-2.4354295E-1,-1.1587749E-1,1.5070528E-1,2.0141031E-1,2.4242425E-1,3.458445E-1,-2.5413036E-1,-9.1880344E-2,-1.6103226E-1,-9.1317154E-2,1.382362E-1,2.0392157E-1,1.9016473E-1,3.131068E-1,3.405612E-1,2.3289862E-1,-1.25E-1,3.5E-1,-3.5257733E-1,-2.3725834E-1,1.6304348E-2,-1.6083916E-1,-1.6315927E-1,1.4814815E-1,-1.1125758E-1,-6.862451E-2,7.486155E-3,4.9666665E-3,1.7605634E-2,9.424461E-3,1.7721519E-2,9.176738E-3,-1.875E-2,1.625616E-2,1.4134616E-2,2.2556392E-2,1.4647379E-2,1.116885E-2,1.25E-2,-1.6666668E-2,-1.25E-2,1.7615177E-2,-1.7954072E-2,7.1428576E-3,-1.2360075E-2,-3.7650603E-3,-1.6666668E-2,4.166667E-3,-2.469136E-3,-1.5079366E-2,-4.743976E-3,-8.477828E-3,1.764706E-2,-9.09091E-3,-5.9458683E-3,-1.4018691E-3,-3.0273115E-3,-7.5250836E-3],"categories":[],"categories_nodes":[],"categories_segments":[],"categories_sizes":[],"default_left":[0,0,0,0,0,0,0,0,0,0,0,0,0,0,0,0,0,0,0,0,0,0,0,0,0,0,0,0,0,0,0,0,0,0,0,0,0,0,0,0,0,0,0,0,0,0,0,0,0,0,0,0,0,0,0,0,0,0,0,0,0,0,0],"id":27,"left_children":[1,3,5,7,9,11,13,15,17,19,21,23,25,27,29,31,33,35,37,39,41,43,45,47,49,51,53,55,57,59,61,-1,-1,-1,-1,-1,-1,-1,-1,-1,-1,-1,-1,-1,-1,-1,-1,-1,-1,-1,-1,-1,-1,-1,-1,-1,-1,-1,-1,-1,-1,-1,-1],"loss_changes":[7.793054E2,1.812326E1,4.3835632E1,3.707367E0,3.6185913E0,5.696213E0,1.2187805E1,2.653244E0,2.790535E0,4.0852966E0,7.735596E-1,5.445816E0,1.7483299E0,2.5724792E0,3.2182426E0,1.4495316E0,1.6831398E0,2.182808E0,1.8252392E0,2.3806305E0,2.2582092E0,3.9583334E-1,5.994568E-1,1.6141396E0,4.5628815E0,2.1838768E0,2.2283888E0,1.665184E0,1.8886911E0,2.414505E0,2.1980686E0,0E0,0E0,0E0,0E0,0E0,0E0,0E0,0E0,0E0,0E0,0E0,0E0,0E0,0E0,0E0,0E0,0E0,0E0,0E0,0E0,0E0,0E0,0E0,0E0,0E0,0E0,0E0,0E0,0E0,0E0,0E0,0E0],"parents":[2147483647,0,0,1,1,2,2,3,3,4,4,5,5,6,6,7,7,8,8,9,9,10,10,11,11,12,12,13,13,14,14,15,15,16,16,17,17,18,18,19,19,20,20,21,21,22,22,23,23,24,24,25,25,26,26,27,27,28,28,29,29,30,30],"right_children":[2,4,6,8,10,12,14,16,18,20,22,24,26,28,30,32,34,36,38,40,42,44,46,48,50,52,54,56,58,60,62,-1,-1,-1,-1,-1,-1,-1,-1,-1,-1,-1,-1,-1,-1,-1,-1,-1,-1,-1,-1,-1,-1,-1,-1,-1,-1,-1,-1,-1,-1,-1,-1],"split_conditions":[1E0,7.6436806E-1,2.2079158E-1,3.09E1,7.41E1,1E0,4.000015E-1,9.536E-1,9.19E1,1.99E1,2.52E1,8.224546E-2,5.53E1,5.519E-1,5.213112E-1,1E0,4.05E1,1.2E0,9.962E2,3E0,1.004E3,9.01E1,3.921E-1,8.51E1,8.49E1,2.835E-1,4.258E-1,2.18E1,6.48E1,8.08E1,7.6436806E-1,1.5790015E-3,1.1601985E-3,5.534795E-3,2.794978E-3,3.7200288E-3,2.5957345E-3,-2.9536367E-3,4.2690844E-3,4.9808295E-3,8.804286E-3,4.7823503E-3,4.158446E-3,9.413475E-3,-4.736346E-3,-2.6976734E-3,7.0258914E-3,-6.8372027E-3,2.2252158E-3,-5.350321E-3,-8.5877924E-4,-6.5098465E-3,8.7711815E-4,-1.1579589E-3,-4.2606397E-3,-1.889813E-3,-3.137809E-3,3.4963288E-3,-2.1887727E-3,-1.7776206E-3,-4.8837217E-4,-6.377377E-4,-1.0401994E-3],"split_indices":[19,27,27,26,4,11,27,17,5,6,7,27,7,16,27,37,7,8,9,25,9,5,15,4,6,17,17,6,4,7,27,0,0,0,0,0,0,0,0,0,0,0,0,0,0,0,0,0,0,0,0,0,0,0,0,0,0,0,0,0,0,0,0],"split_type":[0,0,0,0,0,0,0,0,0,0,0,0,0,0,0,0,0,0,0,0,0,0,0,0,0,0,0,0,0,0,0,0,0,0,0,0,0,0,0,0,0,0,0,0,0,0,0,0,0,0,0,0,0,0,0,0,0,0,0,0,0,0,0],"sum_hessian":[2.5697E4,1.1134E4,1.4563E4,6.308E3,4.826E3,3.561E3,1.1002E4,4.04E3,2.268E3,4.454E3,3.72E2,3.328E3,2.33E2,3.874E3,7.128E3,3.276E3,7.64E2,2.063E3,2.05E2,3.91E2,4.063E3,3E0,3.69E2,4.84E2,2.844E3,9.1E1,1.42E2,3.848E3,2.6E1,3.792E3,3.336E3,2.527E3,7.49E2,7E1,6.94E2,7.8E1,1.985E3,3E0,2.02E2,2.59E2,1.32E2,5.52E2,3.511E3,1E0,2E0,1E0,3.68E2,4.78E2,6E0,2.679E3,1.65E2,1.4E1,7.7E1,8E1,6.2E1,3.31E2,3.517E3,1.6E1,1E1,3.472E3,3.2E2,3.038E3,2.98E2],"tree_param":{"num_deleted":"0","num_feature":"52","num_nodes":"63","size_leaf_vector":"1"}},{"base_weights":[5.9014345E-3,1.9767126E-1,-1.4053346E-1,1.4643274E-1,2.2983101E-1,-1.9692567E-1,-9.4267435E-2,1.1130235E-1,1.7054875E-1,2.2289814E-1,3.4177214E-1,-2.7010375E-1,-1.7430459E-1,-1.0627086E-1,-6.425439E-2,1.8367347E-1,9.93996E-2,2.578125E-1,1.5785907E-1,2.0979092E-1,2.6808068E-1,3.0337077E-1,4.1860464E-1,-3.2387862E-1,-2.178344E-1,-1.8026565E-1,-6.27451E-2,-1.1036942E-1,-6.637168E-3,-4.8378926E-2,-1.6612378E-1,1.1242604E-2,4.545455E-3,1.4444445E-2,4.6735397E-3,9.903382E-3,1.8201755E-2,2.762431E-3,8.345624E-3,1.590136E-2,1.0147405E-2,-1.875E-2,1.3484321E-2,5.1724142E-3,1.6317992E-2,7.1428576E-3,2.1544715E-2,-9.793814E-3,-1.7107252E-2,-1.2080792E-2,-4.8076925E-3,-6.1452514E-3,-9.377229E-3,-4.726891E-3,1.8055556E-2,-5.2884617E-3,-1.1059908E-2,1.0000001E-2,-2.2135417E-3,-8.9820364E-4,-3.5307016E-3,-1.0972222E-2,-4.4921874E-3],"categories":[],"categories_nodes":[],"categories_segments":[],"categories_sizes":[],"default_left":[0,0,0,0,0,0,0,0,0,0,0,0,0,0,0,0,0,0,0,0,0,0,0,0,0,0,0,0,0,0,0,0,0,0,0,0,0,0,0,0,0,0,0,0,0,0,0,0,0,0,0,0,0,0,0,0,0,0,0,0,0,0,0],"id":28,"left_children":[1,3,5,7,9,11,13,15,17,19,21,23,25,27,29,31,33,35,37,39,41,43,45,47,49,51,53,55,57,59,61,-1,-1,-1,-1,-1,-1,-1,-1,-1,-1,-1,-1,-1,-1,-1,-1,-1,-1,-1,-1,-1,-1,-1,-1,-1,-1,-1,-1,-1,-1,-1,-1],"loss_changes":[7.185567E2,1.8222504E1,3.783606E1,3.6028214E0,5.205017E0,1.0775711E1,2.865158E0,1.4831905E0,2.7642212E0,3.7404785E0,1.0384445E0,4.263672E0,3.3117676E0,2.3240356E0,3.6792336E0,9.154358E-1,1.6570425E0,1.9586983E0,2.0475273E0,3.6194153E0,1.5860443E0,1.1933765E0,3.7560463E-1,1.7052994E0,2.248352E0,1.9572601E0,3.4704018E0,2.7643661E0,1.7663463E0,1.3337035E0,1.2289457E0,0E0,0E0,0E0,0E0,0E0,0E0,0E0,0E0,0E0,0E0,0E0,0E0,0E0,0E0,0E0,0E0,0E0,0E0,0E0,0E0,0E0,0E0,0E0,0E0,0E0,0E0,0E0,0E0,0E0,0E0,0E0,0E0],"parents":[2147483647,0,0,1,1,2,2,3,3,4,4,5,5,6,6,7,7,8,8,9,9,10,10,11,11,12,12,13,13,14,14,15,15,16,16,17,17,18,18,19,19,20,20,21,21,22,22,23,23,24,24,25,25,26,26,27,27,28,28,29,29,30,30],"right_children":[2,4,6,8,10,12,14,16,18,20,22,24,26,28,30,32,34,36,38,40,42,44,46,48,50,52,54,56,58,60,62,-1,-1,-1,-1,-1,-1,-1,-1,-1,-1,-1,-1,-1,-1,-1,-1,-1,-1,-1,-1,-1,-1,-1,-1,-1,-1,-1,-1,-1,-1,-1,-1],"split_conditions":[1E0,6.817548E-1,3.6838946E-1,1.19E2,8.49E1,1.551054E-1,5.956351E-1,4.41E1,1.93E1,8.7812465E-1,1E0,3.121E-1,1E0,9.31E1,7.6436806E-1,6.701E-1,1.18E1,7.027E-1,1.29E1,1.78E1,4.49E-1,1.0022E3,1.4E0,3.53E1,7.51E1,3.18E1,2.18E1,7.27E1,1E0,1.19E2,8.606E-1,1.6451598E-3,1.3828696E-3,2.343218E-3,9.427637E-4,2.139631E-3,6.657958E-3,5.3064973E-4,1.922828E-3,6.2511E-3,3.4215883E-3,-2.3366213E-3,4.9080225E-3,3.8577036E-3,7.1027814E-3,7.2473916E-3,8.609486E-3,-4.3056863E-3,-6.864582E-3,-5.7696733E-3,-2.8757944E-3,-2.2379332E-3,-3.756525E-3,-1.4572636E-3,2.4876415E-3,-1.5433431E-3,-2.5321238E-3,1.8210575E-3,-4.9063266E-4,-2.1614731E-4,-6.471068E-4,-1.6237646E-3,-4.8809947E-4],"split_indices":[19,27,27,23,6,27,27,7,6,27,32,17,12,5,27,15,10,15,10,6,15,9,8,5,7,5,10,4,2,23,15,0,0,0,0,0,0,0,0,0,0,0,0,0,0,0,0,0,0,0,0,0,0,0,0,0,0,0,0,0,0,0,0],"split_type":[0,0,0,0,0,0,0,0,0,0,0,0,0,0,0,0,0,0,0,0,0,0,0,0,0,0,0,0,0,0,0,0,0,0,0,0,0,0,0,0,0,0,0,0,0,0,0,0,0,0,0,0,0,0,0,0,0,0,0,0,0,0,0],"sum_hessian":[2.5586E4,1.1078E4,1.4508E4,4.274E3,6.804E3,6.537E3,7.971E3,1.742E3,2.532E3,6.41E3,3.94E2,1.541E3,4.996E3,5.692E3,2.279E3,2.44E2,1.498E3,3.19E2,2.213E3,4.973E3,1.437E3,2.66E2,1.28E2,7.57E2,7.84E2,4.742E3,2.54E2,5.467E3,2.25E2,1.973E3,3.06E2,1.68E2,7.6E1,4.4E1,1.454E3,2.06E2,1.13E2,1.8E2,2.033E3,2.93E2,4.68E3,3E0,1.434E3,2.8E1,2.38E2,6E0,1.22E2,9.6E1,6.61E2,6.55E2,1.29E2,5.36E2,4.206E3,2.37E2,1.7E1,5.251E3,2.16E2,3.4E1,1.91E2,8.34E2,1.139E3,1.79E2,1.27E2],"tree_param":{"num_deleted":"0","num_feature":"52","num_nodes":"63","size_leaf_vector":"1"}},{"base_weights":[5.7719215E-3,1.8996319E-1,-1.3485263E-1,1.3310185E-1,2.1112616E-1,-1.0695694E-1,-2.0802285E-1,2.7054796E-1,1.2608545E-1,2.0490837E-1,3.1027254E-1,-1.3430536E-1,-8.876812E-2,-1.9139509E-1,-3.1758034E-1,2.1982759E-1,4.516129E-1,2.2065727E-1,1.1848519E-1,2.9018492E-1,1.9623812E-1,3.4120736E-1,1.85567E-1,-1.3783063E-1,1.5306123E-2,-9.3945175E-2,-3.760684E-2,-1.9486362E-1,3.773585E-2,2.0000001E-2,-3.2380953E-1,7.8125E-4,1.4705883E-2,2.4038462E-2,1.25E-2,1.15476195E-2,-1.875E-2,9.00217E-3,5.278659E-3,5.6818186E-4,1.5416667E-2,3.8750002E-3,9.986646E-3,1.7630855E-2,5.263158E-3,5.7432433E-3,1.9791668E-2,