{"learner":{"attributes":{"scikit_learn":"{\"_estimator_type\": \"regressor\"}"},"feature_names":["month","day_of_year","day_of_week","dependable_capacity_mw","temp_min","temp_max","temp_avg","humidity","wind_speed","pressure","temp_range","cold_day_flag","hot_day_flag","high_wind_flag","high_humidity_flag","prev_impact_ratio","recent_avg_impact","recent_max_impact","recent_event_frequency","days_since_last_event","prior_high_impact_flag","prior_zero_impact_flag","impacted_mw","summer_capacity_mw","winter_capacity_mw","planned_event_count_ytd","unplanned_event_count_ytd","distance_to_station_km","asset_baseline","season_Fall","season_Spring","season_Summer","season_Winter","fuel_category_Gas","fuel_category_Hydro","fuel_category_Nuclear","fuel_category_Solar","fuel_category_Steam","fuel_category_Wind","broad_asset_category_Baseload","broad_asset_category_Peaker","broad_asset_category_Renewable","operating_region_A","operating_region_B","operating_region_C","operating_region_D","operating_region_E","operating_region_F","operating_region_G","operating_region_H","operating_region_I","operating_region_J","operating_region_K"],"feature_types":["int","int","int","float","float","float","float","float","float","float","float","int","int","int","int","float","float","float","int","int","int","int","float","float","float","int","int","float","float","i","i","i","i","i","i","i","i","i","i","i","i","i","i","i","i","i","i","i","i","i","i","i","i"],"gradient_booster":{"model":{"gbtree_model_param":{"num_parallel_tree":"1","num_trees":"300"},"iteration_indptr":[0,1,2,3,4,5,6,7,8,9,10,11,12,13,14,15,16,17,18,19,20,21,22,23,24,25,26,27,28,29,30,31,32,33,34,35,36,37,38,39,40,41,42,43,44,45,46,47,48,49,50,51,52,53,54,55,56,57,58,59,60,61,62,63,64,65,66,67,68,69,70,71,72,73,74,75,76,77,78,79,80,81,82,83,84,85,86,87,88,89,90,91,92,93,94,95,96,97,98,99,100,101,102,103,104,105,106,107,108,109,110,111,112,113,114,115,116,117,118,119,120,121,122,123,124,125,126,127,128,129,130,131,132,133,134,135,136,137,138,139,140,141,142,143,144,145,146,147,148,149,150,151,152,153,154,155,156,157,158,159,160,161,162,163,164,165,166,167,168,169,170,171,172,173,174,175,176,177,178,179,180,181,182,183,184,185,186,187,188,189,190,191,192,193,194,195,196,197,198,199,200,201,202,203,204,205,206,207,208,209,210,211,212,213,214,215,216,217,218,219,220,221,222,223,224,225,226,227,228,229,230,231,232,233,234,235,236,237,238,239,240,241,242,243,244,245,246,247,248,249,250,251,252,253,254,255,256,257,258,259,260,261,262,263,264,265,266,267,268,269,270,271,272,273,274,275,276,277,278,279,280,281,282,283,284,285,286,287,288,289,290,291,292,293,294,295,296,297,298,299,300],"tree_info":[0,0,0,0,0,0,0,0,0,0,0,0,0,0,0,0,0,0,0,0,0,0,0,0,0,0,0,0,0,0,0,0,0,0,0,0,0,0,0,0,0,0,0,0,0,0,0,0,0,0,0,0,0,0,0,0,0,0,0,0,0,0,0,0,0,0,0,0,0,0,0,0,0,0,0,0,0,0,0,0,0,0,0,0,0,0,0,0,0,0,0,0,0,0,0,0,0,0,0,0,0,0,0,0,0,0,0,0,0,0,0,0,0,0,0,0,0,0,0,0,0,0,0,0,0,0,0,0,0,0,0,0,0,0,0,0,0,0,0,0,0,0,0,0,0,0,0,0,0,0,0,0,0,0,0,0,0,0,0,0,0,0,0,0,0,0,0,0,0,0,0,0,0,0,0,0,0,0,0,0,0,0,0,0,0,0,0,0,0,0,0,0,0,0,0,0,0,0,0,0,0,0,0,0,0,0,0,0,0,0,0,0,0,0,0,0,0,0,0,0,0,0,0,0,0,0,0,0,0,0,0,0,0,0,0,0,0,0,0,0,0,0,0,0,0,0,0,0,0,0,0,0,0,0,0,0,0,0,0,0,0,0,0,0,0,0,0,0,0,0,0,0,0,0,0,0,0,0,0,0,0,0,0,0,0,0,0,0,0,0,0,0,0,0,0,0,0,0,0,0],"trees":[{"base_weights":[-9.3101605E-4,2.5559202E-1,-1.9521497E-1,2.0810021E-1,3.168429E-1,-3.3815473E-1,-1.1857825E-1,1.8938036E-1,2.7334836E-1,3.054118E-1,4.3585944E-1,-4.5430937E-1,-2.518062E-1,-1.6112977E-1,-4.8798632E-2,1.7258926E-1,2.4256986E-1,3.4645152E-1,2.4148902E-1,3.2507348E-1,2.6699954E-1,1.9104218E-2,2.2517903E-2,-2.6542941E-2,-3.9946294E-1,-2.7624193E-1,-1.3119216E-1,-2.5921723E-1,-1.3166377E-1,-9.546899E-2,-3.1068793E-2,7.164684E-3,9.554589E-3,1.1225354E-2,1.9869683E-2,1.4573194E-2,1.9583846E-2,7.0829685E-3,1.4364078E-2,1.5152104E-2,2.0794721E-2,7.5716376E-3,1.4647812E-2,-1.4877311E-2,-2.1432472E-2,-9.853288E-3,-1.6735924E-2,-7.99494E-3,-3.587062E-3,-1.0129514E-2,-1.978322E-2,-8.095327E-3,-4.1148337E-3,-1.7963721E-3,-7.114326E-3,-4.671917E-3,-1.1132907E-3],"categories":[],"categories_nodes":[],"categories_segments":[],"categories_sizes":[],"default_left":[0,0,0,0,0,0,0,0,0,0,0,0,0,0,0,0,0,0,0,0,0,0,0,0,0,0,0,0,0,0,0,0,0,0,0,0,0,0,0,0,0,0,0,0,0,0,0,0,0,0,0,0,0,0,0,0,0],"id":0,"left_children":[1,3,5,7,9,11,13,15,17,19,21,23,25,27,29,31,33,35,37,39,41,-1,-1,-1,43,45,47,49,51,53,55,-1,-1,-1,-1,-1,-1,-1,-1,-1,-1,-1,-1,-1,-1,-1,-1,-1,-1,-1,-1,-1,-1,-1,-1,-1,-1],"loss_changes":[1.2796982E3,3.2124207E1,1.6001514E2,7.565094E0,6.4394226E0,5.1027466E1,2.8238419E1,4.2888336E0,3.1490097E0,3.2445984E0,1.5616608E-1,8.911194E0,8.590485E0,1.7044327E1,2.9800196E0,1.9722061E0,3.1575775E0,9.278259E-1,4.393612E0,5.7026367E0,4.4522247E0,0E0,0E0,0E0,3.6501923E0,1.1198715E1,8.33313E-1,1.04589E1,6.773834E0,2.7601757E0,1.4331043E0,0E0,0E0,0E0,0E0,0E0,0E0,0E0,0E0,0E0,0E0,0E0,0E0,0E0,0E0,0E0,0E0,0E0,0E0,0E0,0E0,0E0,0E0,0E0,0E0,0E0,0E0],"parents":[2147483647,0,0,1,1,2,2,3,3,4,4,5,5,6,6,7,7,8,8,9,9,10,10,11,11,12,12,13,13,14,14,15,15,16,16,17,17,18,18,19,19,20,20,24,24,25,25,26,26,27,27,28,28,29,29,30,30],"right_children":[2,4,6,8,10,12,14,16,18,20,22,24,26,28,30,32,34,36,38,40,42,-1,-1,-1,44,46,48,50,52,54,56,-1,-1,-1,-1,-1,-1,-1,-1,-1,-1,-1,-1,-1,-1,-1,-1,-1,-1,-1,-1,-1,-1,-1,-1,-1,-1],"split_conditions":[1E0,7.6436806E-1,3.0455068E-1,1.6961E2,9.5664E2,1.397E1,5.157232E-1,6.817548E-1,2.471E2,1.869E2,1.00589E3,1.56E0,6.842E1,3.23E1,2.989E1,7.718E1,1.0277E2,1.868E2,2.7645E2,1.4169E2,1.6187E2,1.9104218E-2,2.2517903E-2,-2.6542941E-2,1.92E1,9.52E1,9.452E1,1.014E2,8.955E1,5.77E1,5.213112E-1,7.164684E-3,9.554589E-3,1.1225354E-2,1.9869683E-2,1.4573194E-2,1.9583846E-2,7.0829685E-3,1.4364078E-2,1.5152104E-2,2.0794721E-2,7.5716376E-3,1.4647812E-2,-1.4877311E-2,-2.1432472E-2,-9.853288E-3,-1.6735924E-2,-7.99494E-3,-3.587062E-3,-1.0129514E-2,-1.978322E-2,-8.095327E-3,-4.1148337E-3,-1.7963721E-3,-7.114326E-3,-4.671917E-3,-1.1132907E-3],"split_indices":[19,28,28,22,22,22,28,28,3,3,22,22,22,22,22,22,22,22,22,22,22,0,0,0,3,3,22,3,22,23,28,0,0,0,0,0,0,0,0,0,0,0,0,0,0,0,0,0,0,0,0,0,0,0,0,0,0],"split_type":[0,0,0,0,0,0,0,0,0,0,0,0,0,0,0,0,0,0,0,0,0,0,0,0,0,0,0,0,0,0,0,0,0,0,0,0,0,0,0,0,0,0,0,0,0,0,0,0,0,0,0,0,0,0,0,0,0],"sum_hessian":[2.5675E4,1.1065E4,1.461E4,6.235E3,4.83E3,5.098E3,9.512E3,4.848E3,1.387E3,4.41E3,4.2E2,2.172E3,2.926E3,5.908E3,3.604E3,3.688E3,1.16E3,4.18E2,9.69E2,2.912E3,1.498E3,9.5E1,3.25E2,9.03E2,1.269E3,2.432E3,4.94E2,1.363E3,4.545E3,9.91E2,2.613E3,1.431E3,2.257E3,1.041E3,1.19E2,1.92E2,2.26E2,3.06E2,6.63E2,2.347E3,5.65E2,2.76E2,1.222E3,2.85E2,9.84E2,1.035E3,1.397E3,3.32E2,1.62E2,9.65E2,3.98E2,2.817E3,1.728E3,4.37E2,5.54E2,3.22E2,2.291E3],"tree_param":{"num_deleted":"0","num_feature":"53","num_nodes":"57","size_leaf_vector":"1"}},{"base_weights":[-1.0265476E-3,-2.0457585E-1,1.7392367E-1,-3.5142854E-1,-1.197351E-1,8.653351E-2,2.5512466E-1,-4.87625E-1,-2.977752E-1,-1.5820067E-1,-1.1280606E-2,2.4904232E-2,1.6312803E-1,1.9239156E-1,2.8968713E-1,-2.5466114E-2,-4.3808532E-1,-2.4367297E-1,-4.02162E-1,-7.140447E-2,-2.2409518E-1,7.444432E-2,-6.0636673E-2,1.1359597E-1,-1.0381411E-2,1.3834502E-1,3.1837964E-1,1.9736478E-2,2.1408808E-1,2.778578E-1,4.127271E-1,-1.9602856E-2,-2.416284E-2,-1.562718E-2,-9.179764E-3,-1.6998896E-2,-2.150209E-2,-6.738989E-3,-7.460608E-4,-1.4989654E-2,-7.975777E-3,1.914827E-3,9.74981E-3,-5.821639E-3,2.1924544E-3,-4.299642E-3,6.9278227E-3,-8.7167155E-3,6.121036E-4,1.0570408E-2,4.275321E-3,1.4251164E-2,1.9739317E-2,-4.5980993E-3,2.5462164E-3,1.0154101E-2,1.7725976E-2,1.5195116E-2,1.1821503E-2,1.8058384E-2,2.1357482E-2],"categories":[],"categories_nodes":[],"categories_segments":[],"categories_sizes":[],"default_left":[0,0,0,0,0,0,0,0,0,0,0,0,0,0,0,0,0,0,0,0,0,0,0,0,0,0,0,0,0,0,0,0,0,0,0,0,0,0,0,0,0,0,0,0,0,0,0,0,0,0,0,0,0,0,0,0,0,0,0,0,0],"id":1,"left_children":[1,3,5,7,9,11,13,15,17,19,21,23,25,27,29,-1,31,33,35,37,39,41,43,45,47,49,51,53,55,57,59,-1,-1,-1,-1,-1,-1,-1,-1,-1,-1,-1,-1,-1,-1,-1,-1,-1,-1,-1,-1,-1,-1,-1,-1,-1,-1,-1,-1,-1,-1],"loss_changes":[9.199744E2,1.4873193E2,9.8565E1,3.1802795E1,3.1578453E1,3.1590012E1,1.5557556E1,1.103241E0,1.762967E1,3.194397E1,8.394675E0,1.1611792E1,1.1437202E1,9.589325E0,6.6402283E0,0E0,6.068573E-1,8.507423E0,1.708847E0,8.63567E0,1.5478195E1,3.1518526E0,7.3449492E0,5.27273E0,9.85002E0,9.922852E0,9.3242264E-1,1.0044863E0,3.4442368E0,4.499695E0,1.4688873E-1,0E0,0E0,0E0,0E0,0E0,0E0,0E0,0E0,0E0,0E0,0E0,0E0,0E0,0E0,0E0,0E0,0E0,0E0,0E0,0E0,0E0,0E0,0E0,0E0,0E0,0E0,0E0,0E0,0E0,0E0],"parents":[2147483647,0,0,1,1,2,2,3,3,4,4,5,5,6,6,7,7,8,8,9,9,10,10,11,11,12,12,13,13,14,14,16,16,17,17,18,18,19,19,20,20,21,21,22,22,23,23,24,24,25,25,26,26,27,27,28,28,29,29,30,30],"right_children":[2,4,6,8,10,12,14,16,18,20,22,24,26,28,30,-1,32,34,36,38,40,42,44,46,48,50,52,54,56,58,60,-1,-1,-1,-1,-1,-1,-1,-1,-1,-1,-1,-1,-1,-1,-1,-1,-1,-1,-1,-1,-1,-1,-1,-1,-1,-1,-1,-1,-1,-1],"split_conditions":[5.157232E-1,2.758E1,7.0585084E-1,3.7E0,1.0044E2,7.502E1,7.759501E-1,8.4E-1,9.19E1,1.588E2,2.119E2,3.51E1,1.6738E2,4.406E1,9.5664E2,-2.5466114E-2,3.3E1,1.337E1,1.38E2,4.353E1,6.224E1,1.4005E2,1.5841E2,8.36E0,2.58E1,1.516E2,1.974E2,3.361E1,4.6727E2,1.869E2,1.00589E3,-1.9602856E-2,-2.416284E-2,-1.562718E-2,-9.179764E-3,-1.6998896E-2,-2.150209E-2,-6.738989E-3,-7.460608E-4,-1.4989654E-2,-7.975777E-3,1.914827E-3,9.74981E-3,-5.821639E-3,2.1924544E-3,-4.299642E-3,6.9278227E-3,-8.7167155E-3,6.121036E-4,1.0570408E-2,4.275321E-3,1.4251164E-2,1.9739317E-2,-4.5980993E-3,2.5462164E-3,1.0154101E-2,1.7725976E-2,1.5195116E-2,1.1821503E-2,1.8058384E-2,2.1357482E-2],"split_indices":[28,22,28,22,22,22,28,22,23,3,23,3,22,22,22,0,3,22,3,22,22,22,22,22,22,3,22,22,22,3,22,0,0,0,0,0,0,0,0,0,0,0,0,0,0,0,0,0,0,0,0,0,0,0,0,0,0,0,0,0,0],"split_type":[0,0,0,0,0,0,0,0,0,0,0,0,0,0,0,0,0,0,0,0,0,0,0,0,0,0,0,0,0,0,0,0,0,0,0,0,0,0,0,0,0,0,0,0,0,0,0,0,0,0,0,0,0,0,0,0,0,0,0,0,0],"sum_hessian":[2.5832E4,1.194E4,1.3892E4,4.371E3,7.569E3,6.692E3,7.2E3,1.233E3,3.138E3,5.587E3,1.982E3,3.709E3,2.983E3,2.56E3,4.64E3,8.51E2,3.82E2,2.069E3,1.069E3,2.412E3,3.175E3,7.24E2,1.258E3,1.055E3,2.654E3,2.574E3,4.09E2,2.86E2,2.274E3,4.236E3,4.04E2,1.94E2,1.88E2,9.62E2,1.107E3,3.35E2,7.34E2,1.136E3,1.276E3,1.46E3,1.715E3,5.58E2,1.66E2,8.2E2,4.38E2,1.17E2,9.38E2,3.21E2,2.333E3,1.079E3,1.495E3,2.88E2,1.21E2,6.2E1,2.24E2,2.111E3,1.63E2,2.597E3,1.639E3,9.4E1,3.1E2],"tree_param":{"num_deleted":"0","num_feature":"53","num_nodes":"61","size_leaf_vector":"1"}},{"base_weights":[-4.8500442E-4,2.3256832E-1,-1.7738682E-1,1.9089237E-1,2.8642344E-1,-3.049163E-1,-1.09193675E-1,1.4940423E-1,2.1229891E-1,2.6393607E-1,3.072794E-1,-3.6869717E-1,-2.7766204E-1,-1.4660522E-1,-4.7867335E-2,1.2565297E-1,1.5587385E-1,2.8119648E-1,2.0420934E-1,2.589398E-1,3.1657782E-1,3.57998E-1,3.028907E-1,-3.7508166E-1,-2.6656228E-1,-2.833077E-1,-2.0115823E-1,-1.8884546E-1,-1.3211834E-1,-8.070945E-2,-3.4699205E-2,7.5441073E-3,5.939928E-3,9.242525E-3,7.548138E-3,1.2119454E-2,1.5416174E-2,9.94377E-3,1.4150828E-2,1.2737453E-2,1.6336313E-2,3.5078549E-3,1.606485E-2,1.6468575E-2,1.9860892E-2,1.4904939E-2,1.772714E-2,-2.0085631E-2,-1.8007664E-2,-8.771404E-3,-1.4304774E-2,-1.4415192E-2,-9.967684E-3,-1.1938984E-2,-7.229905E-3,-9.691538E-3,-6.0169483E-3,-3.8817753E-3,-6.7875544E-3,-2.6306019E-3,-4.7484394E-3,-2.3094565E-3,-1.2691555E-3],"categories":[],"categories_nodes":[],"categories_segments":[],"categories_sizes":[],"default_left":[0,0,0,0,0,0,0,0,0,0,0,0,0,0,0,0,0,0,0,0,0,0,0,0,0,0,0,0,0,0,0,0,0,0,0,0,0,0,0,0,0,0,0,0,0,0,0,0,0,0,0,0,0,0,0,0,0,0,0,0,0,0,0],"id":2,"left_children":[1,3,5,7,9,11,13,15,17,19,21,23,25,27,29,31,33,35,37,39,41,43,45,47,49,51,53,55,57,59,61,-1,-1,-1,-1,-1,-1,-1,-1,-1,-1,-1,-1,-1,-1,-1,-1,-1,-1,-1,-1,-1,-1,-1,-1,-1,-1,-1,-1,-1,-1,-1,-1],"loss_changes":[1.060414E3,2.4856628E1,1.2712894E2,5.527893E0,2.1888733E0,8.752502E0,2.1855492E1,3.0833054E-1,2.2427826E0,5.3240967E-1,4.4914246E-1,8.924866E-1,1.486206E0,3.5964508E0,1.5592785E0,6.1969757E-2,2.1017075E-1,3.78994E-1,1.4977722E0,5.2441406E-1,2.0771599E-1,8.6977005E-2,4.66568E-1,4.2382812E-1,1.15364075E-1,1.3372192E0,4.9531364E-1,4.9203873E-1,8.6229706E-1,4.0887594E-1,2.7499366E-1,0E0,0E0,0E0,0E0,0E0,0E0,0E0,0E0,0E0,0E0,0E0,0E0,0E0,0E0,0E0,0E0,0E0,0E0,0E0,0E0,0E0,0E0,0E0,0E0,0E0,0E0,0E0,0E0,0E0,0E0,0E0,0E0],"parents":[2147483647,0,0,1,1,2,2,3,3,4,4,5,5,6,6,7,7,8,8,9,9,10,10,11,11,12,12,13,13,14,14,15,15,16,16,17,17,18,18,19,19,20,20,21,21,22,22,23,23,24,24,25,25,26,26,27,27,28,28,29,29,30,30],"right_children":[2,4,6,8,10,12,14,16,18,20,22,24,26,28,30,32,34,36,38,40,42,44,46,48,50,52,54,56,58,60,62,-1,-1,-1,-1,-1,-1,-1,-1,-1,-1,-1,-1,-1,-1,-1,-1,-1,-1,-1,-1,-1,-1,-1,-1,-1,-1,-1,-1,-1,-1,-1,-1],"split_conditions":[1E0,7.6436806E-1,3.0455068E-1,6.3949364E-1,8.480655E-1,1.551054E-1,5.157232E-1,4.371E-1,2.06E1,1E0,1.96E1,2.465E-1,1E0,3.6838946E-1,5.452064E-1,3.21E1,2.03E1,3E0,8.53E1,8.58E1,4.513E-1,2E0,8.22E1,1.74E1,1.38E-1,1E0,1E0,1E0,2.09E1,3.1E0,6.5196383E-1,7.5441073E-3,5.939928E-3,9.242525E-3,7.548138E-3,1.2119454E-2,1.5416174E-2,9.94377E-3,1.4150828E-2,1.2737453E-2,1.6336313E-2,3.5078549E-3,1.606485E-2,1.6468575E-2,1.9860892E-2,1.4904939E-2,1.772714E-2,-2.0085631E-2,-1.8007664E-2,-8.771404E-3,-1.4304774E-2,-1.4415192E-2,-9.967684E-3,-1.1938984E-2,-7.229905E-3,-9.691538E-3,-6.0169483E-3,-3.8817753E-3,-6.7875544E-3,-2.6306019E-3,-4.7484394E-3,-2.3094565E-3,-1.2691555E-3],"split_indices":[19,28,28,28,28,28,28,16,6,11,6,16,11,28,28,5,6,25,6,6,15,25,6,27,15,12,40,11,6,27,28,0,0,0,0,0,0,0,0,0,0,0,0,0,0,0,0,0,0,0,0,0,0,0,0,0,0,0,0,0,0,0,0],"split_type":[0,0,0,0,0,0,0,0,0,0,0,0,0,0,0,0,0,0,0,0,0,0,0,0,0,0,0,0,0,0,0,0,0,0,0,0,0,0,0,0,0,0,0,0,0,0,0,0,0,0,0,0,0,0,0,0,0,0,0,0,0,0,0],"sum_hessian":[2.5719E4,1.1098E4,1.4621E4,6.259E3,4.839E3,5.093E3,9.528E3,2.133E3,4.126E3,2.335E3,2.504E3,1.521E3,3.572E3,5.917E3,3.611E3,4.61E2,1.672E3,4.3E2,3.696E3,2.138E3,1.97E2,1.93E2,2.311E3,1.429E3,9.2E1,3.324E3,2.48E2,1.508E3,4.409E3,1.032E3,2.579E3,9.4E1,3.67E2,2.37E2,1.435E3,1.81E2,2.49E2,3.465E3,2.31E2,2.018E3,1.2E2,4E0,1.93E2,1.17E2,7.6E1,2.121E3,1.9E2,5.04E2,9.25E2,1.8E1,7.4E1,3.135E3,1.89E2,1.47E2,1.01E2,1.404E3,1.04E2,2.77E2,4.132E3,3.49E2,6.83E2,1.153E3,1.426E3],"tree_param":{"num_deleted":"0","num_feature":"53","num_nodes":"63","size_leaf_vector":"1"}},{"base_weights":[9.871505E-4,-1.6943918E-1,1.6616832E-1,-3.520814E-1,-1.1093411E-1,9.120541E-2,2.3242484E-1,-4.4555742E-1,-2.9230025E-1,-1.4259152E-1,-6.3254205E-3,3.6256466E-2,1.5227465E-1,2.218806E-1,3.6534768E-1,-2.3367649E-2,-3.9715493E-1,-1.6837071E-1,-3.4874606E-1,-7.548149E-2,-2.2289675E-1,7.759402E-2,-5.4656178E-2,5.2766673E-2,-1.5163068E-1,2.2792669E-1,1.2703371E-1,1.9367307E-1,2.5925365E-1,1.5942184E-2,1.9618083E-2,-1.7449168E-2,-2.2199133E-2,-1.0345596E-2,-5.209344E-3,-1.5648125E-2,-2.0367328E-2,-7.00721E-3,-9.510521E-4,-1.5202487E-2,-7.816495E-3,2.348551E-3,9.897271E-3,-5.4284832E-3,1.6452348E-3,4.3069995E-3,6.2703877E-4,-1.2170557E-2,-4.968738E-3,9.528424E-3,1.6389173E-2,2.7807038E-3,9.725694E-3,8.550375E-3,1.1413669E-2,4.139857E-3,1.3237982E-2],"categories":[],"categories_nodes":[],"categories_segments":[],"categories_sizes":[],"default_left":[0,0,0,0,0,0,0,0,0,0,0,0,0,0,0,0,0,0,0,0,0,0,0,0,0,0,0,0,0,0,0,0,0,0,0,0,0,0,0,0,0,0,0,0,0,0,0,0,0,0,0,0,0,0,0,0,0],"id":3,"left_children":[1,3,5,7,9,11,13,15,17,19,21,23,25,27,29,-1,31,33,35,37,39,41,43,45,47,49,51,53,55,-1,-1,-1,-1,-1,-1,-1,-1,-1,-1,-1,-1,-1,-1,-1,-1,-1,-1,-1,-1,-1,-1,-1,-1,-1,-1,-1,-1],"loss_changes":[7.241057E2,1.3523929E2,6.485492E1,1.7030823E1,3.1757736E1,2.0564861E1,9.635986E0,1.0761261E0,1.3064499E1,3.965909E1,9.04482E0,1.0021435E1,5.5143967E0,6.7240906E0,5.130768E-1,0E0,6.9773865E-1,1.4354649E0,2.5733643E0,1.4644686E1,1.8054916E1,2.9944015E0,6.6833787E0,3.9833765E0,1.2275863E0,2.6421242E0,1.0490673E1,2.835968E0,2.6605988E0,0E0,0E0,0E0,0E0,0E0,0E0,0E0,0E0,0E0,0E0,0E0,0E0,0E0,0E0,0E0,0E0,0E0,0E0,0E0,0E0,0E0,0E0,0E0,0E0,0E0,0E0,0E0,0E0],"parents":[2147483647,0,0,1,1,2,2,3,3,4,4,5,5,6,6,7,7,8,8,9,9,10,10,11,11,12,12,13,13,14,14,16,16,17,17,18,18,19,19,20,20,21,21,22,22,23,23,24,24,25,25,26,26,27,27,28,28],"right_children":[2,4,6,8,10,12,14,16,18,20,22,24,26,28,30,-1,32,34,36,38,40,42,44,46,48,50,52,54,56,-1,-1,-1,-1,-1,-1,-1,-1,-1,-1,-1,-1,-1,-1,-1,-1,-1,-1,-1,-1,-1,-1,-1,-1,-1,-1,-1,-1],"split_conditions":[5.405E-1,1.663E1,7.235E-1,3.7E0,9.452E1,7.64E1,9.2038E2,8.4E-1,4.98E1,1.588E2,2.222E2,1.281E2,1.38E2,8.308E-1,1.00589E3,-2.3367649E-2,1.92E1,1.2E1,8.02E1,3.456E1,5.557E1,1.3413E2,1.4901E2,7.49E1,5.689E1,9.452E1,1.4169E2,1.5155E2,1.271E1,1.5942184E-2,1.9618083E-2,-1.7449168E-2,-2.2199133E-2,-1.0345596E-2,-5.209344E-3,-1.5648125E-2,-2.0367328E-2,-7.00721E-3,-9.510521E-4,-1.5202487E-2,-7.816495E-3,2.348551E-3,9.897271E-3,-5.4284832E-3,1.6452348E-3,4.3069995E-3,6.2703877E-4,-1.2170557E-2,-4.968738E-3,9.528424E-3,1.6389173E-2,2.7807038E-3,9.725694E-3,8.550375E-3,1.1413669E-2,4.139857E-3,1.3237982E-2],"split_indices":[16,22,16,22,22,22,22,22,3,3,3,3,3,16,22,0,3,22,3,22,22,22,22,23,22,22,22,22,22,0,0,0,0,0,0,0,0,0,0,0,0,0,0,0,0,0,0,0,0,0,0,0,0,0,0,0,0],"split_type":[0,0,0,0,0,0,0,0,0,0,0,0,0,0,0,0,0,0,0,0,0,0,0,0,0,0,0,0,0,0,0,0,0,0,0,0,0,0,0,0,0,0,0,0,0,0,0,0,0,0,0,0,0,0,0,0,0],"sum_hessian":[2.572E4,1.2659E4,1.3061E4,3.07E3,9.589E3,6.129E3,6.932E3,1.195E3,1.875E3,7.361E3,2.228E3,3.227E3,2.902E3,6.425E3,5.07E2,8.18E2,3.77E2,5.88E2,1.287E3,4.011E3,3.35E3,8.14E2,1.414E3,2.967E3,2.6E2,7.24E2,2.178E3,3.665E3,2.76E3,1.91E2,3.16E2,1.9E2,1.87E2,3.66E2,2.22E2,8.03E2,4.84E2,1.869E3,2.142E3,1.508E3,1.842E3,6.5E2,1.64E2,8.75E2,5.39E2,1.621E3,1.346E3,9.3E1,1.67E2,5.29E2,1.95E2,1.059E3,1.119E3,2.218E3,1.447E3,8.4E1,2.676E3],"tree_param":{"num_deleted":"0","num_feature":"53","num_nodes":"57","size_leaf_vector":"1"}},{"base_weights":[-1.2501666E-3,2.1145496E-1,-1.6218548E-1,1.739193E-1,2.6106697E-1,-3.3908996E-1,-1.2075084E-1,1.5871751E-1,2.2158776E-1,2.519987E-1,3.596867E-1,-3.6179948E-1,-6.9618054E-2,-1.9700906E-1,-8.268359E-2,1.4372033E-1,2.0571415E-1,2.7392894E-1,1.9501758E-1,2.6912946E-1,2.1842296E-1,1.5738977E-2,1.8615313E-2,-4.3534067E-1,-3.1176448E-1,-4.6274927E-2,-1.5781236E-1,-2.2930856E-1,-1.21166766E-1,-1.0954917E-1,-3.921629E-2,7.6600607E-3,5.087977E-3,9.443548E-3,1.74043E-2,1.1578989E-2,1.6690591E-2,5.8169747E-3,1.1720873E-2,1.251215E-2,1.7702762E-2,6.094413E-3,1.2398297E-2,-2.2196509E-2,-1.9876743E-2,-1.0572947E-2,-1.8019643E-2,-7.2079273E-3,-9.2083865E-5,-1.0527967E-2,-6.0724956E-3,-8.452634E-3,-1.4396923E-2,-2.925838E-3,-7.5292713E-3,-7.211335E-3,-2.663132E-3,-3.8076725E-3,-1.2785376E-3],"categories":[],"categories_nodes":[],"categories_segments":[],"categories_sizes":[],"default_left":[0,0,0,0,0,0,0,0,0,0,0,0,0,0,0,0,0,0,0,0,0,0,0,0,0,0,0,0,0,0,0,0,0,0,0,0,0,0,0,0,0,0,0,0,0,0,0,0,0,0,0,0,0,0,0,0,0,0,0],"id":4,"left_children":[1,3,5,7,9,11,13,15,17,19,21,23,25,27,29,31,33,35,37,39,41,-1,-1,43,45,47,49,51,53,55,57,-1,-1,-1,-1,-1,-1,-1,-1,-1,-1,-1,-1,-1,-1,-1,-1,-1,-1,-1,-1,-1,-1,-1,-1,-1,-1,-1,-1],"loss_changes":[8.7979065E2,2.0569366E1,1.0720386E2,4.533722E0,4.171631E0,1.6962738E1,3.440097E1,3.3422775E0,2.06324E0,2.4535828E0,1.0892105E-1,9.284149E0,4.394418E-1,9.641052E0,9.2328E0,1.4285202E0,2.7039413E0,1.216053E0,3.112938E0,4.5435944E0,4.193466E0,0E0,0E0,1.5930176E-1,7.3720245E0,7.5216115E-1,6.0737967E-2,9.7265625E0,2.1678658E0,9.533096E0,1.5217276E0,0E0,0E0,0E0,0E0,0E0,0E0,0E0,0E0,0E0,0E0,0E0,0E0,0E0,0E0,0E0,0E0,0E0,0E0,0E0,0E0,0E0,0E0,0E0,0E0,0E0,0E0,0E0,0E0],"parents":[2147483647,0,0,1,1,2,2,3,3,4,4,5,5,6,6,7,7,8,8,9,9,10,10,11,11,12,12,13,13,14,14,15,15,16,16,17,17,18,18,19,19,20,20,23,23,24,24,25,25,26,26,27,27,28,28,29,29,30,30],"right_children":[2,4,6,8,10,12,14,16,18,20,22,24,26,28,30,32,34,36,38,40,42,-1,-1,44,46,48,50,52,54,56,58,-1,-1,-1,-1,-1,-1,-1,-1,-1,-1,-1,-1,-1,-1,-1,-1,-1,-1,-1,-1,-1,-1,-1,-1,-1,-1,-1,-1],"split_conditions":[1E0,7.6436806E-1,1.337E1,1.633E2,9.5664E2,5.452064E-1,3.3495006E-1,6.817548E-1,2.332E2,1.869E2,1.00589E3,2.24E0,2.75E1,6.113E1,5.213112E-1,1.988E2,1.0277E2,1.868E2,2.7645E2,1.443E2,1.6738E2,1.5738977E-2,1.8615313E-2,8.4E-1,3.81E1,6.58E0,1.133E1,1.413E2,1.898E2,8.02E1,3.174E1,7.6600607E-3,5.087977E-3,9.443548E-3,1.74043E-2,1.1578989E-2,1.6690591E-2,5.8169747E-3,1.1720873E-2,1.251215E-2,1.7702762E-2,6.094413E-3,1.2398297E-2,-2.2196509E-2,-1.9876743E-2,-1.0572947E-2,-1.8019643E-2,-7.2079273E-3,-9.2083865E-5,-1.0527967E-2,-6.0724956E-3,-8.452634E-3,-1.4396923E-2,-2.925838E-3,-7.5292713E-3,-7.211335E-3,-2.663132E-3,-3.8076725E-3,-1.2785376E-3],"split_indices":[19,28,22,22,22,28,28,28,24,3,22,22,3,22,28,3,22,22,22,22,22,0,0,22,3,22,22,3,3,22,22,0,0,0,0,0,0,0,0,0,0,0,0,0,0,0,0,0,0,0,0,0,0,0,0,0,0,0,0],"split_type":[0,0,0,0,0,0,0,0,0,0,0,0,0,0,0,0,0,0,0,0,0,0,0,0,0,0,0,0,0,0,0,0,0,0,0,0,0,0,0,0,0,0,0,0,0,0,0,0,0,0,0,0,0,0,0,0,0,0,0],"sum_hessian":[2.5699E4,1.1069E4,1.463E4,6.304E3,4.765E3,2.775E3,1.1855E4,4.783E3,1.521E3,4.367E3,3.98E2,2.559E3,2.16E2,3.946E3,7.909E3,3.629E3,1.154E3,5.09E2,1.012E3,2.887E3,1.48E3,9.3E1,3.05E2,1.033E3,1.526E3,1.72E2,4.4E1,2.766E3,1.18E3,4.887E3,3.022E3,2.958E3,6.71E2,1.034E3,1.2E2,3.01E2,2.08E2,3.39E2,6.73E2,2.365E3,5.22E2,3.48E2,1.132E3,8.33E2,2E2,5E2,1.026E3,5.3E1,1.19E2,1.6E1,2.8E1,1.366E3,1.4E3,3.78E2,8.02E2,3.023E3,1.864E3,8.14E2,2.208E3],"tree_param":{"num_deleted":"0","num_feature":"53","num_nodes":"59","size_leaf_vector":"1"}},{"base_weights":[-3.674078E-4,2.013512E-1,-1.54489E-1,1.6554411E-1,2.4782073E-1,-2.4856277E-1,-8.719818E-2,1.3232177E-1,1.8311268E-1,2.283636E-1,2.6527178E-1,-3.038735E-1,-2.2002888E-1,-1.1802521E-1,-4.5567855E-2,1.1251515E-1,1.3802795E-1,2.5085914E-1,1.7663604E-1,2.2352715E-1,2.7931386E-1,3.1294757E-1,2.6067412E-1,-3.4833324E-1,-2.8857997E-1,-2.4120185E-1,-1.8359436E-1,-1.4139336E-1,-1.1178014E-1,-3.407415E-2,-6.663548E-2,6.6657113E-3,5.3113145E-3,8.300532E-3,6.664907E-3,1.0502789E-2,1.3882495E-2,8.583945E-3,1.2260845E-2,1.0985372E-2,1.3279969E-2,1.4095212E-2,9.3483034E-4,1.5694423E-2,2.672252E-3,1.2852338E-2,1.6252069E-2,-1.3120877E-2,-1.7686857E-2,-1.4648035E-2,-1.0331727E-2,-1.229051E-2,-8.661992E-3,-5.314767E-3,-9.482019E-3,-7.6092533E-3,-5.768134E-3,-5.6848875E-3,-2.6925763E-3,-2.3649496E-3,-1.2411356E-3,-3.9088884E-3,-2.1435865E-3],"categories":[],"categories_nodes":[],"categories_segments":[],"categories_sizes":[],"default_left":[0,0,0,0,0,0,0,0,0,0,0,0,0,0,0,0,0,0,0,0,0,0,0,0,0,0,0,0,0,0,0,0,0,0,0,0,0,0,0,0,0,0,0,0,0,0,0,0,0,0,0,0,0,0,0,0,0,0,0,0,0,0,0],"id":5,"left_children":[1,3,5,7,9,11,13,15,17,19,21,23,25,27,29,31,33,35,37,39,41,43,45,47,49,51,53,55,57,59,61,-1,-1,-1,-1,-1,-1,-1,-1,-1,-1,-1,-1,-1,-1,-1,-1,-1,-1,-1,-1,-1,-1,-1,-1,-1,-1,-1,-1,-1,-1,-1,-1],"loss_changes":[8.025675E2,1.8563507E1,9.261597E1,3.663391E0,1.5909729E0,9.563507E0,1.0945358E1,2.3187256E-1,1.767807E0,5.060501E-1,4.7912598E-1,1.3096771E0,3.063797E0,6.9957733E-1,8.772006E-1,5.0586224E-2,2.0220566E-1,3.330269E-1,1.2405853E0,2.8105164E-1,1.2704945E-1,3.693962E-2,4.625702E-1,1.5138626E-1,4.9552917E-1,7.544861E-1,6.738548E-1,2.7178764E-1,4.241104E-1,2.8659034E-1,3.480115E-1,0E0,0E0,0E0,0E0,0E0,0E0,0E0,0E0,0E0,0E0,0E0,0E0,0E0,0E0,0E0,0E0,0E0,0E0,0E0,0E0,0E0,0E0,0E0,0E0,0E0,0E0,0E0,0E0,0E0,0E0,0E0,0E0],"parents":[2147483647,0,0,1,1,2,2,3,3,4,4,5,5,6,6,7,7,8,8,9,9,10,10,11,11,12,12,13,13,14,14,15,15,16,16,17,17,18,18,19,19,20,20,21,21,22,22,23,23,24,24,25,25,26,26,27,27,28,28,29,29,30,30],"right_children":[2,4,6,8,10,12,14,16,18,20,22,24,26,28,30,32,34,36,38,40,42,44,46,48,50,52,54,56,58,60,62,-1,-1,-1,-1,-1,-1,-1,-1,-1,-1,-1,-1,-1,-1,-1,-1,-1,-1,-1,-1,-1,-1,-1,-1,-1,-1,-1,-1,-1,-1,-1,-1],"split_conditions":[1E0,7.6436806E-1,3.3495006E-1,6.3949364E-1,8.480655E-1,1.757487E-1,5.157232E-1,4.422E-1,1.93E1,1E0,1.2E1,1.74E1,2.5217357E-1,3.648E-1,3.26E1,3.21E1,2.03E1,3E0,1E0,7.52E1,2.3E1,1.0322E3,8.49E1,2.03E1,8.4E1,7.57E1,1.99E1,4.0448564E-1,9.45E1,6.164E-1,6.933E-1,6.6657113E-3,5.3113145E-3,8.300532E-3,6.664907E-3,1.0502789E-2,1.3882495E-2,8.583945E-3,1.2260845E-2,1.0985372E-2,1.3279969E-2,1.4095212E-2,9.3483034E-4,1.5694423E-2,2.672252E-3,1.2852338E-2,1.6252069E-2,-1.3120877E-2,-1.7686857E-2,-1.4648035E-2,-1.0331727E-2,-1.229051E-2,-8.661992E-3,-5.314767E-3,-9.482019E-3,-7.6092533E-3,-5.768134E-3,-5.6848875E-3,-2.6925763E-3,-2.3649496E-3,-1.2411356E-3,-3.9088884E-3,-2.1435865E-3],"split_indices":[19,28,28,28,28,28,28,16,6,11,4,27,28,16,27,5,6,25,12,4,10,9,6,6,6,4,6,28,5,16,15,0,0,0,0,0,0,0,0,0,0,0,0,0,0,0,0,0,0,0,0,0,0,0,0,0,0,0,0,0,0,0,0],"split_type":[0,0,0,0,0,0,0,0,0,0,0,0,0,0,0,0,0,0,0,0,0,0,0,0,0,0,0,0,0,0,0,0,0,0,0,0,0,0,0,0,0,0,0,0,0,0,0,0,0,0,0,0,0,0,0,0,0,0,0,0,0,0,0],"sum_hessian":[2.5813E4,1.118E4,1.4633E4,6.317E3,4.863E3,6.101E3,8.532E3,2.188E3,4.129E3,2.306E3,2.557E3,2.073E3,4.028E3,4.901E3,3.631E3,4.94E2,1.694E3,3.57E2,3.772E3,2.111E3,1.95E2,2.19E2,2.338E3,5.25E2,1.548E3,2.544E3,1.484E3,1.029E3,3.872E3,2.351E3,1.28E3,1.1E2,3.84E2,2.4E2,1.454E3,1.45E2,2.12E2,3.521E3,2.51E2,1.941E3,1.7E2,1.93E2,2E0,2.18E2,1E0,2.218E3,1.2E2,3.4E1,4.91E2,1.467E3,8.1E1,2.38E3,1.64E2,1.09E2,1.375E3,7.24E2,3.05E2,3.747E3,1.25E2,9.66E2,1.385E3,8.6E2,4.2E2],"tree_param":{"num_deleted":"0","num_feature":"53","num_nodes":"63","size_leaf_vector":"1"}},{"base_weights":[-1.9422306E-4,1.9215834E-1,-1.4658022E-1,1.580129E-1,2.3593736E-1,-3.1366697E-1,-1.0801585E-1,1.4335123E-1,2.0046294E-1,2.2700714E-1,3.3017743E-1,-3.8981274E-1,-2.5034234E-1,-1.762574E-1,-7.420117E-2,1.2856498E-1,1.8794549E-1,1.9291341E-1,1.7329745E-2,2.3516212E-1,1.596169E-1,1.4399965E-2,1.7086344E-2,-2.0215157E-2,-3.420584E-1,-1.4003915E-1,-3.2269958E-1,-2.1027112E-1,-1.1400095E-1,-9.876367E-2,-3.5288278E-2,6.897561E-3,4.172511E-3,8.546662E-3,1.5466715E-2,1.206664E-2,8.087507E-3,1.1072983E-2,1.4813411E-2,4.4410317E-3,1.1316373E-2,-1.4334194E-2,-1.9460293E-2,-8.89008E-3,-1.7593295E-3,-1.4693049E-2,-1.8507339E-2,-7.267351E-3,-1.3265259E-2,-3.110842E-3,-7.032364E-3,-6.5917084E-3,-2.222013E-3,-3.662339E-3,-1.13486E-3],"categories":[],"categories_nodes":[],"categories_segments":[],"categories_sizes":[],"default_left":[0,0,0,0,0,0,0,0,0,0,0,0,0,0,0,0,0,0,0,0,0,0,0,0,0,0,0,0,0,0,0,0,0,0,0,0,0,0,0,0,0,0,0,0,0,0,0,0,0,0,0,0,0,0,0],"id":6,"left_children":[1,3,5,7,9,11,13,15,17,19,21,23,25,27,29,31,33,35,-1,37,39,-1,-1,-1,41,43,45,47,49,51,53,-1,-1,-1,-1,-1,-1,-1,-1,-1,-1,-1,-1,-1,-1,-1,-1,-1,-1,-1,-1,-1,-1,-1,-1],"loss_changes":[7.204434E2,1.6491302E1,9.358511E1,3.8394012E0,4.000824E0,1.3037262E1,2.7230042E1,3.024147E0,1.6905746E0,2.395401E0,1.0472107E-1,7.163086E-1,1.1846848E1,8.257866E0,7.543495E0,1.4600029E0,2.3199234E0,2.249977E0,0E0,3.2392273E0,2.2515917E0,0E0,0E0,0E0,6.559868E-1,2.3377619E0,1.1213455E0,8.99408E0,1.9009705E0,8.689213E0,1.4593949E0,0E0,0E0,0E0,0E0,0E0,0E0,0E0,0E0,0E0,0E0,0E0,0E0,0E0,0E0,0E0,0E0,0E0,0E0,0E0,0E0,0E0,0E0,0E0,0E0],"parents":[2147483647,0,0,1,1,2,2,3,3,4,4,5,5,6,6,7,7,8,8,9,9,10,10,11,11,12,12,13,13,14,14,15,15,16,16,17,17,19,19,20,20,24,24,25,25,26,26,27,27,28,28,29,29,30,30],"right_children":[2,4,6,8,10,12,14,16,18,20,22,24,26,28,30,32,34,36,-1,38,40,-1,-1,-1,42,44,46,48,50,52,54,-1,-1,-1,-1,-1,-1,-1,-1,-1,-1,-1,-1,-1,-1,-1,-1,-1,-1,-1,-1,-1,-1,-1,-1],"split_conditions":[1E0,7.6436806E-1,1.306E1,1.6002E2,9.5664E2,3.7E0,3.3495006E-1,6.817548E-1,5.3014E2,1.0505E3,1.00589E3,1.56E0,3.81E1,5.557E1,5.213112E-1,1.988E2,1.0044E2,2.471E2,1.7329745E-2,1.7437E2,8.3308E2,1.4399965E-2,1.7086344E-2,-2.0215157E-2,1.92E1,6.116623E-1,8.02E1,1.292E2,1.898E2,8.087E1,2.989E1,6.897561E-3,4.172511E-3,8.546662E-3,1.5466715E-2,1.206664E-2,8.087507E-3,1.1072983E-2,1.4813411E-2,4.4410317E-3,1.1316373E-2,-1.4334194E-2,-1.9460293E-2,-8.89008E-3,-1.7593295E-3,-1.4693049E-2,-1.8507339E-2,-7.267351E-3,-1.3265259E-2,-3.110842E-3,-7.032364E-3,-6.5917084E-3,-2.222013E-3,-3.662339E-3,-1.13486E-3],"split_indices":[19,28,22,22,22,22,28,28,22,3,22,22,3,22,28,3,22,3,0,22,22,0,0,0,3,28,3,3,3,22,22,0,0,0,0,0,0,0,0,0,0,0,0,0,0,0,0,0,0,0,0,0,0,0,0],"split_type":[0,0,0,0,0,0,0,0,0,0,0,0,0,0,0,0,0,0,0,0,0,0,0,0,0,0,0,0,0,0,0,0,0,0,0,0,0,0,0,0,0,0,0,0,0,0,0,0,0,0,0,0,0,0,0],"sum_hessian":[2.5584E4,1.1056E4,1.4528E4,6.214E3,4.842E3,2.723E3,1.1805E4,4.622E3,1.592E3,4.426E3,4.16E2,1.234E3,1.489E3,3.91E3,7.895E3,3.474E3,1.148E3,1.516E3,7.6E1,3.946E3,4.8E2,9.5E1,3.21E2,9.41E2,2.93E2,5.91E2,8.98E2,2.527E3,1.383E3,4.839E3,3.056E3,2.874E3,6E2,1.009E3,1.39E2,5.91E2,9.25E2,3.227E3,7.19E2,2.34E2,2.46E2,1.38E2,1.55E2,4.34E2,1.57E2,5.63E2,3.35E2,1.161E3,1.366E3,4.71E2,9.12E2,3.007E3,1.832E3,7.6E2,2.296E3],"tree_param":{"num_deleted":"0","num_feature":"53","num_nodes":"55","size_leaf_vector":"1"}},{"base_weights":[-2.0345025E-4,1.8140203E-1,-1.3901302E-1,1.4518577E-1,2.163663E-1,-2.9325524E-1,-1.0211465E-1,1.3421835E-1,1.9478022E-1,2.0914337E-1,3.1308445E-1,-3.640422E-1,-2.3130994E-1,-1.5733197E-1,-6.931132E-2,1.4616252E-1,1.0331353E-1,2.537194E-1,1.5873802E-1,2.2611953E-1,1.8261191E-1,1.3712491E-2,1.6212313E-2,-1.918841E-2,-3.1810755E-1,-1.235774E-1,-3.0071762E-1,-1.8231699E-1,-8.474669E-2,-8.956373E-2,-3.597482E-2,6.717242E-3,1.3026463E-2,3.9340807E-3,7.042385E-3,1.04111275E-2,1.4655471E-2,4.5863125E-3,9.916357E-3,1.0437506E-2,1.5560336E-2,3.7665914E-3,1.017452E-2,-1.293536E-2,-1.8375507E-2,-2.8067266E-3,-9.124599E-3,-1.3624712E-2,-1.7356243E-2,-6.364403E-3,-1.1969937E-2,-1.3888538E-3,-5.6146476E-3,-5.573845E-3,-2.349898E-3,-2.90933E-3,-9.190838E-4],"categories":[],"categories_nodes":[],"categories_segments":[],"categories_sizes":[],"default_left":[0,0,0,0,0,0,0,0,0,0,0,0,0,0,0,0,0,0,0,0,0,0,0,0,0,0,0,0,0,0,0,0,0,0,0,0,0,0,0,0,0,0,0,0,0,0,0,0,0,0,0,0,0,0,0,0,0],"id":7,"left_children":[1,3,5,7,9,11,13,15,17,19,21,23,25,27,29,31,33,35,37,39,41,-1,-1,-1,43,45,47,49,51,53,55,-1,-1,-1,-1,-1,-1,-1,-1,-1,-1,-1,-1,-1,-1,-1,-1,-1,-1,-1,-1,-1,-1,-1,-1,-1,-1],"loss_changes":[6.4869244E2,1.4085022E1,8.297748E1,2.95401E0,3.8955383E0,1.2259338E1,2.1310051E1,1.6423035E0,2.0627785E0,2.3363953E0,8.099365E-2,1.0667267E0,1.1208946E1,7.938751E0,4.9833946E0,4.3386154E0,1.1492147E0,6.092205E-1,1.6186705E0,4.6865234E0,4.609955E0,0E0,0E0,0E0,1.0787315E0,2.3380165E0,1.1025391E0,1.021595E1,1.7623434E0,4.2798157E0,1.0903647E0,0E0,0E0,0E0,0E0,0E0,0E0,0E0,0E0,0E0,0E0,0E0,0E0,0E0,0E0,0E0,0E0,0E0,0E0,0E0,0E0,0E0,0E0,0E0,0E0,0E0,0E0],"parents":[2147483647,0,0,1,1,2,2,3,3,4,4,5,5,6,6,7,7,8,8,9,9,10,10,11,11,12,12,13,13,14,14,15,15,16,16,17,17,18,18,19,19,20,20,24,24,25,25,26,26,27,27,28,28,29,29,30,30],"right_children":[2,4,6,8,10,12,14,16,18,20,22,24,26,28,30,32,34,36,38,40,42,-1,-1,-1,44,46,48,50,52,54,56,-1,-1,-1,-1,-1,-1,-1,-1,-1,-1,-1,-1,-1,-1,-1,-1,-1,-1,-1,-1,-1,-1,-1,-1,-1,-1],"split_conditions":[1E0,7.419E-1,1.367E1,1.6961E2,9.5664E2,4.47E0,3.648E-1,1.519E2,2.471E2,1.869E2,1.00589E3,1.56E0,3.81E1,6.842E1,5.479E-1,1.0044E2,1.4582E2,1.8407E2,2.7645E2,1.443E2,1.6002E2,1.3712491E-2,1.6212313E-2,-1.918841E-2,1.92E1,3.11E1,8.02E1,1.588E2,2.155E2,8.02E1,5.623E1,6.717242E-3,1.3026463E-2,3.9340807E-3,7.042385E-3,1.04111275E-2,1.4655471E-2,4.5863125E-3,9.916357E-3,1.0437506E-2,1.5560336E-2,3.7665914E-3,1.017452E-2,-1.293536E-2,-1.8375507E-2,-2.8067266E-3,-9.124599E-3,-1.3624712E-2,-1.7356243E-2,-6.364403E-3,-1.1969937E-2,-1.3888538E-3,-5.6146476E-3,-5.573845E-3,-2.349898E-3,-2.90933E-3,-9.190838E-4],"split_indices":[19,16,22,22,22,22,16,24,3,24,22,22,3,22,16,22,22,22,22,22,22,0,0,0,3,3,3,3,3,22,22,0,0,0,0,0,0,0,0,0,0,0,0,0,0,0,0,0,0,0,0,0,0,0,0,0,0],"split_type":[0,0,0,0,0,0,0,0,0,0,0,0,0,0,0,0,0,0,0,0,0,0,0,0,0,0,0,0,0,0,0,0,0,0,0,0,0,0,0,0,0,0,0,0,0,0,0,0,0,0,0,0,0,0,0,0,0],"sum_hessian":[2.5731E4,1.1147E4,1.4584E4,5.478E3,5.669E3,2.814E3,1.177E4,4.489E3,9.89E2,5.278E3,3.91E2,1.311E3,1.503E3,4.385E3,7.385E3,3.235E3,1.254E3,3.73E2,6.16E2,3.214E3,2.064E3,9.3E1,2.98E2,9.12E2,3.99E2,5.9E2,9.13E2,3.261E3,1.124E3,4.593E3,2.792E3,2.934E3,3.01E2,7.59E2,4.95E2,1.76E2,1.97E2,2.3E2,3.86E2,2.672E3,5.42E2,3.37E2,1.727E3,1.84E2,2.15E2,2.76E2,3.14E2,5.72E2,3.41E2,1.662E3,1.599E3,3.67E2,7.57E2,3.031E3,1.562E3,1.233E3,1.559E3],"tree_param":{"num_deleted":"0","num_feature":"53","num_nodes":"57","size_leaf_vector":"1"}},{"base_weights":[-1.7013666E-7,1.727114E-1,-1.3184722E-1,1.4195366E-1,2.1268557E-1,-2.8067914E-1,-9.71552E-2,1.2982592E-1,1.8510742E-1,2.045791E-1,2.9834455E-1,-3.4675083E-1,-2.2054027E-1,-1.5839572E-1,-6.628111E-2,1.17531545E-1,1.6838259E-1,2.4441887E-1,1.6119492E-1,2.1324873E-1,1.447756E-1,1.301073E-2,1.5440925E-2,-1.822433E-2,-3.0266437E-1,-1.1367742E-1,-2.8783444E-1,-1.9478676E-1,-1.0935712E-1,-8.848984E-2,-3.104376E-2,4.8995325E-3,6.5915263E-3,7.693929E-3,1.4856896E-2,1.0648505E-2,1.5125655E-2,4.3346784E-3,9.820992E-3,1.0112211E-2,1.5217905E-2,3.7488558E-3,1.0441956E-2,-1.2241281E-2,-1.7468452E-2,-2.5696796E-3,-8.492733E-3,-1.2950132E-2,-1.6339675E-2,-6.3847266E-3,-1.27655035E-2,-3.365903E-3,-6.838442E-3,-5.8788774E-3,-2.0475865E-3,-3.1442938E-3,-9.300625E-4],"categories":[],"categories_nodes":[],"categories_segments":[],"categories_sizes":[],"default_left":[0,0,0,0,0,0,0,0,0,0,0,0,0,0,0,0,0,0,0,0,0,0,0,0,0,0,0,0,0,0,0,0,0,0,0,0,0,0,0,0,0,0,0,0,0,0,0,0,0,0,0,0,0,0,0,0,0],"id":8,"left_children":[1,3,5,7,9,11,13,15,17,19,21,23,25,27,29,31,33,35,37,39,41,-1,-1,-1,43,45,47,49,51,53,55,-1,-1,-1,-1,-1,-1,-1,-1,-1,-1,-1,-1,-1,-1,-1,-1,-1,-1,-1,-1,-1,-1,-1,-1,-1,-1],"loss_changes":[5.853417E2,1.3651886E1,7.5237854E1,3.2689362E0,3.2977295E0,1.0870438E1,2.2343796E1,2.3100662E0,1.9149971E0,2.2618256E0,8.57811E-2,9.147644E-1,1.0358635E1,7.0491486E0,6.149872E0,1.0292969E0,2.1690903E0,6.5540886E-1,2.5679092E0,3.8085327E0,2.5018177E0,0E0,0E0,0E0,9.463768E-1,1.950674E0,9.1056824E-1,9.197235E0,1.9382858E0,6.6629257E0,1.2036619E0,0E0,0E0,0E0,0E0,0E0,0E0,0E0,0E0,0E0,0E0,0E0,0E0,0E0,0E0,0E0,0E0,0E0,0E0,0E0,0E0,0E0,0E0,0E0,0E0,0E0,0E0],"parents":[2147483647,0,0,1,1,2,2,3,3,4,4,5,5,6,6,7,7,8,8,9,9,10,10,11,11,12,12,13,13,14,14,15,15,16,16,17,17,18,18,19,19,20,20,24,24,25,25,26,26,27,27,28,28,29,29,30,30],"right_children":[2,4,6,8,10,12,14,16,18,20,22,24,26,28,30,32,34,36,38,40,42,-1,-1,-1,44,46,48,50,52,54,56,-1,-1,-1,-1,-1,-1,-1,-1,-1,-1,-1,-1,-1,-1,-1,-1,-1,-1,-1,-1,-1,-1,-1,-1,-1,-1],"split_conditions":[1E0,7.6436806E-1,1.367E1,1.6961E2,9.5664E2,4.47E0,3.3495006E-1,6.817548E-1,2.332E2,2.39E2,1.00589E3,1.56E0,3.81E1,4.762E1,5.213112E-1,8.02E1,1.0394E2,1.974E2,2.7645E2,1.868E2,8.3308E2,1.301073E-2,1.5440925E-2,-1.822433E-2,1.92E1,3.11E1,6.39E1,9.52E1,1.898E2,8.02E1,3.23E1,4.8995325E-3,6.5915263E-3,7.693929E-3,1.4856896E-2,1.0648505E-2,1.5125655E-2,4.3346784E-3,9.820992E-3,1.0112211E-2,1.5217905E-2,3.7488558E-3,1.0441956E-2,-1.2241281E-2,-1.7468452E-2,-2.5696796E-3,-8.492733E-3,-1.2950132E-2,-1.6339675E-2,-6.3847266E-3,-1.27655035E-2,-3.365903E-3,-6.838442E-3,-5.8788774E-3,-2.0475865E-3,-3.1442938E-3,-9.300625E-4],"split_indices":[19,28,22,22,22,22,28,28,3,3,22,22,3,22,28,22,22,22,22,22,22,0,0,0,3,3,24,3,3,22,22,0,0,0,0,0,0,0,0,0,0,0,0,0,0,0,0,0,0,0,0,0,0,0,0,0,0],"split_type":[0,0,0,0,0,0,0,0,0,0,0,0,0,0,0,0,0,0,0,0,0,0,0,0,0,0,0,0,0,0,0,0,0,0,0,0,0,0,0,0,0,0,0,0,0,0,0,0,0,0,0,0,0,0,0,0,0],"sum_hessian":[2.5703E4,1.1127E4,1.4576E4,6.291E3,4.836E3,2.754E3,1.1822E4,4.914E3,1.377E3,4.421E3,4.15E2,1.31E3,1.444E3,3.961E3,7.861E3,3.729E3,1.185E3,3.93E2,9.84E2,3.859E3,5.62E2,9.5E1,3.2E2,9.29E2,3.81E2,5.59E2,8.85E2,2.272E3,1.689E3,4.821E3,3.04E3,1.579E3,2.15E3,1.067E3,1.18E2,2.58E2,1.35E2,3.17E2,6.67E2,3.446E3,4.13E2,2.7E2,2.92E2,1.73E2,2.08E2,2.66E2,2.93E2,5.13E2,3.72E2,1.079E3,1.193E3,6.68E2,1.021E3,2.99E3,1.831E3,8.53E2,2.187E3],"tree_param":{"num_deleted":"0","num_feature":"53","num_nodes":"57","size_leaf_vector":"1"}},{"base_weights":[5.783503E-5,-1.370941E-1,1.1638193E-1,-2.3906484E-1,-7.506128E-2,6.640154E-2,1.7780486E-1,-3.0614084E-1,-1.897794E-1,-1.0288113E-1,-1.7021144E-3,1.786832E-2,1.2305288E-1,1.5294674E-1,2.1223551E-1,-3.4258765E-1,-2.638659E-1,-1.2422506E-1,-2.720734E-1,-3.4229476E-3,-1.3944463E-1,5.4178E-2,-3.870863E-2,2.8594652E-2,-1.167442E-1,1.9489892E-1,1.01504005E-1,2.3828773E-2,1.6205345E-1,4.2210534E-2,2.1891686E-1,-1.748523E-2,-1.557208E-2,-8.578595E-3,-1.5026964E-2,-2.7146777E-3,-7.5519118E-3,-1.1123545E-2,-1.4976101E-2,-2.4004935E-3,2.8815686E-3,-1.03719635E-2,-5.092471E-3,1.7494574E-3,7.62459E-3,-5.30881E-3,8.206225E-4,4.023081E-3,4.855992E-4,-9.282532E-3,-3.0830835E-3,7.1470584E-3,1.31932795E-2,2.362318E-3,7.6072155E-3,2.1410172E-3,-6.7066695E-3,1.3469837E-2,7.551618E-3,7.4924686E-4,4.730975E-3,9.876328E-3,1.2344362E-2],"categories":[],"categories_nodes":[],"categories_segments":[],"categories_sizes":[],"default_left":[0,0,0,0,0,0,0,0,0,0,0,0,0,0,0,0,0,0,0,0,0,0,0,0,0,0,0,0,0,0,0,0,0,0,0,0,0,0,0,0,0,0,0,0,0,0,0,0,0,0,0,0,0,0,0,0,0,0,0,0,0,0,0],"id":9,"left_children":[1,3,5,7,9,11,13,15,17,19,21,23,25,27,29,31,33,35,37,39,41,43,45,47,49,51,53,55,57,59,61,-1,-1,-1,-1,-1,-1,-1,-1,-1,-1,-1,-1,-1,-1,-1,-1,-1,-1,-1,-1,-1,-1,-1,-1,-1,-1,-1,-1,-1,-1,-1,-1],"loss_changes":[4.0987613E2,7.456009E1,4.2663467E1,1.4682785E1,1.4963276E1,2.1075256E1,5.3048096E0,2.8170776E0,1.384684E1,1.9331364E1,4.1731086E0,5.96664E0,5.4562035E0,4.258568E0,2.9579773E0,1.1495972E-1,2.9202309E0,2.6806717E0,1.4854965E0,3.8955472E0,9.915108E0,1.5114334E0,4.51647E0,3.746353E0,1.1461921E0,2.882719E0,7.4745903E0,7.257314E-1,3.965088E0,1.4126867E-1,1.4547501E0,0E0,0E0,0E0,0E0,0E0,0E0,0E0,0E0,0E0,0E0,0E0,0E0,0E0,0E0,0E0,0E0,0E0,0E0,0E0,0E0,0E0,0E0,0E0,0E0,0E0,0E0,0E0,0E0,0E0,0E0,0E0,0E0],"parents":[2147483647,0,0,1,1,2,2,3,3,4,4,5,5,6,6,7,7,8,8,9,9,10,10,11,11,12,12,13,13,14,14,15,15,16,16,17,17,18,18,19,19,20,20,21,21,22,22,23,23,24,24,25,25,26,26,27,27,28,28,29,29,30,30],"right_children":[2,4,6,8,10,12,14,16,18,20,22,24,26,28,30,32,34,36,38,40,42,44,46,48,50,52,54,56,58,60,62,-1,-1,-1,-1,-1,-1,-1,-1,-1,-1,-1,-1,-1,-1,-1,-1,-1,-1,-1,-1,-1,-1,-1,-1,-1,-1,-1,-1,-1,-1,-1,-1],"split_conditions":[5.157232E-1,2.85E1,7.193496E-1,9.29E0,9.919E1,8.02E1,8.480655E-1,2.24E0,7.88E1,1.118E2,2.612E2,1.4E2,1.281E2,2.806E1,1.271E1,8.4E-1,3.3E1,3.81E1,1.071E2,4.406E1,5.338E1,1.4582E2,1.3847E2,3.51E1,6.346E1,9.452E1,1.4169E2,4.45E1,4.45E1,1.164E1,1.4169E2,-1.748523E-2,-1.557208E-2,-8.578595E-3,-1.5026964E-2,-2.7146777E-3,-7.5519118E-3,-1.1123545E-2,-1.4976101E-2,-2.4004935E-3,2.8815686E-3,-1.03719635E-2,-5.092471E-3,1.7494574E-3,7.62459E-3,-5.30881E-3,8.206225E-4,4.023081E-3,4.855992E-4,-9.282532E-3,-3.0830835E-3,7.1470584E-3,1.31932795E-2,2.362318E-3,7.6072155E-3,2.1410172E-3,-6.7066695E-3,1.3469837E-2,7.551618E-3,7.4924686E-4,4.730975E-3,9.876328E-3,1.2344362E-2],"split_indices":[28,22,28,22,22,22,28,22,3,3,3,3,3,22,22,22,3,3,3,22,22,22,22,3,22,22,22,3,3,22,22,0,0,0,0,0,0,0,0,0,0,0,0,0,0,0,0,0,0,0,0,0,0,0,0,0,0,0,0,0,0,0,0],"split_type":[0,0,0,0,0,0,0,0,0,0,0,0,0,0,0,0,0,0,0,0,0,0,0,0,0,0,0,0,0,0,0,0,0,0,0,0,0,0,0,0,0,0,0,0,0,0,0,0,0,0,0,0,0,0,0,0,0,0,0,0,0,0,0],"sum_hessian":[2.5689E4,1.1789E4,1.39E4,4.458E3,7.331E3,7.665E3,6.235E3,1.886E3,2.572E3,5.315E3,2.016E3,4.129E3,3.536E3,3.624E3,2.611E3,1.009E3,8.77E2,1.433E3,1.139E3,1.429E3,3.886E3,8.03E2,1.213E3,3.825E3,3.04E2,8.14E2,2.722E3,2.39E2,3.385E3,9.9E1,2.512E3,8.13E2,1.96E2,2.51E2,6.26E2,3.98E2,1.035E3,4.09E2,7.3E2,8.26E2,6.03E2,1.382E3,2.504E3,6.73E2,1.3E2,5.45E2,6.68E2,1.02E3,2.805E3,1.34E2,1.7E2,4.66E2,3.48E2,1.315E3,1.407E3,2.14E2,2.5E1,3.13E2,3.072E3,6.6E1,3.3E1,1.428E3,1.084E3],"tree_param":{"num_deleted":"0","num_feature":"53","num_nodes":"63","size_leaf_vector":"1"}},{"base_weights":[-4.0188365E-4,1.5724593E-1,-1.2108653E-1,1.2849016E-1,1.9044925E-1,-2.4514644E-1,-8.7318555E-2,1.1837981E-1,1.7332806E-1,1.8373372E-1,2.7308768E-1,-1.6613558E-1,-2.9033718E-1,-1.3129497E-1,-6.1974756E-2,1.2770115E-1,8.5283406E-2,2.3979548E-1,1.404921E-1,6.2246297E-2,1.8701932E-1,1.18481545E-2,1.4104097E-2,-2.8523728E-1,-1.0306553E-1,-3.2500166E-1,-2.4748096E-1,-1.5230158E-1,-7.170701E-2,-7.952595E-2,-3.6993355E-2,5.849009E-3,8.937082E-3,2.6591881E-3,6.1979033E-3,1.0524061E-2,1.4326505E-2,3.9627096E-3,8.559982E-3,4.9254824E-3,1.9482955E-3,1.0228168E-2,7.953672E-3,-1.5735378E-2,-1.1866888E-2,-3.308129E-3,-7.1502314E-3,-1.667228E-2,-1.5213384E-2,-1.0676101E-2,-1.4576114E-2,-4.933594E-3,-1.0248495E-2,-9.560827E-4,-4.7138846E-3,-4.918188E-3,-2.1629825E-3,-2.787751E-3,-9.920773E-4],"categories":[],"categories_nodes":[],"categories_segments":[],"categories_sizes":[],"default_left":[0,0,0,0,0,0,0,0,0,0,0,0,0,0,0,0,0,0,0,0,0,0,0,0,0,0,0,0,0,0,0,0,0,0,0,0,0,0,0,0,0,0,0,0,0,0,0,0,0,0,0,0,0,0,0,0,0,0,0],"id":10,"left_children":[1,3,5,7,9,11,13,15,17,19,21,23,25,27,29,31,33,35,37,39,41,-1,-1,43,45,47,49,51,53,55,57,-1,-1,-1,-1,-1,-1,-1,-1,-1,-1,-1,-1,-1,-1,-1,-1,-1,-1,-1,-1,-1,-1,-1,-1,-1,-1,-1,-1],"loss_changes":[4.8709525E2,1.05746155E1,6.0726944E1,2.6776886E0,2.8078766E0,1.1027634E1,1.26974945E1,1.4884338E0,2.3518028E0,1.8907623E0,5.8250427E-2,8.466391E0,2.8491516E0,5.2050858E0,3.1688309E0,2.0529938E0,1.3229933E0,4.3288803E-1,1.3666925E0,1.0337806E-1,2.2423706E0,0E0,0E0,4.7724724E-1,1.0826759E0,8.88443E-2,1.2628479E0,8.679504E0,1.2895308E0,2.8978844E0,9.600997E-1,0E0,0E0,0E0,0E0,0E0,0E0,0E0,0E0,0E0,0E0,0E0,0E0,0E0,0E0,0E0,0E0,0E0,0E0,0E0,0E0,0E0,0E0,0E0,0E0,0E0,0E0,0E0,0E0],"parents":[2147483647,0,0,1,1,2,2,3,3,4,4,5,5,6,6,7,7,8,8,9,9,10,10,11,11,12,12,13,13,14,14,15,15,16,16,17,17,18,18,19,19,20,20,23,23,24,24,25,25,26,26,27,27,28,28,29,29,30,30],"right_children":[2,4,6,8,10,12,14,16,18,20,22,24,26,28,30,32,34,36,38,40,42,-1,-1,44,46,48,50,52,54,56,58,-1,-1,-1,-1,-1,-1,-1,-1,-1,-1,-1,-1,-1,-1,-1,-1,-1,-1,-1,-1,-1,-1,-1,-1,-1,-1,-1,-1],"split_conditions":[1E0,7.579E-1,1.498E1,1.755E2,9.5664E2,4.45E1,3.648E-1,1.894E2,2.514E2,1.271E1,1.00589E3,3.7E0,7.25E0,6.916E1,5.294E-1,9.919E1,1.504E2,1.974E2,2.7645E2,2.53E1,1.869E2,1.18481545E-2,1.4104097E-2,1.56E0,3.74E1,3.04E0,6.39E1,1.588E2,2.222E2,8.087E1,5.746E1,5.849009E-3,8.937082E-3,2.6591881E-3,6.1979033E-3,1.0524061E-2,1.4326505E-2,3.9627096E-3,8.559982E-3,4.9254824E-3,1.9482955E-3,1.0228168E-2,7.953672E-3,-1.5735378E-2,-1.1866888E-2,-3.308129E-3,-7.1502314E-3,-1.667228E-2,-1.5213384E-2,-1.0676101E-2,-1.4576114E-2,-4.933594E-3,-1.0248495E-2,-9.560827E-4,-4.7138846E-3,-4.918188E-3,-2.1629825E-3,-2.787751E-3,-9.920773E-4],"split_indices":[19,16,22,22,22,24,16,24,24,22,22,22,22,22,16,22,22,22,22,4,24,0,0,22,24,22,24,24,24,22,22,0,0,0,0,0,0,0,0,0,0,0,0,0,0,0,0,0,0,0,0,0,0,0,0,0,0,0,0],"split_type":[0,0,0,0,0,0,0,0,0,0,0,0,0,0,0,0,0,0,0,0,0,0,0,0,0,0,0,0,0,0,0,0,0,0,0,0,0,0,0,0,0,0,0,0,0,0,0,0,0,0,0,0,0,0,0,0,0,0,0],"sum_hessian":[2.56E4,1.11E4,1.45E4,5.951E3,5.149E3,3.101E3,1.1399E4,4.859E3,1.092E3,4.765E3,3.84E2,1.13E3,1.971E3,4.166E3,7.233E3,3.789E3,1.07E3,3.59E2,7.33E2,1.26E2,4.639E3,8.2E1,3.02E2,3.9E2,7.4E2,1.086E3,8.85E2,3.079E3,1.087E3,4.247E3,2.986E3,3.134E3,6.55E2,5.86E2,4.84E2,2.24E2,1.35E2,2.46E2,4.87E2,4.8E1,7.8E1,2.846E3,1.793E3,2.38E2,1.52E2,3.86E2,3.54E2,7.61E2,3.25E2,5.03E2,3.82E2,1.527E3,1.552E3,3.27E2,7.6E2,2.794E3,1.453E3,1.425E3,1.561E3],"tree_param":{"num_deleted":"0","num_feature":"53","num_nodes":"59","size_leaf_vector":"1"}},{"base_weights":[8.3819113E-4,-1.22880585E-1,1.0581462E-1,-2.189535E-1,-6.7095615E-2,6.354316E-2,1.6651599E-1,-2.880681E-1,-1.7993906E-1,-9.102682E-2,5.923325E-3,2.8487107E-2,1.1413143E-1,1.5802227E-1,2.514267E-1,-2.4577717E-1,-3.1013715E-1,-1.271556E-1,-2.5415847E-1,-5.366184E-2,-1.7177416E-1,5.8204874E-2,-2.8683616E-2,7.734309E-3,8.834406E-2,1.9665873E-1,9.3995534E-2,1.7105955E-1,1.0430969E-1,1.1066358E-2,1.3464132E-2,-1.4512605E-2,-9.234595E-3,-1.5827602E-2,-1.4503171E-2,-7.974305E-3,-3.8645372E-3,-1.0634405E-2,-1.3951077E-2,-1.4913059E-4,-4.3808254E-3,-1.0550587E-2,-6.2945397E-3,2.1648027E-3,8.856249E-3,-3.5140847E-3,2.4076884E-3,9.176338E-4,-4.979729E-3,-6.6089886E-4,5.466101E-3,7.943964E-3,1.3203859E-2,2.2321346E-3,7.082563E-3,7.810703E-3,1.2588131E-2,-7.461008E-5,6.331949E-3],"categories":[],"categories_nodes":[],"categories_segments":[],"categories_sizes":[],"default_left":[0,0,0,0,0,0,0,0,0,0,0,0,0,0,0,0,0,0,0,0,0,0,0,0,0,0,0,0,0,0,0,0,0,0,0,0,0,0,0,0,0,0,0,0,0,0,0,0,0,0,0,0,0,0,0,0,0,0,0],"id":11,"left_children":[1,3,5,7,9,11,13,15,17,19,21,23,25,27,29,31,33,35,37,39,41,43,45,47,49,51,53,55,57,-1,-1,-1,-1,-1,-1,-1,-1,-1,-1,-1,-1,-1,-1,-1,-1,-1,-1,-1,-1,-1,-1,-1,-1,-1,-1,-1,-1,-1,-1],"loss_changes":[3.316892E2,6.2813858E1,3.544037E1,1.1559143E1,1.2962982E1,1.4443066E1,4.050247E0,1.3722992E0,1.0760544E1,1.6847443E1,3.3163152E0,5.9780226E0,5.5218315E0,3.5941162E0,2.1665573E-1,1.4052963E0,3.9016724E-2,2.5864658E0,1.1202164E0,6.5749016E0,3.1546593E0,1.2865908E0,3.5288892E0,4.076103E0,2.6412144E0,1.6212559E0,6.301592E0,4.9315033E0,2.3862934E0,0E0,0E0,0E0,0E0,0E0,0E0,0E0,0E0,0E0,0E0,0E0,0E0,0E0,0E0,0E0,0E0,0E0,0E0,0E0,0E0,0E0,0E0,0E0,0E0,0E0,0E0,0E0,0E0,0E0,0E0],"parents":[2147483647,0,0,1,1,2,2,3,3,4,4,5,5,6,6,7,7,8,8,9,9,10,10,11,11,12,12,13,13,14,14,15,15,16,16,17,17,18,18,19,19,20,20,21,21,22,22,23,23,24,24,25,25,26,26,27,27,28,28],"right_children":[2,4,6,8,10,12,14,16,18,20,22,24,26,28,30,32,34,36,38,40,42,44,46,48,50,52,54,56,58,-1,-1,-1,-1,-1,-1,-1,-1,-1,-1,-1,-1,-1,-1,-1,-1,-1,-1,-1,-1,-1,-1,-1,-1,-1,-1,-1,-1,-1,-1],"split_conditions":[5.157232E-1,2.758E1,7.333232E-1,6.58E0,1.0394E2,8.322E1,9.2038E2,3.81E1,7.88E1,2.085E2,2.637E2,6.817548E-1,1.281E2,2.39E2,1.00589E3,2.24E0,3.04E0,1.663E1,1.071E2,1.118E2,7.36E1,1.5642E2,1.633E2,1.4E2,1.011E1,1.0044E2,1.4582E2,1.7437E2,2.5287E2,1.1066358E-2,1.3464132E-2,-1.4512605E-2,-9.234595E-3,-1.5827602E-2,-1.4503171E-2,-7.974305E-3,-3.8645372E-3,-1.0634405E-2,-1.3951077E-2,-1.4913059E-4,-4.3808254E-3,-1.0550587E-2,-6.2945397E-3,2.1648027E-3,8.856249E-3,-3.5140847E-3,2.4076884E-3,9.176338E-4,-4.979729E-3,-6.6089886E-4,5.466101E-3,7.943964E-3,1.3203859E-2,2.2321346E-3,7.082563E-3,7.810703E-3,1.2588131E-2,-7.461008E-5,6.331949E-3],"split_indices":[28,22,28,22,22,22,22,3,3,3,3,28,3,3,22,22,22,22,3,3,22,22,22,3,22,22,22,22,22,0,0,0,0,0,0,0,0,0,0,0,0,0,0,0,0,0,0,0,0,0,0,0,0,0,0,0,0,0,0],"split_type":[0,0,0,0,0,0,0,0,0,0,0,0,0,0,0,0,0,0,0,0,0,0,0,0,0,0,0,0,0,0,0,0,0,0,0,0,0,0,0,0,0,0,0,0,0,0,0,0,0,0,0,0,0,0,0,0,0,0,0],"sum_hessian":[2.5537E4,1.1722E4,1.3815E4,4.305E3,7.417E3,8.145E3,5.67E3,1.551E3,2.754E3,5.586E3,1.831E3,4.812E3,3.333E3,5.157E3,5.13E2,5.36E2,1.015E3,1.611E3,1.143E3,3.82E3,1.766E3,7.29E2,1.102E3,3.574E3,1.238E3,6.52E2,2.681E3,4.148E3,1.009E3,1.96E2,3.17E2,3.08E2,2.28E2,7.58E2,2.57E2,9.76E2,6.35E2,4.32E2,7.11E2,1.533E3,2.287E3,9.5E2,8.16E2,6.49E2,8E1,7.15E2,3.87E2,3.253E3,3.21E2,2.12E2,1.026E3,4.2E2,2.32E2,1.318E3,1.363E3,3.506E3,6.42E2,1.76E2,8.33E2],"tree_param":{"num_deleted":"0","num_feature":"53","num_nodes":"59","size_leaf_vector":"1"}},{"base_weights":[-3.3047117E-4,1.431872E-1,-1.0988246E-1,1.1629497E-1,1.7325057E-1,-2.2328214E-1,-7.926969E-2,1.12775706E-1,2.3826684E-1,1.6606191E-1,2.3895016E-1,-1.5376204E-1,-2.629149E-1,-1.266902E-1,-5.5765174E-2,1.0731074E-1,1.4025876E-1,1.9328226E-1,1.4518295E-2,1.7411855E-1,9.1440514E-2,1.048489E-2,1.2781885E-2,-2.6038644E-1,-9.504665E-2,-2.9371572E-1,-2.2479503E-1,-1.506577E-1,-7.720834E-2,-7.628794E-2,-3.371515E-2,5.950588E-3,3.6680454E-3,9.553606E-3,3.5722558E-3,7.1352124E-3,1.10474005E-2,3.938019E-3,8.873484E-3,7.753996E-4,6.805739E-3,-1.4753679E-2,-1.1314376E-2,-2.8360249E-3,-6.304065E-3,-1.5051712E-2,-1.3768546E-2,-9.736563E-3,-1.3170558E-2,-4.4785673E-3,-9.377589E-3,-1.3927709E-3,-5.1715383E-3,-5.2741333E-3,-1.7686418E-3,-3.573297E-3,-1.0832946E-3],"categories":[],"categories_nodes":[],"categories_segments":[],"categories_sizes":[],"default_left":[0,0,0,0,0,0,0,0,0,0,0,0,0,0,0,0,0,0,0,0,0,0,0,0,0,0,0,0,0,0,0,0,0,0,0,0,0,0,0,0,0,0,0,0,0,0,0,0,0,0,0,0,0,0,0,0,0],"id":12,"left_children":[1,3,5,7,9,11,13,15,17,19,21,23,25,27,29,31,33,35,-1,37,39,-1,-1,41,43,45,47,49,51,53,55,-1,-1,-1,-1,-1,-1,-1,-1,-1,-1,-1,-1,-1,-1,-1,-1,-1,-1,-1,-1,-1,-1,-1,-1,-1,-1],"loss_changes":[4.0438647E2,8.981369E0,5.0617294E1,2.4971313E0,2.4421997E0,8.500916E0,1.2796303E1,8.436127E-1,3.2823753E-1,2.8337555E0,1.9827652E-1,7.0370846E0,2.2505188E0,4.502121E0,3.4737434E0,1.8873291E0,3.2906837E0,9.5804214E-2,0E0,1.3527832E0,1.5718832E0,0E0,0E0,4.0634537E-1,8.5995007E-1,6.3179016E-2,9.7730255E-1,5.7595024E0,1.6070461E0,4.7480106E0,1.683742E0,0E0,0E0,0E0,0E0,0E0,0E0,0E0,0E0,0E0,0E0,0E0,0E0,0E0,0E0,0E0,0E0,0E0,0E0,0E0,0E0,0E0,0E0,0E0,0E0,0E0,0E0],"parents":[2147483647,0,0,1,1,2,2,3,3,4,4,5,5,6,6,7,7,8,8,9,9,10,10,11,11,12,12,13,13,14,14,15,15,16,16,17,17,19,19,20,20,23,23,24,24,25,25,26,26,27,27,28,28,29,29,30,30],"right_children":[2,4,6,8,10,12,14,16,18,20,22,24,26,28,30,32,34,36,-1,38,40,-1,-1,42,44,46,48,50,52,54,56,-1,-1,-1,-1,-1,-1,-1,-1,-1,-1,-1,-1,-1,-1,-1,-1,-1,-1,-1,-1,-1,-1,-1,-1,-1,-1],"split_conditions":[1E0,7.333232E-1,1.498E1,4.6727E2,9.2038E2,3.81E1,3.3495006E-1,1.633E2,5.3014E2,3.932E2,1.00589E3,3.7E0,7.25E0,6.043E1,4.5044386E-1,1.519E2,2.471E2,3.53E1,1.4518295E-2,1.367E1,7.7566E2,1.048489E-2,1.2781885E-2,8.4E-1,3.11E1,3.04E0,6.39E1,9.52E1,2.155E2,8.02E1,3.23E1,5.950588E-3,3.6680454E-3,9.553606E-3,3.5722558E-3,7.1352124E-3,1.10474005E-2,3.938019E-3,8.873484E-3,7.753996E-4,6.805739E-3,-1.4753679E-2,-1.1314376E-2,-2.8360249E-3,-6.304065E-3,-1.5051712E-2,-1.3768546E-2,-9.736563E-3,-1.3170558E-2,-4.4785673E-3,-9.377589E-3,-1.3927709E-3,-5.1715383E-3,-5.2741333E-3,-1.7686418E-3,-3.573297E-3,-1.0832946E-3],"split_indices":[19,28,22,22,22,3,28,22,22,3,22,22,22,22,28,24,3,4,0,22,22,0,0,22,3,22,24,3,3,22,22,0,0,0,0,0,0,0,0,0,0,0,0,0,0,0,0,0,0,0,0,0,0,0,0,0,0],"split_type":[0,0,0,0,0,0,0,0,0,0,0,0,0,0,0,0,0,0,0,0,0,0,0,0,0,0,0,0,0,0,0,0,0,0,0,0,0,0,0,0,0,0,0,0,0,0,0,0,0,0,0,0,0,0,0,0,0],"sum_hessian":[2.5718E4,1.1133E4,1.4585E4,5.879E3,5.254E3,3.099E3,1.1486E4,5.716E3,1.63E2,4.739E3,5.15E2,1.127E3,1.972E3,3.805E3,7.681E3,4.772E3,9.44E2,9E1,7.3E1,4.276E3,4.63E2,1.92E2,3.23E2,3.99E2,7.28E2,1.087E3,8.85E2,2.562E3,1.243E3,3.977E3,3.704E3,3.547E3,1.225E3,5.42E2,4.02E2,3.4E1,5.6E1,1.46E2,4.13E3,1.72E2,2.91E2,1.94E2,2.05E2,3.27E2,4.01E2,7.66E2,3.21E2,5.01E2,3.84E2,9.66E2,1.596E3,4.32E2,8.11E2,2.32E3,1.657E3,8.95E2,2.809E3],"tree_param":{"num_deleted":"0","num_feature":"53","num_nodes":"57","size_leaf_vector":"1"}},{"base_weights":[2.819894E-4,-1.11710995E-1,9.5294364E-2,-1.8941776E-1,-5.495887E-2,5.428419E-2,1.4640087E-1,-2.4765548E-1,-1.5022264E-1,-7.537014E-2,9.480211E-3,1.2160581E-2,1.0075695E-1,1.2518968E-1,1.7634057E-1,-2.796704E-1,-2.1467897E-1,-9.2366904E-2,-2.1889299E-1,-1.9732762E-2,-1.2722181E-1,6.266255E-2,-2.0434387E-2,2.1561706E-2,-1.097394E-1,1.5826932E-1,8.219233E-2,-3.136372E-3,1.3280092E-1,5.6188248E-2,1.8388906E-1,-1.4277351E-2,-1.2662664E-2,-6.858047E-3,-1.21122105E-2,-5.6699747E-3,-1.6244622E-3,-8.654198E-3,-1.2139233E-2,-2.13757E-3,1.986092E-3,-8.3883805E-3,-4.3576206E-3,2.4585126E-3,7.6044733E-3,-3.0844442E-3,2.060125E-3,4.732404E-3,5.275949E-4,-1.02696465E-2,-3.8895288E-3,5.7759457E-3,1.1173019E-2,1.9502701E-3,6.3776434E-3,6.33244E-4,-6.721575E-3,1.1008538E-2,6.1515584E-3,2.657321E-4,4.685248E-3,8.182453E-3,1.0354563E-2],"categories":[],"categories_nodes":[],"categories_segments":[],"categories_sizes":[],"default_left":[0,0,0,0,0,0,0,0,0,0,0,0,0,0,0,0,0,0,0,0,0,0,0,0,0,0,0,0,0,0,0,0,0,0,0,0,0,0,0,0,0,0,0,0,0,0,0,0,0,0,0,0,0,0,0,0,0,0,0,0,0,0,0],"id":13,"left_children":[1,3,5,7,9,11,13,15,17,19,21,23,25,27,29,31,33,35,37,39,41,43,45,47,49,51,53,55,57,59,61,-1,-1,-1,-1,-1,-1,-1,-1,-1,-1,-1,-1,-1,-1,-1,-1,-1,-1,-1,-1,-1,-1,-1,-1,-1,-1,-1,-1,-1,-1,-1,-1],"loss_changes":[2.7344522E2,5.200583E1,2.9131165E1,1.1325745E1,8.968319E0,1.5101664E1,3.9082947E0,2.0524979E0,1.1811295E1,1.493545E1,2.6119938E0,4.641362E0,3.9032974E0,3.5420074E0,2.3151321E0,8.479309E-2,2.0822105E0,2.0339956E0,1.447525E0,3.4217386E0,4.339432E0,7.056074E-1,2.6750233E0,3.023744E0,8.7026715E-1,2.4657135E0,5.431202E0,4.2492652E-1,2.8947334E0,2.9151934E-1,1.0988159E0,0E0,0E0,0E0,0E0,0E0,0E0,0E0,0E0,0E0,0E0,0E0,0E0,0E0,0E0,0E0,0E0,0E0,0E0,0E0,0E0,0E0,0E0,0E0,0E0,0E0,0E0,0E0,0E0,0E0,0E0,0E0,0E0],"parents":[2147483647,0,0,1,1,2,2,3,3,4,4,5,5,6,6,7,7,8,8,9,9,10,10,11,11,12,12,13,13,14,14,15,15,16,16,17,17,18,18,19,19,20,20,21,21,22,22,23,23,24,24,25,25,26,26,27,27,28,28,29,29,30,30],"right_children":[2,4,6,8,10,12,14,16,18,20,22,24,26,28,30,32,34,36,38,40,42,44,46,48,50,52,54,56,58,60,62,-1,-1,-1,-1,-1,-1,-1,-1,-1,-1,-1,-1,-1,-1,-1,-1,-1,-1,-1,-1,-1,-1,-1,-1,-1,-1,-1,-1,-1,-1,-1,-1],"split_conditions":[5.157232E-1,3.361E1,7.193496E-1,1.011E1,1.092E2,7.863E1,8.480655E-1,2.24E0,8.42E1,1.751E2,2.637E2,1.4E2,1.281E2,2.714E1,1.337E1,8.4E-1,3.3E1,2.388E1,1.118E2,6.408E1,7.283E1,1.5642E2,1.5841E2,1.84E1,5.338E1,9.452E1,1.4582E2,4.45E1,4.45E1,1.164E1,1.3847E2,-1.4277351E-2,-1.2662664E-2,-6.858047E-3,-1.21122105E-2,-5.6699747E-3,-1.6244622E-3,-8.654198E-3,-1.2139233E-2,-2.13757E-3,1.986092E-3,-8.3883805E-3,-4.3576206E-3,2.4585126E-3,7.6044733E-3,-3.0844442E-3,2.060125E-3,4.732404E-3,5.275949E-4,-1.02696465E-2,-3.8895288E-3,5.7759457E-3,1.1173019E-2,1.9502701E-3,6.3776434E-3,6.33244E-4,-6.721575E-3,1.1008538E-2,6.1515584E-3,2.657321E-4,4.685248E-3,8.182453E-3,1.0354563E-2],"split_indices":[28,22,28,22,22,22,28,22,3,3,3,3,3,22,22,22,3,22,3,22,22,22,22,3,22,22,22,3,3,22,22,0,0,0,0,0,0,0,0,0,0,0,0,0,0,0,0,0,0,0,0,0,0,0,0,0,0,0,0,0,0,0,0],"split_type":[0,0,0,0,0,0,0,0,0,0,0,0,0,0,0,0,0,0,0,0,0,0,0,0,0,0,0,0,0,0,0,0,0,0,0,0,0,0,0,0,0,0,0,0,0,0,0,0,0,0,0,0,0,0,0,0,0,0,0,0,0,0,0],"sum_hessian":[2.5696E4,1.1794E4,1.3902E4,4.977E3,6.817E3,7.714E3,6.188E3,2E3,2.977E3,5.177E3,1.64E3,4.047E3,3.667E3,3.625E3,2.563E3,1.011E3,9.89E2,1.617E3,1.36E3,2.498E3,2.679E3,5.9E2,1.05E3,3.758E3,2.89E2,8.93E2,2.774E3,2.03E2,3.422E3,1.52E2,2.411E3,8.19E2,1.92E2,2.61E2,7.28E2,1.196E3,4.21E2,4.69E2,8.91E2,1.801E3,6.97E2,1.33E3,1.349E3,5.14E2,7.6E1,6.29E2,4.21E2,4.91E2,3.267E3,7.1E1,2.18E2,5.41E2,3.52E2,1.422E3,1.352E3,1.82E2,2.1E1,3.42E2,3.08E3,6.5E1,8.7E1,1.292E3,1.119E3],"tree_param":{"num_deleted":"0","num_feature":"53","num_nodes":"63","size_leaf_vector":"1"}},{"base_weights":[1.6546022E-4,1.308665E-1,-1.0036966E-1,1.0841602E-1,1.5655014E-1,-2.0200752E-1,-7.274326E-2,1.0069628E-1,1.4018923E-1,1.503241E-1,2.1823306E-1,-1.3991112E-1,-2.385081E-1,-9.697795E-2,-4.3978456E-2,1.0943579E-1,5.872855E-2,1.9232924E-1,1.1225638E-1,1.5776171E-1,8.9908354E-2,9.523309E-3,1.1665837E-2,-2.2863956E-1,-7.917522E-2,-1.3428505E-2,-2.0866157E-1,-4.9781483E-2,-1.7613983E-1,-1.1884015E-2,-7.131985E-2,5.0343694E-3,7.047664E-3,1.6330102E-3,4.290275E-3,8.220446E-3,1.2347603E-2,3.2205668E-3,6.9067404E-3,7.2635054E-3,1.0295183E-2,3.214129E-3,7.061635E-3,-1.2851109E-2,-9.466087E-3,-1.8841139E-3,-5.54732E-3,-9.109802E-3,-1.2108971E-2,-4.1676965E-3,-8.693578E-4,-1.09366365E-2,-6.972331E-3,5.605733E-4,-1.4980917E-3,-6.6028084E-3,-1.7740078E-3],"categories":[],"categories_nodes":[],"categories_segments":[],"categories_sizes":[],"default_left":[0,0,0,0,0,0,0,0,0,0,0,0,0,0,0,0,0,0,0,0,0,0,0,0,0,0,0,0,0,0,0,0,0,0,0,0,0,0,0,0,0,0,0,0,0,0,0,0,0,0,0,0,0,0,0,0,0],"id":14,"left_children":[1,3,5,7,9,11,13,15,17,19,21,23,25,27,29,31,33,35,37,39,41,-1,-1,43,45,-1,47,49,51,53,55,-1,-1,-1,-1,-1,-1,-1,-1,-1,-1,-1,-1,-1,-1,-1,-1,-1,-1,-1,-1,-1,-1,-1,-1,-1,-1],"loss_changes":[3.3813278E2,6.434143E0,4.082605E1,1.450943E0,1.9703445E0,7.011078E0,7.9692345E0,1.7574043E0,1.6751366E0,2.1161804E0,1.5492249E-1,6.1954174E0,1.6989746E0,2.3181583E1,4.590268E0,1.0829277E0,5.8376026E-1,5.7705975E-1,9.3333817E-1,2.507866E0,6.7746925E-1,0E0,0E0,4.736004E-1,9.0015936E-1,0E0,8.3052444E-1,4.229148E0,3.5922318E0,1.0057143E0,6.1446924E0,0E0,0E0,0E0,0E0,0E0,0E0,0E0,0E0,0E0,0E0,0E0,0E0,0E0,0E0,0E0,0E0,0E0,0E0,0E0,0E0,0E0,0E0,0E0,0E0,0E0,0E0],"parents":[2147483647,0,0,1,1,2,2,3,3,4,4,5,5,6,6,7,7,8,8,9,9,10,10,11,11,12,12,13,13,14,14,15,15,16,16,17,17,18,18,19,19,20,20,23,23,24,24,26,26,27,27,28,28,29,29,30,30],"right_children":[2,4,6,8,10,12,14,16,18,20,22,24,26,28,30,32,34,36,38,40,42,-1,-1,44,46,-1,48,50,52,54,56,-1,-1,-1,-1,-1,-1,-1,-1,-1,-1,-1,-1,-1,-1,-1,-1,-1,-1,-1,-1,-1,-1,-1,-1,-1,-1],"split_conditions":[1E0,7.579E-1,1.498E1,1.7184E2,9.2038E2,3.81E1,5.79E1,1.988E2,2.514E2,5.779E2,1.00589E3,4.47E0,5.94E0,1.119E2,1.996E2,9.787E1,1.4901E2,1.974E2,2.7645E2,1.7437E2,8.3308E2,9.523309E-3,1.1665837E-2,1.56E0,3.11E1,-1.3428505E-2,7.47E1,2.989E1,3.955E1,1.633E2,9.678E1,5.0343694E-3,7.047664E-3,1.6330102E-3,4.290275E-3,8.220446E-3,1.2347603E-2,3.2205668E-3,6.9067404E-3,7.2635054E-3,1.0295183E-2,3.214129E-3,7.061635E-3,-1.2851109E-2,-9.466087E-3,-1.8841139E-3,-5.54732E-3,-9.109802E-3,-1.2108971E-2,-4.1676965E-3,-8.693578E-4,-1.09366365E-2,-6.972331E-3,5.605733E-4,-1.4980917E-3,-6.6028084E-3,-1.7740078E-3],"split_indices":[19,16,22,22,22,3,22,3,3,3,22,22,22,23,23,22,22,22,22,22,22,0,0,22,3,0,3,22,22,3,22,0,0,0,0,0,0,0,0,0,0,0,0,0,0,0,0,0,0,0,0,0,0,0,0,0,0],"split_type":[0,0,0,0,0,0,0,0,0,0,0,0,0,0,0,0,0,0,0,0,0,0,0,0,0,0,0,0,0,0,0,0,0,0,0,0,0,0,0,0,0,0,0,0,0,0,0,0,0,0,0,0,0,0,0,0,0],"sum_hessian":[2.5731E4,1.1187E4,1.4544E4,5.972E3,5.215E3,3.107E3,1.1437E4,4.808E3,1.164E3,4.74E3,4.75E2,1.152E3,1.955E3,6.206E3,5.231E3,3.978E3,8.3E2,4.04E2,7.6E2,4.219E3,5.21E2,1.72E2,3.03E2,4.67E2,6.85E2,9.7E2,9.85E2,3.889E3,2.317E3,2.407E3,2.824E3,3.117E3,8.61E2,4.24E2,4.06E2,2.7E2,1.34E2,2.68E2,4.92E2,3.353E3,8.66E2,3.49E2,1.72E2,2.68E2,1.99E2,2.98E2,3.87E2,5.54E2,4.31E2,1.909E3,1.98E3,1.07E3,1.247E3,1.057E3,1.35E3,1.047E3,1.777E3],"tree_param":{"num_deleted":"0","num_feature":"53","num_nodes":"57","size_leaf_vector":"1"}},{"base_weights":[2.0122419E-4,1.2415165E-1,-9.463751E-2,1.03881046E-1,1.5065883E-1,-1.9919112E-1,-7.008551E-2,1.0073725E-1,2.129305E-1,1.4407578E-1,2.0728774E-1,-2.114388E-1,-5.058608E-2,-1.1260767E-1,-4.906079E-2,9.631689E-2,1.3601713E-1,1.7116736E-1,1.3045333E-2,1.5229905E-1,7.450016E-2,9.531836E-3,1.1468713E-2,-2.499696E-1,-1.8121287E-1,-1.12064056E-1,-1.8834304E-2,-1.4482063E-1,-7.89175E-2,-5.912559E-2,-1.803959E-2,4.624753E-3,7.0451605E-3,5.880514E-3,1.0019664E-2,5.577724E-3,9.687069E-3,7.1100234E-3,1.1675624E-2,1.9334308E-4,5.725223E-3,-1.2898794E-2,-1.1295839E-2,-5.812504E-3,-1.04803555E-2,-9.85957E-3,-4.5876033E-3,6.685454E-4,-5.65688E-3,-4.779187E-3,-9.732894E-3,-2.189988E-3,-5.2785887E-3,-2.0732663E-3,-6.725614E-3,3.0556208E-4,-2.0561074E-3],"categories":[],"categories_nodes":[],"categories_segments":[],"categories_sizes":[],"default_left":[0,0,0,0,0,0,0,0,0,0,0,0,0,0,0,0,0,0,0,0,0,0,0,0,0,0,0,0,0,0,0,0,0,0,0,0,0,0,0,0,0,0,0,0,0,0,0,0,0,0,0,0,0,0,0,0,0],"id":15,"left_children":[1,3,5,7,9,11,13,15,17,19,21,23,25,27,29,31,33,35,-1,37,39,-1,-1,41,43,45,47,49,51,53,55,-1,-1,-1,-1,-1,-1,-1,-1,-1,-1,-1,-1,-1,-1,-1,-1,-1,-1,-1,-1,-1,-1,-1,-1,-1,-1],"loss_changes":[3.0197018E2,5.9673615E0,3.7343597E1,2.14283E0,1.7681046E0,5.0254364E0,1.0532246E1,9.441223E-1,3.079815E-1,2.4625854E0,1.4015388E-1,2.931488E0,4.1172063E-1,4.2199974E0,2.4620552E0,9.170151E-1,7.833891E-1,1.089201E-1,0E0,3.1374512E0,1.296524E0,0E0,0E0,1.5759277E-1,2.6244354E0,1.0640299E-1,4.2973787E-1,4.8694267E0,1.7813368E0,7.923935E0,1.0783846E0,0E0,0E0,0E0,0E0,0E0,0E0,0E0,0E0,0E0,0E0,0E0,0E0,0E0,0E0,0E0,0E0,0E0,0E0,0E0,0E0,0E0,0E0,0E0,0E0,0E0,0E0],"parents":[2147483647,0,0,1,1,2,2,3,3,4,4,5,5,6,6,7,7,8,8,9,9,10,10,11,11,12,12,13,13,14,14,15,15,16,16,17,17,19,19,20,20,23,23,24,24,25,25,26,26,27,27,28,28,29,29,30,30],"right_children":[2,4,6,8,10,12,14,16,18,20,22,24,26,28,30,32,34,36,-1,38,40,-1,-1,42,44,46,48,50,52,54,56,-1,-1,-1,-1,-1,-1,-1,-1,-1,-1,-1,-1,-1,-1,-1,-1,-1,-1,-1,-1,-1,-1,-1,-1,-1,-1],"split_conditions":[1E0,7.6436806E-1,1.337E1,4.6727E2,9.2038E2,5.452064E-1,3.3495006E-1,1E0,5.3014E2,2.5287E2,1.03388E3,3.04E0,7.25E0,4.261E1,9.452E1,8.53E1,2.0122E2,2.6E1,1.3045333E-2,1.868E2,7.7566E2,9.531836E-3,1.1468713E-2,8.4E-1,3.3E1,5.19E0,3.28E1,9.64E1,1.898E2,1.633E2,2.151E2,4.624753E-3,7.0451605E-3,5.880514E-3,1.0019664E-2,5.577724E-3,9.687069E-3,7.1100234E-3,1.1675624E-2,1.9334308E-4,5.725223E-3,-1.2898794E-2,-1.1295839E-2,-5.812504E-3,-1.04803555E-2,-9.85957E-3,-4.5876033E-3,6.685454E-4,-5.65688E-3,-4.779187E-3,-9.732894E-3,-2.189988E-3,-5.2785887E-3,-2.0732663E-3,-6.725614E-3,3.0556208E-4,-2.0561074E-3],"split_indices":[19,28,22,22,22,28,28,11,22,22,22,22,22,22,22,6,22,4,0,22,22,0,0,22,23,22,23,23,23,23,23,0,0,0,0,0,0,0,0,0,0,0,0,0,0,0,0,0,0,0,0,0,0,0,0,0,0],"split_type":[0,0,0,0,0,0,0,0,0,0,0,0,0,0,0,0,0,0,0,0,0,0,0,0,0,0,0,0,0,0,0,0,0,0,0,0,0,0,0,0,0,0,0,0,0,0,0,0,0,0,0,0,0,0,0,0,0],"sum_hessian":[2.5686E4,1.1134E4,1.4552E4,6.312E3,4.822E3,2.766E3,1.1786E4,6.137E3,1.75E2,4.323E3,4.99E2,2.555E3,2.11E2,3.898E3,7.888E3,5.457E3,6.8E2,9.6E1,7.9E1,3.865E3,4.58E2,2.9E2,2.09E2,1.12E3,1.435E3,7.1E1,1.4E2,1.991E3,1.907E3,5.955E3,1.933E3,5.029E3,4.28E2,5.31E2,1.49E2,2.8E1,6.8E1,3.44E3,4.25E2,1.66E2,2.92E2,8.33E2,2.87E2,4.38E2,9.97E2,1.2E1,5.9E1,1.05E2,3.5E1,1.003E3,9.88E2,8.24E2,1.083E3,4.826E3,1.129E3,9.45E2,9.88E2],"tree_param":{"num_deleted":"0","num_feature":"53","num_nodes":"57","size_leaf_vector":"1"}},{"base_weights":[-7.4468093E-4,1.17565684E-1,-9.0422E-2,9.7742066E-2,1.4344062E-1,-1.6150792E-1,-5.787445E-2,9.482105E-2,2.0408008E-1,1.3782917E-1,2.045725E-1,-9.788535E-2,-2.0064993E-1,-2.1253103E-2,-7.654571E-2,9.6618846E-2,2.415775E-2,1.6305491E-1,1.2332837E-2,1.5189251E-1,1.1010182E-1,9.3711605E-3,1.0938121E-2,-2.0379898E-1,-4.856606E-2,-1.676342E-1,-2.31875E-1,-3.8516898E-2,7.8007584E-3,-1.4396921E-1,-4.079037E-2,4.656056E-3,8.557716E-3,-2.3680541E-3,2.3689037E-3,9.388503E-3,5.4506655E-3,6.8548867E-3,1.0940625E-2,1.109324E-3,6.6676224E-3,-1.204853E-2,-8.918532E-3,-3.877483E-3,-1.1753298E-4,-1.1341455E-2,-7.0008123E-3,-1.2314624E-2,-1.0970316E-2,1.6581833E-4,-4.3859137E-3,2.0518233E-3,-5.4071494E-4,-8.926689E-3,-5.7746666E-3,-7.9264346E-4,-3.2728936E-3],"categories":[],"categories_nodes":[],"categories_segments":[],"categories_sizes":[],"default_left":[0,0,0,0,0,0,0,0,0,0,0,0,0,0,0,0,0,0,0,0,0,0,0,0,0,0,0,0,0,0,0,0,0,0,0,0,0,0,0,0,0,0,0,0,0,0,0,0,0,0,0,0,0,0,0,0,0],"id":16,"left_children":[1,3,5,7,9,11,13,15,17,19,21,23,25,27,29,31,33,35,-1,37,39,-1,-1,41,43,45,47,49,51,53,55,-1,-1,-1,-1,-1,-1,-1,-1,-1,-1,-1,-1,-1,-1,-1,-1,-1,-1,-1,-1,-1,-1,-1,-1,-1,-1],"loss_changes":[2.7274503E2,5.671356E0,3.38235E1,1.9310036E0,1.6204529E0,1.1415886E1,6.857918E0,7.742462E-1,2.51482E-1,1.7009583E0,5.6825638E-2,9.136599E0,2.8909988E0,1.700155E0,1.601115E1,1.5381241E0,2.563295E-1,9.7067595E-2,0E0,2.8609924E0,3.0345554E0,0E0,0E0,4.825554E-1,1.6018465E0,2.2324982E0,2.0806122E-1,4.3761387E0,7.824611E-1,2.2451363E0,2.6705408E0,0E0,0E0,0E0,0E0,0E0,0E0,0E0,0E0,0E0,0E0,0E0,0E0,0E0,0E0,0E0,0E0,0E0,0E0,0E0,0E0,0E0,0E0,0E0,0E0,0E0,0E0],"parents":[2147483647,0,0,1,1,2,2,3,3,4,4,5,5,6,6,7,7,8,8,9,9,10,10,11,11,12,12,13,13,14,14,15,15,16,16,17,17,19,19,20,20,23,23,24,24,25,25,26,26,27,27,28,28,29,29,30,30],"right_children":[2,4,6,8,10,12,14,16,18,20,22,24,26,28,30,32,34,36,-1,38,40,-1,-1,42,44,46,48,50,52,54,56,-1,-1,-1,-1,-1,-1,-1,-1,-1,-1,-1,-1,-1,-1,-1,-1,-1,-1,-1,-1,-1,-1,-1,-1,-1,-1],"split_conditions":[1E0,7.6436806E-1,2.388E1,4.6727E2,9.5664E2,5.31E1,1.519E2,5.779E2,5.3014E2,1.869E2,1.03388E3,5.19E0,8.57E1,4.406E1,6.346E1,2.9786E2,3.8862E2,6.202E2,1.2332837E-2,1.443E2,1.6496E2,9.3711605E-3,1.0938121E-2,8.4E-1,1.498E1,8.36E0,7.79E0,8.57E1,5.956351E-1,4.406E1,2.226E2,4.656056E-3,8.557716E-3,-2.3680541E-3,2.3689037E-3,9.388503E-3,5.4506655E-3,6.8548867E-3,1.0940625E-2,1.109324E-3,6.6676224E-3,-1.204853E-2,-8.918532E-3,-3.877483E-3,-1.1753298E-4,-1.1341455E-2,-7.0008123E-3,-1.2314624E-2,-1.0970316E-2,1.6581833E-4,-4.3859137E-3,2.0518233E-3,-5.4071494E-4,-8.926689E-3,-5.7746666E-3,-7.9264346E-4,-3.2728936E-3],"split_indices":[19,28,22,22,22,3,24,3,22,3,22,22,24,22,22,22,22,3,0,22,22,0,0,22,22,22,22,24,28,22,3,0,0,0,0,0,0,0,0,0,0,0,0,0,0,0,0,0,0,0,0,0,0,0,0,0,0],"split_type":[0,0,0,0,0,0,0,0,0,0,0,0,0,0,0,0,0,0,0,0,0,0,0,0,0,0,0,0,0,0,0,0,0,0,0,0,0,0,0,0,0,0,0,0,0,0,0,0,0,0,0,0,0,0,0,0,0],"sum_hessian":[2.5705E4,1.1083E4,1.4622E4,6.278E3,4.805E3,4.591E3,1.0031E4,6.112E3,1.66E2,4.404E3,4.01E2,1.75E3,2.841E3,3.388E3,6.643E3,5.96E3,1.52E2,8.7E1,7.9E1,2.919E3,1.485E3,1.88E2,2.13E2,5.55E2,1.195E3,1.384E3,1.457E3,2.125E3,1.263E3,2.301E3,4.342E3,5.695E3,2.65E2,3.7E1,1.15E2,5.8E1,2.9E1,2.393E3,5.26E2,3.11E2,1.174E3,2.22E2,3.33E2,7.34E2,4.61E2,4.38E2,9.46E2,6.67E2,7.9E2,1.149E3,9.76E2,4.53E2,8.1E2,1.037E3,1.264E3,2.16E3,2.182E3],"tree_param":{"num_deleted":"0","num_feature":"53","num_nodes":"57","size_leaf_vector":"1"}},{"base_weights":[4.362373E-4,1.1230596E-1,-8.629347E-2,8.600927E-2,1.2863977E-1,-1.7492855E-1,-6.238717E-2,7.758143E-2,1.5716767E-1,3.546805E-2,1.3177742E-1,-1.2060494E-1,-2.0613612E-1,-9.79953E-2,-4.4518378E-2,8.4375836E-2,4.4587497E-2,1.892432E-1,7.857061E-2,8.604852E-2,1.0277239E-2,1.2707542E-1,1.878445E-1,-1.9119039E-1,-6.3988306E-2,-2.2887358E-1,-1.7733008E-1,-1.24104455E-1,-6.986261E-2,-6.1489627E-2,-2.8751103E-2,3.293472E-3,5.1531545E-3,1.0209667E-3,3.5222385E-3,8.259844E-3,1.1962624E-2,2.7642844E-3,6.4735645E-3,7.333546E-4,6.536551E-3,1.2724444E-3,-1.2079166E-3,6.6222004E-3,3.2426813E-3,8.251024E-3,1.0052663E-2,-1.104619E-2,-7.915324E-3,-8.6122594E-4,-4.753822E-3,-1.1721399E-2,-1.0747905E-2,-7.961499E-3,-1.0977724E-2,-3.767717E-3,-8.497043E-3,-1.8949524E-3,-4.836718E-3,-1.6265352E-3,-8.112687E-3,6.153938E-4,-2.2173724E-3],"categories":[],"categories_nodes":[],"categories_segments":[],"categories_sizes":[],"default_left":[0,0,0,0,0,0,0,0,0,0,0,0,0,0,0,0,0,0,0,0,0,0,0,0,0,0,0,0,0,0,0,0,0,0,0,0,0,0,0,0,0,0,0,0,0,0,0,0,0,0,0,0,0,0,0,0,0,0,0,0,0,0,0],"id":17,"left_children":[1,3,5,7,9,11,13,15,17,19,21,23,25,27,29,31,33,35,37,39,41,43,45,47,49,51,53,55,57,59,61,-1,-1,-1,-1,-1,-1,-1,-1,-1,-1,-1,-1,-1,-1,-1,-1,-1,-1,-1,-1,-1,-1,-1,-1,-1,-1,-1,-1,-1,-1,-1,-1],"loss_changes":[2.4841127E2,4.791443E0,3.0548393E1,2.5587711E0,2.0110168E0,5.1678696E0,7.223713E0,8.559456E-1,1.1271639E0,2.8707653E-1,1.7345276E0,4.4636345E0,1.2326813E0,2.778839E0,2.0228205E0,1.092617E0,4.0913582E-1,3.4649086E-1,1.504761E-1,2.3729509E-1,8.002634E-2,2.048111E0,1.217823E-1,4.5194626E-1,9.040787E-1,3.3317566E-2,6.238365E-1,4.382513E0,1.5672913E0,1.0625069E1,2.5133576E0,0E0,0E0,0E0,0E0,0E0,0E0,0E0,0E0,0E0,0E0,0E0,0E0,0E0,0E0,0E0,0E0,0E0,0E0,0E0,0E0,0E0,0E0,0E0,0E0,0E0,0E0,0E0,0E0,0E0,0E0,0E0,0E0],"parents":[2147483647,0,0,1,1,2,2,3,3,4,4,5,5,6,6,7,7,8,8,9,9,10,10,11,11,12,12,13,13,14,14,15,15,16,16,17,17,18,18,19,19,20,20,21,21,22,22,23,23,24,24,25,25,26,26,27,27,28,28,29,29,30,30],"right_children":[2,4,6,8,10,12,14,16,18,20,22,24,26,28,30,32,34,36,38,40,42,44,46,48,50,52,54,56,58,60,62,-1,-1,-1,-1,-1,-1,-1,-1,-1,-1,-1,-1,-1,-1,-1,-1,-1,-1,-1,-1,-1,-1,-1,-1,-1,-1,-1,-1,-1,-1,-1,-1],"split_conditions":[1E0,6.817548E-1,1.498E1,1.7846E2,1.164E1,3.81E1,3.3495006E-1,2.108E2,2.514E2,1.5E1,9.2038E2,5.19E0,7.25E0,4.406E1,5.746E1,8.087E1,1.5304E2,2.0625E2,2.332E2,9.7E0,1.67E1,1.0321E3,1.00589E3,1.56E0,3.11E1,3.04E0,9.52E1,9.52E1,2.155E2,1.119E2,1.758E2,3.293472E-3,5.1531545E-3,1.0209667E-3,3.5222385E-3,8.259844E-3,1.1962624E-2,2.7642844E-3,6.4735645E-3,7.333546E-4,6.536551E-3,1.2724444E-3,-1.2079166E-3,6.6222004E-3,3.2426813E-3,8.251024E-3,1.0052663E-2,-1.104619E-2,-7.915324E-3,-8.6122594E-4,-4.753822E-3,-1.1721399E-2,-1.0747905E-2,-7.961499E-3,-1.0977724E-2,-3.767717E-3,-8.497043E-3,-1.8949524E-3,-4.836718E-3,-1.6265352E-3,-8.112687E-3,6.153938E-4,-2.2173724E-3],"split_indices":[19,28,22,22,22,3,28,3,3,3,22,22,22,22,22,22,22,22,22,22,3,3,22,22,3,22,24,3,3,3,3,0,0,0,0,0,0,0,0,0,0,0,0,0,0,0,0,0,0,0,0,0,0,0,0,0,0,0,0,0,0,0,0],"split_type":[0,0,0,0,0,0,0,0,0,0,0,0,0,0,0,0,0,0,0,0,0,0,0,0,0,0,0,0,0,0,0,0,0,0,0,0,0,0,0,0,0,0,0,0,0,0,0,0,0,0,0,0,0,0,0,0,0,0,0,0,0,0,0],"sum_hessian":[2.5601E4,1.118E4,1.4421E4,4.286E3,6.894E3,3.062E3,1.1359E4,3.834E3,4.52E2,2.25E2,6.669E3,1.119E3,1.943E3,3.794E3,7.565E3,3.178E3,6.56E2,3.2E2,1.32E2,7.4E1,1.51E2,6.156E3,5.13E2,4.97E2,6.22E2,1.082E3,8.61E2,1.966E3,1.828E3,3.642E3,3.923E3,1.599E3,1.579E3,3.4E2,3.16E2,2.19E2,1.01E2,9.2E1,4E1,2.9E1,4.5E1,1.05E2,4.6E1,5.666E3,4.9E2,1.93E2,3.2E2,2.58E2,2.39E2,2.49E2,3.73E2,7.62E2,3.2E2,6.06E2,2.55E2,9.54E2,1.012E3,8.36E2,9.92E2,2.83E3,8.12E2,1.08E3,2.843E3],"tree_param":{"num_deleted":"0","num_feature":"53","num_nodes":"63","size_leaf_vector":"1"}},{"base_weights":[-2.2943114E-4,1.06119156E-1,-8.1245154E-2,8.819451E-2,1.2672862E-1,-1.3055778E-1,-5.1957786E-2,7.258722E-2,9.568783E-2,1.2234164E-1,1.677981E-1,-1.5073138E-1,-1.1209201E-1,-6.8097174E-2,-3.4926586E-2,9.403116E-2,6.873297E-2,1.2817092E-1,9.259342E-2,1.18396245E-1,1.794908E-1,1.4978996E-1,1.9005603E-1,-1.4329036E-1,-1.807234E-1,-1.1625936E-1,-8.253544E-2,-1.2252702E-1,-6.596107E-2,-4.3074705E-2,-2.4547921E-2,4.9566464E-3,2.5415719E-3,3.231879E-3,4.5132325E-3,4.4023534E-3,6.8978667E-3,4.5043756E-3,6.922809E-3,5.370134E-3,6.635645E-3,7.114497E-3,9.784828E-3,7.6495814E-3,3.2768415E-3,9.537159E-3,1.0063216E-3,-7.3067546E-3,-4.7871964E-3,-9.074709E-3,-3.2979106E-3,-5.9375367E-3,-3.4982287E-3,-4.3665986E-3,-1.7270452E-3,-6.620647E-3,-3.4836119E-3,-2.6124562E-3,-3.626593E-3,-1.7431382E-3,-2.7740642E-3,-5.2205776E-4,-1.3710764E-3],"categories":[],"categories_nodes":[],"categories_segments":[],"categories_sizes":[],"default_left":[0,0,0,0,0,0,0,0,0,0,0,0,0,0,0,0,0,0,0,0,0,0,0,0,0,0,0,0,0,0,0,0,0,0,0,0,0,0,0,0,0,0,0,0,0,0,0,0,0,0,0,0,0,0,0,0,0,0,0,0,0,0,0],"id":18,"left_children":[1,3,5,7,9,11,13,15,17,19,21,23,25,27,29,31,33,35,37,39,41,43,45,47,49,51,53,55,57,59,61,-1,-1,-1,-1,-1,-1,-1,-1,-1,-1,-1,-1,-1,-1,-1,-1,-1,-1,-1,-1,-1,-1,-1,-1,-1,-1,-1,-1,-1,-1,-1,-1],"loss_changes":[2.2233351E2,4.110771E0,2.114695E1,6.913643E-1,9.141998E-1,2.0159607E0,2.523981E0,1.5396118E-1,3.9331436E-1,1.0364609E0,1.7114162E-1,5.554657E-1,3.4181595E-1,5.404682E-1,3.772936E-1,5.9536695E-2,1.39575E-1,1.24501705E-1,4.109192E-1,6.768532E-1,1.5361786E-1,6.55036E-2,2.173376E-2,2.6896286E-1,3.3496857E-2,2.7980423E-1,7.893729E-2,8.32603E-2,4.0543556E-1,2.5328016E-1,7.957208E-2,0E0,0E0,0E0,0E0,0E0,0E0,0E0,0E0,0E0,0E0,0E0,0E0,0E0,0E0,0E0,0E0,0E0,0E0,0E0,0E0,0E0,0E0,0E0,0E0,0E0,0E0,0E0,0E0,0E0,0E0,0E0,0E0],"parents":[2147483647,0,0,1,1,2,2,3,3,4,4,5,5,6,6,7,7,8,8,9,9,10,10,11,11,12,12,13,13,14,14,15,15,16,16,17,17,18,18,19,19,20,20,21,21,22,22,23,23,24,24,25,25,26,26,27,27,28,28,29,29,30,30],"right_children":[2,4,6,8,10,12,14,16,18,20,22,24,26,28,30,32,34,36,38,40,42,44,46,48,50,52,54,56,58,60,62,-1,-1,-1,-1,-1,-1,-1,-1,-1,-1,-1,-1,-1,-1,-1,-1,-1,-1,-1,-1,-1,-1,-1,-1,-1,-1,-1,-1,-1,-1,-1,-1],"split_conditions":[1E0,7.579E-1,3.208E-1,6.069E-1,1E0,2.063E-1,4.796E-1,5.79E1,1.2E1,1E0,1E0,1E0,1E0,1E0,6.164E-1,1.0227E3,1E0,1E0,8.63E1,8.539E-1,2E0,2.18E1,9.37E1,1E0,1.041E2,8.49E1,8.05E1,7.23E1,1.071E2,1.519E2,1E0,4.9566464E-3,2.5415719E-3,3.231879E-3,4.5132325E-3,4.4023534E-3,6.8978667E-3,4.5043756E-3,6.922809E-3,5.370134E-3,6.635645E-3,7.114497E-3,9.784828E-3,7.6495814E-3,3.2768415E-3,9.537159E-3,1.0063216E-3,-7.3067546E-3,-4.7871964E-3,-9.074709E-3,-3.2979106E-3,-5.9375367E-3,-3.4982287E-3,-4.3665986E-3,-1.7270452E-3,-6.620647E-3,-3.4836119E-3,-2.6124562E-3,-3.626593E-3,-1.7431382E-3,-2.7740642E-3,-5.2205776E-4,-1.3710764E-3],"split_indices":[19,16,16,16,11,16,16,24,4,12,40,51,38,26,16,9,11,25,6,16,26,10,7,11,5,6,7,4,3,24,25,0,0,0,0,0,0,0,0,0,0,0,0,0,0,0,0,0,0,0,0,0,0,0,0,0,0,0,0,0,0,0,0],"split_type":[0,0,0,0,0,0,0,0,0,0,0,0,0,0,0,0,0,0,0,0,0,0,0,0,0,0,0,0,0,0,0,0,0,0,0,0,0,0,0,0,0,0,0,0,0,0,0,0,0,0,0,0,0,0,0,0,0,0,0,0,0,0,0],"sum_hessian":[2.5803E4,1.1157E4,1.4646E4,5.97E3,5.187E3,5.456E3,9.19E3,1.94E3,4.03E3,4.69E3,4.97E2,2.604E3,2.852E3,4.717E3,4.473E3,2.92E2,1.648E3,3.47E2,3.683E3,4.39E3,3E2,2.79E2,2.18E2,2.091E3,5.13E2,2.497E3,3.55E2,1.76E2,4.541E3,2.504E3,1.969E3,2.6E2,3.2E1,1.388E3,2.6E2,7E1,2.77E2,3.495E3,1.88E2,2.488E3,1.902E3,9.4E1,2.06E2,2.68E2,1.1E1,2.17E2,1E0,1.971E3,1.2E2,5.09E2,4E0,2.368E3,1.29E2,3.22E2,3.3E1,1.47E2,2.9E1,1.474E3,3.067E3,1.509E3,9.95E2,3.34E2,1.635E3],"tree_param":{"num_deleted":"0","num_feature":"53","num_nodes":"63","size_leaf_vector":"1"}},{"base_weights":[-5.0040137E-4,1.00507185E-1,-7.755063E-2,8.279987E-2,1.2329679E-1,-1.3978155E-1,-4.7756534E-2,8.0355756E-2,1.7427473E-1,1.17549606E-1,1.7185089E-1,-8.071405E-2,-1.7174041E-1,-1.3236169E-2,-6.46858E-2,8.28578E-2,3.305974E-2,1.4150083E-1,2.163975E-1,1.2494014E-1,5.5131488E-2,1.5656431E-1,9.595535E-3,-1.6605754E-1,-3.390682E-2,-1.4100575E-1,-2.0262454E-1,-3.0636845E-2,1.0200776E-2,-1.18469305E-1,-2.9513314E-2,4.0068734E-3,1.087993E-2,6.320272E-4,4.0064743E-3,5.670998E-3,9.385972E-3,1.0892383E-2,2.9446527E-3,5.802235E-3,1.0045048E-2,-6.000278E-4,4.786605E-3,7.469079E-3,8.438054E-3,-9.687808E-3,-6.0152966E-3,-3.1303354E-3,-3.5065503E-5,-9.627628E-3,-5.6124623E-3,-1.0453134E-2,-9.053587E-3,6.0357666E-4,-4.176175E-3,1.8547912E-3,-3.6409716E-4,-4.7021946E-3,-7.6897293E-3,-2.2307965E-4,-2.6025895E-3],"categories":[],"categories_nodes":[],"categories_segments":[],"categories_sizes":[],"default_left":[0,0,0,0,0,0,0,0,0,0,0,0,0,0,0,0,0,0,0,0,0,0,0,0,0,0,0,0,0,0,0,0,0,0,0,0,0,0,0,0,0,0,0,0,0,0,0,0,0,0,0,0,0,0,0,0,0,0,0,0,0],"id":19,"left_children":[1,3,5,7,9,11,13,15,17,19,21,23,25,27,29,31,33,35,37,39,41,43,-1,45,47,49,51,53,55,57,59,-1,-1,-1,-1,-1,-1,-1,-1,-1,-1,-1,-1,-1,-1,-1,-1,-1,-1,-1,-1,-1,-1,-1,-1,-1,-1,-1,-1,-1,-1],"loss_changes":[1.9990535E2,4.475174E0,2.700962E1,1.3851242E0,1.3354187E0,8.890564E0,5.7584496E0,7.187576E-1,1.9302511E-1,1.9984016E0,1.2695694E-1,6.617568E0,2.8760223E0,1.3232763E0,1.2504421E1,2.104828E0,2.9501405E-1,1.0070765E-1,2.9306412E-3,2.602478E0,1.2603768E0,7.209778E-4,0E0,7.205696E-1,1.0215662E0,2.256691E0,1.736145E-1,4.206714E0,6.505547E-1,2.2409859E0,2.2577138E0,0E0,0E0,0E0,0E0,0E0,0E0,0E0,0E0,0E0,0E0,0E0,0E0,0E0,0E0,0E0,0E0,0E0,0E0,0E0,0E0,0E0,0E0,0E0,0E0,0E0,0E0,0E0,0E0,0E0,0E0],"parents":[2147483647,0,0,1,1,2,2,3,3,4,4,5,5,6,6,7,7,8,8,9,9,10,10,11,11,12,12,13,13,14,14,15,15,16,16,17,17,18,18,19,19,20,20,21,21,23,23,24,24,25,25,26,26,27,27,28,28,29,29,30,30],"right_children":[2,4,6,8,10,12,14,16,18,20,22,24,26,28,30,32,34,36,38,40,42,44,-1,46,48,50,52,54,56,58,60,-1,-1,-1,-1,-1,-1,-1,-1,-1,-1,-1,-1,-1,-1,-1,-1,-1,-1,-1,-1,-1,-1,-1,-1,-1,-1,-1,-1,-1,-1],"split_conditions":[1E0,7.6436806E-1,2.48E1,4.6727E2,9.2038E2,5.65E1,1.519E2,1E0,5.3014E2,2.5287E2,1.03388E3,6.58E0,8.57E1,4.261E1,6.842E1,3.2E2,4.2514E2,6.52E1,3.61E2,1.868E2,7.7566E2,1.00589E3,9.595535E-3,3.04E0,1.464E1,9.29E0,1.911E1,8.57E1,5.956351E-1,1.898E2,2.39E2,4.0068734E-3,1.087993E-2,6.320272E-4,4.0064743E-3,5.670998E-3,9.385972E-3,1.0892383E-2,2.9446527E-3,5.802235E-3,1.0045048E-2,-6.000278E-4,4.786605E-3,7.469079E-3,8.438054E-3,-9.687808E-3,-6.0152966E-3,-3.1303354E-3,-3.5065503E-5,-9.627628E-3,-5.6124623E-3,-1.0453134E-2,-9.053587E-3,6.0357666E-4,-4.176175E-3,1.8547912E-3,-3.6409716E-4,-4.7021946E-3,-7.6897293E-3,-2.2307965E-4,-2.6025895E-3],"split_indices":[19,28,22,22,22,24,24,37,22,22,22,22,24,22,22,22,22,5,1,22,22,22,0,22,22,22,22,24,28,23,24,0,0,0,0,0,0,0,0,0,0,0,0,0,0,0,0,0,0,0,0,0,0,0,0,0,0,0,0,0,0],"split_type":[0,0,0,0,0,0,0,0,0,0,0,0,0,0,0,0,0,0,0,0,0,0,0,0,0,0,0,0,0,0,0,0,0,0,0,0,0,0,0,0,0,0,0,0,0,0,0,0,0,0,0,0,0,0,0,0,0,0,0,0,0],"sum_hessian":[2.5684E4,1.1114E4,1.457E4,6.257E3,4.857E3,4.716E3,9.854E3,6.096E3,1.61E2,4.346E3,5.11E2,1.657E3,3.059E3,3.243E3,6.611E3,5.789E3,3.07E2,9.3E1,6.8E1,3.885E3,4.61E2,2.95E2,2.16E2,5.86E2,1.071E3,1.536E3,1.523E3,1.861E3,1.382E3,2.613E3,3.998E3,5.676E3,1.13E2,2.15E2,9.2E1,6E1,3.3E1,6.7E1,1E0,3.48E3,4.05E2,1.74E2,2.87E2,1.94E2,1.01E2,3.63E2,2.23E2,5.74E2,4.97E2,5.48E2,9.88E2,1.166E3,3.57E2,1.03E3,8.31E2,5.44E2,8.38E2,1.547E3,1.066E3,1.894E3,2.104E3],"tree_param":{"num_deleted":"0","num_feature":"53","num_nodes":"61","size_leaf_vector":"1"}},{"base_weights":[1.9633237E-4,9.594703E-2,-7.332382E-2,7.959605E-2,1.17293276E-1,-1.1898215E-1,-4.4933133E-2,6.400401E-2,8.7822884E-2,1.0406275E-1,1.2952997E-1,-1.4616099E-1,-1.0873031E-1,-5.9592105E-2,-2.6994891E-2,6.057688E-2,9.48851E-2,8.338172E-2,1.2793702E-1,1.0161874E-1,1.4966507E-1,1.2550682E-1,1.7374167E-1,-1.630923E-1,-1.3722749E-1,-6.657326E-2,-1.1178306E-1,-6.7443125E-2,-5.0346617E-2,-2.0823857E-2,-3.6729224E-2,4.0257936E-3,2.8147933E-3,2.2808292E-3,5.6130253E-3,3.980129E-3,7.0273164E-3,4.690613E-3,6.9558434E-3,4.9026576E-3,6.855223E-3,5.8366717E-3,8.559714E-3,6.074964E-3,8.985168E-3,7.6049613E-3,1.0079815E-2,-6.450806E-3,-8.298861E-3,-7.019214E-3,-5.056615E-3,-4.5440323E-3,-1.8973872E-3,-5.7321093E-3,-3.1682712E-3,-3.4749117E-3,-1.2286473E-3,-8.4055355E-4,-2.6463435E-3,-1.4484351E-3,-7.0356944E-4,-2.2734816E-3,-1.5284967E-3],"categories":[],"categories_nodes":[],"categories_segments":[],"categories_sizes":[],"default_left":[0,0,0,0,0,0,0,0,0,0,0,0,0,0,0,0,0,0,0,0,0,0,0,0,0,0,0,0,0,0,0,0,0,0,0,0,0,0,0,0,0,0,0,0,0,0,0,0,0,0,0,0,0,0,0,0,0,0,0,0,0,0,0],"id":20,"left_children":[1,3,5,7,9,11,13,15,17,19,21,23,25,27,29,31,33,35,37,39,41,43,45,47,49,51,53,55,57,59,61,-1,-1,-1,-1,-1,-1,-1,-1,-1,-1,-1,-1,-1,-1,-1,-1,-1,-1,-1,-1,-1,-1,-1,-1,-1,-1,-1,-1,-1,-1,-1,-1],"loss_changes":[1.8026317E2,3.8725967E0,1.8771149E1,8.026314E-1,7.6719666E-1,1.5313644E0,2.3473797E0,2.2496891E-1,7.236805E-1,2.4358559E-1,4.230461E-1,2.072258E-1,5.119705E-1,3.5336685E-1,2.4066019E-1,1.6319847E-1,1.7978811E-1,7.911587E-1,1.4298677E-1,2.658043E-1,6.2259197E-2,4.768448E-1,9.35235E-2,2.960682E-2,9.9746704E-2,1.8789947E-1,5.135193E-1,2.3220539E-1,1.9475508E-1,1.3499701E-1,8.248448E-2,0E0,0E0,0E0,0E0,0E0,0E0,0E0,0E0,0E0,0E0,0E0,0E0,0E0,0E0,0E0,0E0,0E0,0E0,0E0,0E0,0E0,0E0,0E0,0E0,0E0,0E0,0E0,0E0,0E0,0E0,0E0,0E0],"parents":[2147483647,0,0,1,1,2,2,3,3,4,4,5,5,6,6,7,7,8,8,9,9,10,10,11,11,12,12,13,13,14,14,15,15,16,16,17,17,18,18,19,19,20,20,21,21,22,22,23,23,24,24,25,25,26,26,27,27,28,28,29,29,30,30],"right_children":[2,4,6,8,10,12,14,16,18,20,22,24,26,28,30,32,34,36,38,40,42,44,46,48,50,52,54,56,58,60,62,-1,-1,-1,-1,-1,-1,-1,-1,-1,-1,-1,-1,-1,-1,-1,-1,-1,-1,-1,-1,-1,-1,-1,-1,-1,-1,-1,-1,-1,-1,-1,-1],"split_conditions":[1E0,7.6436806E-1,3.0543125E-1,6.3949364E-1,8.480655E-1,1.551054E-1,4.5044386E-1,8.53E1,1E0,8.58E1,1E0,1.74E1,1.99E1,1E0,3.12E1,1.27E1,4.0448564E-1,8.53E1,1.184E2,1E0,5.77E1,8.4E1,2E0,2.8E1,2.508E-1,1E0,1E0,8.4E1,2.09E1,5.956351E-1,5.452064E-1,4.0257936E-3,2.8147933E-3,2.2808292E-3,5.6130253E-3,3.980129E-3,7.0273164E-3,4.690613E-3,6.9558434E-3,4.9026576E-3,6.855223E-3,5.8366717E-3,8.559714E-3,6.074964E-3,8.985168E-3,7.6049613E-3,1.0079815E-2,-6.450806E-3,-8.298861E-3,-7.019214E-3,-5.056615E-3,-4.5440323E-3,-1.8973872E-3,-5.7321093E-3,-3.1682712E-3,-3.4749117E-3,-1.2286473E-3,-8.4055355E-4,-2.6463435E-3,-1.4484351E-3,-7.0356944E-4,-2.2734816E-3,-1.5284967E-3],"split_indices":[19,28,28,28,28,28,28,6,11,6,11,27,6,42,27,4,28,6,3,11,7,6,25,1,16,33,12,6,6,28,28,0,0,0,0,0,0,0,0,0,0,0,0,0,0,0,0,0,0,0,0,0,0,0,0,0,0,0,0,0,0,0,0],"split_type":[0,0,0,0,0,0,0,0,0,0,0,0,0,0,0,0,0,0,0,0,0,0,0,0,0,0,0,0,0,0,0,0,0,0,0,0,0,0,0,0,0,0,0,0,0,0,0,0,0,0,0,0,0,0,0,0,0,0,0,0,0,0,0],"sum_hessian":[2.5605E4,1.1121E4,1.4484E4,6.3E3,4.821E3,5.552E3,8.932E3,2.179E3,4.121E3,2.321E3,2.5E3,1.517E3,4.035E3,4.914E3,4.018E3,1.964E3,2.15E2,3.713E3,4.08E2,2.206E3,1.15E2,2.295E3,2.05E2,5.18E2,9.99E2,2.74E2,3.761E3,2.654E3,2.26E3,2.461E3,1.557E3,3.44E2,1.62E3,5.7E1,1.58E2,3.485E3,2.28E2,1.03E2,3.05E2,2.008E3,1.98E2,4.8E1,6.7E1,2.14E3,1.55E2,1.19E2,8.6E1,4.4E1,4.74E2,9.16E2,8.3E1,1.47E2,1.27E2,3.55E3,2.11E2,2.532E3,1.22E2,1.62E2,2.098E3,1.114E3,1.347E3,6.41E2,9.16E2],"tree_param":{"num_deleted":"0","num_feature":"53","num_nodes":"63","size_leaf_vector":"1"}},{"base_weights":[1.4179319E-4,9.096417E-2,-6.943026E-2,6.859539E-2,1.0499382E-1,-1.2517752E-1,-4.0349133E-2,6.0898613E-2,1.340024E-1,1.3974196E-2,1.0805408E-1,-9.43597E-2,-1.8118826E-1,-7.661401E-3,-5.5658415E-2,6.8635814E-2,3.407927E-2,1.6531536E-1,6.0798746E-2,5.8783323E-2,-7.203786E-3,1.9574909E-1,1.0487096E-1,-1.6414954E-1,-6.390123E-2,-1.903304E-1,-1.5466173E-1,2.1927455E-2,-1.9482585E-2,-1.04693495E-1,-2.3345249E-2,2.6068236E-3,4.732532E-3,5.361652E-4,3.0635877E-3,7.1337395E-3,1.0570872E-2,2.4698195E-3,6.671838E-3,8.322682E-6,5.5612805E-3,4.2337147E-4,-2.136377E-3,7.151741E-3,1.2083693E-2,5.014021E-3,7.894928E-3,-9.463719E-3,-6.818272E-3,-1.0208926E-3,-4.9801576E-3,-8.797483E-3,-9.778154E-3,-6.0825096E-3,-8.595997E-3,3.2001327E-7,2.4447131E-3,-3.6017355E-3,5.1083707E-4,-3.8912992E-3,-6.7876833E-3,2.3976863E-4,-2.1028013E-3],"categories":[],"categories_nodes":[],"categories_segments":[],"categories_sizes":[],"default_left":[0,0,0,0,0,0,0,0,0,0,0,0,0,0,0,0,0,0,0,0,0,0,0,0,0,0,0,0,0,0,0,0,0,0,0,0,0,0,0,0,0,0,0,0,0,0,0,0,0,0,0,0,0,0,0,0,0,0,0,0,0,0,0],"id":21,"left_children":[1,3,5,7,9,11,13,15,17,19,21,23,25,27,29,31,33,35,37,39,41,43,45,47,49,51,53,55,57,59,61,-1,-1,-1,-1,-1,-1,-1,-1,-1,-1,-1,-1,-1,-1,-1,-1,-1,-1,-1,-1,-1,-1,-1,-1,-1,-1,-1,-1,-1,-1,-1,-1],"loss_changes":[1.6244112E2,3.4922714E0,2.3594666E1,2.1570625E0,1.9067917E0,8.596283E0,4.787649E0,7.9656124E-1,1.0260344E0,2.1299204E-1,1.829628E0,6.836363E0,3.9980316E-1,1.0682912E0,1.032202E1,1.2771673E0,5.480751E-1,2.9967022E-1,1.0687828E-1,2.213097E-1,8.553694E-2,5.2465725E-1,1.5416031E0,6.569042E-1,3.4816408E0,6.4315796E-2,2.4058819E-1,5.1547456E-1,3.40632E0,2.1491432E0,2.0689495E0,0E0,0E0,0E0,0E0,0E0,0E0,0E0,0E0,0E0,0E0,0E0,0E0,0E0,0E0,0E0,0E0,0E0,0E0,0E0,0E0,0E0,0E0,0E0,0E0,0E0,0E0,0E0,0E0,0E0,0E0,0E0,0E0],"parents":[2147483647,0,0,1,1,2,2,3,3,4,4,5,5,6,6,7,7,8,8,9,9,10,10,11,11,12,12,13,13,14,14,15,15,16,16,17,17,18,18,19,19,20,20,21,21,22,22,23,23,24,24,25,25,26,26,27,27,28,28,29,29,30,30],"right_children":[2,4,6,8,10,12,14,16,18,20,22,24,26,28,30,32,34,36,38,40,42,44,46,48,50,52,54,56,58,60,62,-1,-1,-1,-1,-1,-1,-1,-1,-1,-1,-1,-1,-1,-1,-1,-1,-1,-1,-1,-1,-1,-1,-1,-1,-1,-1,-1,-1,-1,-1,-1,-1],"split_conditions":[1E0,6.817548E-1,2.667E1,1.7846E2,1.164E1,7.47E1,1.519E2,2.046E2,2.637E2,1.5E1,1.67E1,6.58E0,2.035E1,8.57E1,6.983E1,8.767E1,1.5304E2,2.0625E2,2.5287E2,9.7E0,1.67E1,1.337E1,9.2038E2,2.24E0,5.08E1,9.52E1,9.52E1,3.281E1,4.261E1,1.868E2,2.166E2,2.6068236E-3,4.732532E-3,5.361652E-4,3.0635877E-3,7.1337395E-3,1.0570872E-2,2.4698195E-3,6.671838E-3,8.322682E-6,5.5612805E-3,4.2337147E-4,-2.136377E-3,7.151741E-3,1.2083693E-2,5.014021E-3,7.894928E-3,-9.463719E-3,-6.818272E-3,-1.0208926E-3,-4.9801576E-3,-8.797483E-3,-9.778154E-3,-6.0825096E-3,-8.595997E-3,3.2001327E-7,2.4447131E-3,-3.6017355E-3,5.1083707E-4,-3.8912992E-3,-6.7876833E-3,2.3976863E-4,-2.1028013E-3],"split_indices":[19,28,22,22,22,3,24,3,3,3,3,22,22,24,22,22,22,22,22,22,3,22,22,22,3,3,3,22,22,3,3,0,0,0,0,0,0,0,0,0,0,0,0,0,0,0,0,0,0,0,0,0,0,0,0,0,0,0,0,0,0,0,0],"split_type":[0,0,0,0,0,0,0,0,0,0,0,0,0,0,0,0,0,0,0,0,0,0,0,0,0,0,0,0,0,0,0,0,0,0,0,0,0,0,0,0,0,0,0,0,0,0,0,0,0,0,0,0,0,0,0,0,0,0,0,0,0,0,0],"sum_hessian":[2.5706E4,1.115E4,1.4556E4,4.3E3,6.85E3,4.989E3,9.567E3,3.849E3,4.51E2,2.23E2,6.627E3,3.22E3,1.769E3,3.052E3,6.515E3,2.986E3,8.63E2,3.15E2,1.36E2,7.1E1,1.52E2,2.3E2,6.397E3,9.77E2,2.243E3,1.311E3,4.58E2,8.71E2,2.181E3,2.587E3,3.928E3,1.829E3,1.157E3,4.65E2,3.98E2,2.14E2,1.01E2,1.19E2,1.7E1,3.4E1,3.7E1,1.06E2,4.6E1,1.09E2,1.21E2,5.89E3,5.07E2,5.1E2,4.67E2,1.012E3,1.231E3,3.59E2,9.52E2,1.6E2,2.98E2,4.81E2,3.9E2,7.87E2,1.394E3,1.389E3,1.198E3,1.569E3,2.359E3],"tree_param":{"num_deleted":"0","num_feature":"53","num_nodes":"63","size_leaf_vector":"1"}},{"base_weights":[2.3505627E-4,8.702071E-2,-6.6461235E-2,7.331242E-2,1.078602E-1,-1.1852718E-1,-3.7565067E-2,6.58829E-2,1.0155479E-1,-9.359312E-3,1.10069975E-1,-8.8573E-2,-1.6998318E-1,-4.242049E-3,-5.083391E-2,7.632235E-2,3.6224753E-2,1.4752191E-1,7.572906E-2,2.1417158E-2,-3.848666E-2,1.0583E-1,1.543883E-1,-1.5330254E-1,-5.7537545E-2,-1.7973274E-1,-1.4151852E-1,2.1895353E-2,-1.7147394E-2,-1.0557308E-1,-2.447036E-2,3.3737079E-3,8.463835E-3,6.011924E-4,3.203356E-3,6.0409713E-3,9.532395E-3,1.2105966E-3,4.8635667E-3,-1.2223268E-3,2.9186688E-3,-2.6478497E-3,-1.1133465E-3,5.9955204E-3,4.013964E-3,7.0058205E-3,8.3327545E-3,-6.4158635E-3,-9.066765E-3,-7.130368E-4,-4.3302984E-3,-8.24787E-3,-9.255683E-3,-5.4371576E-3,-7.995742E-3,2.081557E-4,2.2387623E-3,-3.5561023E-3,6.824675E-4,-4.1530575E-3,-6.6764266E-3,7.0389644E-5,-2.1299615E-3],"categories":[],"categories_nodes":[],"categories_segments":[],"categories_sizes":[],"default_left":[0,0,0,0,0,0,0,0,0,0,0,0,0,0,0,0,0,0,0,0,0,0,0,0,0,0,0,0,0,0,0,0,0,0,0,0,0,0,0,0,0,0,0,0,0,0,0,0,0,0,0,0,0,0,0,0,0,0,0,0,0,0,0],"id":22,"left_children":[1,3,5,7,9,11,13,15,17,19,21,23,25,27,29,31,33,35,37,39,41,43,45,47,49,51,53,55,57,59,61,-1,-1,-1,-1,-1,-1,-1,-1,-1,-1,-1,-1,-1,-1,-1,-1,-1,-1,-1,-1,-1,-1,-1,-1,-1,-1,-1,-1,-1,-1,-1,-1],"loss_changes":[1.4898457E2,3.187355E0,2.1892128E1,1.4096413E0,1.1500854E0,7.99057E0,4.1388245E0,1.6527443E0,1.6555643E0,7.5228535E-2,8.0181503E-1,6.590452E0,5.046272E-1,8.999871E-1,9.6591E0,3.240656E0,9.385214E-1,5.573578E-1,9.97571E-1,7.0919916E-2,8.91313E-3,1.4211578E0,4.28257E-2,7.219639E-1,2.794015E0,8.2279205E-2,2.7926064E-1,3.5765138E-1,2.9697375E0,1.3583317E0,2.1205797E0,0E0,0E0,0E0,0E0,0E0,0E0,0E0,0E0,0E0,0E0,0E0,0E0,0E0,0E0,0E0,0E0,0E0,0E0,0E0,0E0,0E0,0E0,0E0,0E0,0E0,0E0,0E0,0E0,0E0,0E0,0E0,0E0],"parents":[2147483647,0,0,1,1,2,2,3,3,4,4,5,5,6,6,7,7,8,8,9,9,10,10,11,11,12,12,13,13,14,14,15,15,16,16,17,17,18,18,19,19,20,20,21,21,22,22,23,23,24,24,25,25,26,26,27,27,28,28,29,29,30,30],"right_children":[2,4,6,8,10,12,14,16,18,20,22,24,26,28,30,32,34,36,38,40,42,44,46,48,50,52,54,56,58,60,62,-1,-1,-1,-1,-1,-1,-1,-1,-1,-1,-1,-1,-1,-1,-1,-1,-1,-1,-1,-1,-1,-1,-1,-1,-1,-1,-1,-1,-1,-1,-1,-1],"split_conditions":[1E0,7.835E-1,2.758E1,1.7437E2,1.235E1,7.47E1,1.275E2,1.63E2,2.514E2,1.67E1,9.5664E2,7.25E0,2.123E1,8.02E1,6.296E1,1.0536E2,1.4738E2,1.974E2,2.7645E2,1.096E1,1.133E1,1.869E2,1.03388E3,1.92E1,4.98E1,9.52E1,9.52E1,3.404E1,4.205E1,1.868E2,2.116E2,3.3737079E-3,8.463835E-3,6.011924E-4,3.203356E-3,6.0409713E-3,9.532395E-3,1.2105966E-3,4.8635667E-3,-1.2223268E-3,2.9186688E-3,-2.6478497E-3,-1.1133465E-3,5.9955204E-3,4.013964E-3,7.0058205E-3,8.3327545E-3,-6.4158635E-3,-9.066765E-3,-7.130368E-4,-4.3302984E-3,-8.24787E-3,-9.255683E-3,-5.4371576E-3,-7.995742E-3,2.081557E-4,2.2387623E-3,-3.5561023E-3,6.824675E-4,-4.1530575E-3,-6.6764266E-3,7.0389644E-5,-2.1299615E-3],"split_indices":[19,16,22,22,22,3,3,3,3,3,22,22,22,3,22,22,22,22,22,22,22,3,22,3,3,3,3,22,22,3,3,0,0,0,0,0,0,0,0,0,0,0,0,0,0,0,0,0,0,0,0,0,0,0,0,0,0,0,0,0,0,0,0],"split_type":[0,0,0,0,0,0,0,0,0,0,0,0,0,0,0,0,0,0,0,0,0,0,0,0,0,0,0,0,0,0,0,0,0,0,0,0,0,0,0,0,0,0,0,0,0,0,0,0,0,0,0,0,0,0,0,0,0,0,0,0,0,0,0],"sum_hessian":[2.5737E4,1.1184E4,1.4553E4,6.749E3,4.435E3,5.193E3,9.36E3,5.346E3,1.403E3,8.2E1,4.353E3,3.284E3,1.909E3,2.666E3,6.694E3,3.953E3,1.393E3,5.03E2,9E2,4E1,4.2E1,3.976E3,3.77E2,1.063E3,2.221E3,1.418E3,4.91E2,8.81E2,1.785E3,2.175E3,4.519E3,3.611E3,3.42E2,7.46E2,6.47E2,3.13E2,1.9E2,2.66E2,6.34E2,1.8E1,2.2E1,2.1E1,2.1E1,2.561E3,1.415E3,1.8E2,1.97E2,5.65E2,4.98E2,8.93E2,1.328E3,3.87E2,1.031E3,1.79E2,3.12E2,4.97E2,3.84E2,6.48E2,1.137E3,1.207E3,9.68E2,1.862E3,2.657E3],"tree_param":{"num_deleted":"0","num_feature":"53","num_nodes":"63","size_leaf_vector":"1"}},{"base_weights":[1.203312E-4,8.244437E-2,-6.294564E-2,7.1338885E-2,1.0731672E-1,-1.16508916E-1,-3.819881E-2,5.9678283E-2,1.09071895E-1,3.242557E-2,1.1204519E-1,-6.555128E-2,-1.459919E-1,-9.870696E-3,-5.149729E-2,7.041162E-2,2.2221215E-2,1.4901322E-1,7.273487E-2,7.803305E-2,4.5975917E-3,1.8057962E-1,1.0537416E-1,-1.3597906E-1,-2.0738326E-2,-1.2289929E-1,-1.7005096E-1,4.5461696E-2,-1.6647385E-2,-9.87824E-2,-2.0150475E-2,3.0683733E-3,5.3075175E-3,-3.5739597E-4,2.3534687E-3,5.6120353E-3,9.534201E-3,2.7491364E-3,7.906472E-3,3.5051088E-4,5.7747965E-3,-1.5692726E-3,1.4652717E-3,7.7552507E-3,1.1150789E-2,-1.3565252E-3,5.6284624E-3,-8.054892E-3,-4.8868055E-3,-2.4294779E-3,1.2499563E-3,-8.178005E-3,-4.989877E-3,-8.97454E-3,-8.099014E-3,2.8764843E-3,8.492513E-4,-3.1747632E-3,1.1681614E-4,-6.606582E-3,-3.7816342E-3,6.834295E-4,-1.6605959E-3],"categories":[],"categories_nodes":[],"categories_segments":[],"categories_sizes":[],"default_left":[0,0,0,0,0,0,0,0,0,0,0,0,0,0,0,0,0,0,0,0,0,0,0,0,0,0,0,0,0,0,0,0,0,0,0,0,0,0,0,0,0,0,0,0,0,0,0,0,0,0,0,0,0,0,0,0,0,0,0,0,0,0,0],"id":23,"left_children":[1,3,5,7,9,11,13,15,17,19,21,23,25,27,29,31,33,35,37,39,41,43,45,47,49,51,53,55,57,59,61,-1,-1,-1,-1,-1,-1,-1,-1,-1,-1,-1,-1,-1,-1,-1,-1,-1,-1,-1,-1,-1,-1,-1,-1,-1,-1,-1,-1,-1,-1,-1,-1],"loss_changes":[1.3365887E2,3.076889E0,1.9317673E1,3.391529E0,1.2163086E0,6.9104156E0,3.7561522E0,2.371275E0,2.6335201E0,2.610891E-1,1.4622879E0,5.3309507E0,1.5997429E0,1.1957879E0,1.0056473E1,1.4761238E0,9.6071243E-1,1.3071346E0,1.4405408E0,2.0672643E-1,1.1560894E-1,2.7458763E-1,2.820301E0,6.153784E-1,1.3183697E0,1.3851643E0,7.957077E-2,1.1861521E-1,2.5258923E0,2.0783367E0,1.8035786E0,0E0,0E0,0E0,0E0,0E0,0E0,0E0,0E0,0E0,0E0,0E0,0E0,0E0,0E0,0E0,0E0,0E0,0E0,0E0,0E0,0E0,0E0,0E0,0E0,0E0,0E0,0E0,0E0,0E0,0E0,0E0,0E0],"parents":[2147483647,0,0,1,1,2,2,3,3,4,4,5,5,6,6,7,7,8,8,9,9,10,10,11,11,12,12,13,13,14,14,15,15,16,16,17,17,18,18,19,19,20,20,21,21,22,22,23,23,24,24,25,25,26,26,27,27,28,28,29,29,30,30],"right_children":[2,4,6,8,10,12,14,16,18,20,22,24,26,28,30,32,34,36,38,40,42,44,46,48,50,52,54,56,58,60,62,-1,-1,-1,-1,-1,-1,-1,-1,-1,-1,-1,-1,-1,-1,-1,-1,-1,-1,-1,-1,-1,-1,-1,-1,-1,-1,-1,-1,-1,-1,-1,-1],"split_conditions":[1E0,8.0791354E-1,2.388E1,1.755E2,1.432E1,5.11E1,1.281E2,1.988E2,2.637E2,1.54E1,2.75E1,6.58E0,8.02E1,6.33E1,6.842E1,1.0044E2,1.504E2,1.974E2,4.6727E2,1.2E1,1.306E1,1.703E1,2.758E1,3.04E0,1.523E1,9.7E0,7.79E0,5.405E-1,3.361E1,4.515E1,2.046E2,3.0683733E-3,5.3075175E-3,-3.5739597E-4,2.3534687E-3,5.6120353E-3,9.534201E-3,2.7491364E-3,7.906472E-3,3.5051088E-4,5.7747965E-3,-1.5692726E-3,1.4652717E-3,7.7552507E-3,1.1150789E-2,-1.3565252E-3,5.6284624E-3,-8.054892E-3,-4.8868055E-3,-2.4294779E-3,1.2499563E-3,-8.178005E-3,-4.989877E-3,-8.97454E-3,-8.099014E-3,2.8764843E-3,8.492513E-4,-3.1747632E-3,1.1681614E-4,-6.606582E-3,-3.7816342E-3,6.834295E-4,-1.6605959E-3],"split_indices":[19,28,22,22,22,3,3,3,3,3,3,22,3,3,22,22,22,22,22,22,22,22,22,22,22,22,22,16,22,22,3,0,0,0,0,0,0,0,0,0,0,0,0,0,0,0,0,0,0,0,0,0,0,0,0,0,0,0,0,0,0,0,0],"split_type":[0,0,0,0,0,0,0,0,0,0,0,0,0,0,0,0,0,0,0,0,0,0,0,0,0,0,0,0,0,0,0,0,0,0,0,0,0,0,0,0,0,0,0,0,0,0,0,0,0,0,0,0,0,0,0,0,0,0,0,0,0,0,0],"sum_hessian":[2.5742E4,1.1166E4,1.4576E4,7.722E3,3.444E3,4.605E3,9.971E3,5.901E3,1.821E3,2.05E2,3.239E3,1.689E3,2.916E3,3.186E3,6.785E3,4.586E3,1.315E3,8.66E2,9.55E2,7.7E1,1.28E2,2.85E2,2.954E3,6.56E2,1.033E3,1.491E3,1.425E3,3.47E2,2.839E3,2.704E3,4.081E3,3.662E3,9.24E2,6.03E2,7.12E2,4.62E2,4.04E2,7.92E2,1.63E2,2.7E1,5E1,5.2E1,7.6E1,1.81E2,1.04E2,1.52E2,2.802E3,3.94E2,2.62E2,6.42E2,3.91E2,5.38E2,9.53E2,6.47E2,7.78E2,2.43E2,1.04E2,8.18E2,2.021E3,1.106E3,1.598E3,1.137E3,2.944E3],"tree_param":{"num_deleted":"0","num_feature":"53","num_nodes":"63","size_leaf_vector":"1"}},{"base_weights":[3.7352357E-4,7.839073E-2,-5.9344307E-2,5.807522E-2,9.1229826E-2,-9.6196555E-2,-3.6484655E-2,4.4140264E-2,6.361601E-2,8.1634164E-2,1.07571274E-1,-1.16901405E-1,-8.830227E-2,-4.8103683E-2,-2.2314075E-2,5.6160673E-2,4.0683188E-2,1.05213135E-1,6.0095713E-2,7.887613E-2,1.3283291E-1,1.0439062E-1,1.5218051E-1,-1.2725006E-1,-1.0673409E-1,-4.7018908E-2,-9.131213E-2,-4.941318E-2,-1.2332487E-2,-2.9670218E-2,-1.8115347E-2,1.5538037E-3,3.2666225E-3,1.821733E-3,2.8096964E-3,6.207071E-3,3.0105447E-3,2.856386E-3,5.036057E-3,3.7607972E-3,5.7282443E-3,4.9581E-3,7.4157924E-3,7.1785273E-3,5.048781E-3,8.061741E-3,5.614317E-3,-6.515577E-3,-5.1852255E-3,-5.5125537E-3,-4.1632475E-3,-3.520577E-3,-1.0581068E-3,-4.6943063E-3,-2.5072938E-3,-2.5557438E-3,-1.1224294E-3,2.282327E-4,-2.2538186E-3,-1.4085727E-3,-2.8238376E-3,-7.721209E-4,-1.4314665E-3],"categories":[],"categories_nodes":[],"categories_segments":[],"categories_sizes":[],"default_left":[0,0,0,0,0,0,0,0,0,0,0,0,0,0,0,0,0,0,0,0,0,0,0,0,0,0,0,0,0,0,0,0,0,0,0,0,0,0,0,0,0,0,0,0,0,0,0,0,0,0,0,0,0,0,0,0,0,0,0,0,0,0,0],"id":24,"left_children":[1,3,5,7,9,11,13,15,17,19,21,23,25,27,29,31,33,35,37,39,41,43,45,47,49,51,53,55,57,59,61,-1,-1,-1,-1,-1,-1,-1,-1,-1,-1,-1,-1,-1,-1,-1,-1,-1,-1,-1,-1,-1,-1,-1,-1,-1,-1,-1,-1,-1,-1,-1,-1],"loss_changes":[1.19965065E2,2.906639E0,1.2283321E1,3.3120537E-1,1.0636215E0,9.022217E-1,1.4812546E0,4.899478E-2,4.4659805E-1,5.985546E-1,3.426609E-1,1.4824486E-1,4.9845123E-1,2.3107338E-1,1.2479973E-1,6.0779035E-2,6.1346292E-2,1.9696069E-1,3.3837032E-1,5.2630043E-1,9.946275E-2,3.0153656E-1,4.1856766E-2,4.1053772E-2,5.5366516E-2,1.6605568E-1,3.9476585E-1,2.1777153E-1,9.758269E-2,5.7589293E-2,7.2232604E-2,0E0,0E0,0E0,0E0,0E0,0E0,0E0,0E0,0E0,0E0,0E0,0E0,0E0,0E0,0E0,0E0,0E0,0E0,0E0,0E0,0E0,0E0,0E0,0E0,0E0,0E0,0E0,0E0,0E0,0E0,0E0,0E0],"parents":[2147483647,0,0,1,1,2,2,3,3,4,4,5,5,6,6,7,7,8,8,9,9,10,10,11,11,12,12,13,13,14,14,15,15,16,16,17,17,18,18,19,19,20,20,21,21,22,22,23,23,24,24,25,25,26,26,27,27,28,28,29,29,30,30],"right_children":[2,4,6,8,10,12,14,16,18,20,22,24,26,28,30,32,34,36,38,40,42,44,46,48,50,52,54,56,58,60,62,-1,-1,-1,-1,-1,-1,-1,-1,-1,-1,-1,-1,-1,-1,-1,-1,-1,-1,-1,-1,-1,-1,-1,-1,-1,-1,-1,-1,-1,-1,-1,-1],"split_conditions":[1E0,6.817548E-1,3.0543125E-1,5.287081E-1,8.480655E-1,1.551054E-1,4.5044386E-1,1.36E1,1.82E1,8.58E1,8.32E1,3.121E-1,1.99E1,1E0,5.452064E-1,4.000015E-1,7.93E1,1E0,8.53E1,1E0,2E0,1.96E1,1.679E2,2.253E2,7.67E1,1E0,1E0,1E0,1E0,1.763E2,1E0,1.5538037E-3,3.2666225E-3,1.821733E-3,2.8096964E-3,6.207071E-3,3.0105447E-3,2.856386E-3,5.036057E-3,3.7607972E-3,5.7282443E-3,4.9581E-3,7.4157924E-3,7.1785273E-3,5.048781E-3,8.061741E-3,5.614317E-3,-6.515577E-3,-5.1852255E-3,-5.5125537E-3,-4.1632475E-3,-3.520577E-3,-1.0581068E-3,-4.6943063E-3,-2.5072938E-3,-2.5557438E-3,-1.1224294E-3,2.282327E-4,-2.2538186E-3,-1.4085727E-3,-2.8238376E-3,-7.721209E-4,-1.4314665E-3],"split_indices":[19,28,28,28,28,28,28,4,6,6,6,17,6,12,28,28,6,41,6,11,26,6,3,3,7,33,12,11,38,3,50,0,0,0,0,0,0,0,0,0,0,0,0,0,0,0,0,0,0,0,0,0,0,0,0,0,0,0,0,0,0,0,0],"split_type":[0,0,0,0,0,0,0,0,0,0,0,0,0,0,0,0,0,0,0,0,0,0,0,0,0,0,0,0,0,0,0,0,0,0,0,0,0,0,0,0,0,0,0,0,0,0,0,0,0,0,0,0,0,0,0,0,0,0,0,0,0,0,0],"sum_hessian":[2.5747E4,1.1163E4,1.4584E4,4.325E3,6.838E3,5.582E3,9.002E3,1.233E3,3.092E3,4.312E3,2.526E3,1.537E3,4.045E3,4.945E3,4.057E3,2.72E2,9.61E2,2.39E2,2.853E3,4.094E3,2.18E2,2.361E3,1.65E2,7.56E2,7.81E2,2.76E2,3.769E3,4.77E3,1.75E2,1.472E3,2.585E3,7.4E1,1.98E2,7.57E2,2.04E2,1.67E2,7.2E1,2.661E3,1.92E2,3.716E3,3.78E2,7.1E1,1.47E2,1.86E2,2.175E3,1.32E2,3.3E1,6.65E2,9.1E1,6.76E2,1.05E2,1.44E2,1.32E2,3.546E3,2.23E2,4.486E3,2.84E2,1.16E2,5.9E1,1.396E3,7.6E1,2.063E3,5.22E2],"tree_param":{"num_deleted":"0","num_feature":"53","num_nodes":"63","size_leaf_vector":"1"}},{"base_weights":[-2.3615087E-4,-5.4088198E-2,5.8238428E-2,-1.1762925E-1,-2.6172461E-2,4.0780276E-2,8.720337E-2,-9.530525E-2,-1.5521897E-1,-3.6115337E-2,3.285137E-2,1.0084493E-2,5.8313284E-2,8.127288E-2,1.33025E-1,-1.2990597E-1,-5.674984E-2,-1.3933395E-1,-1.6128273E-1,-1.4777102E-2,-8.851325E-2,1.097239E-1,2.1285722E-2,4.4508956E-2,-2.9651972E-2,1.764473E-1,4.961607E-2,8.988351E-2,2.3196734E-2,1.19518526E-1,7.5098583E-3,-8.417043E-3,-5.782658E-3,4.1960226E-4,-4.0137297E-3,-8.361349E-3,-6.3878926E-3,-7.8956215E-3,-9.086784E-3,8.963964E-4,-1.5790556E-3,-5.5179405E-3,-2.3495771E-3,3.8379186E-3,9.53013E-3,2.0812177E-3,-1.7700178E-4,1.8065777E-3,7.940509E-3,-6.817903E-3,-8.57419E-4,6.8064923E-3,1.1686134E-2,8.186547E-4,3.1171655E-3,3.8739727E-3,7.3294267E-3,-1.4800668E-3,3.244744E-3,6.8368576E-3,5.6599677E-3],"categories":[],"categories_nodes":[],"categories_segments":[],"categories_sizes":[],"default_left":[0,0,0,0,0,0,0,0,0,0,0,0,0,0,0,0,0,0,0,0,0,0,0,0,0,0,0,0,0,0,0,0,0,0,0,0,0,0,0,0,0,0,0,0,0,0,0,0,0,0,0,0,0,0,0,0,0,0,0,0,0],"id":25,"left_children":[1,3,5,7,9,11,13,15,17,19,21,23,25,27,29,31,33,35,37,39,41,43,45,47,49,51,53,55,57,59,-1,-1,-1,-1,-1,-1,-1,-1,-1,-1,-1,-1,-1,-1,-1,-1,-1,-1,-1,-1,-1,-1,-1,-1,-1,-1,-1,-1,-1,-1,-1],"loss_changes":[8.088145E1,2.3714344E1,6.2233124E0,3.40979E0,5.4537654E0,4.135398E0,1.2473679E0,3.4117851E0,1.2384033E-1,8.889655E0,1.1890327E0,3.8246188E0,5.0164394E0,2.0492096E0,1.04743004E-1,7.20068E-1,1.8610637E0,1.1651039E-1,4.664421E-2,3.1067677E0,2.0819721E0,4.5195627E-1,5.888863E-1,1.428668E0,1.7294656E0,7.41765E-1,1.9270077E0,2.501089E0,1.1709608E0,1.7272472E-2,0E0,0E0,0E0,0E0,0E0,0E0,0E0,0E0,0E0,0E0,0E0,0E0,0E0,0E0,0E0,0E0,0E0,0E0,0E0,0E0,0E0,0E0,0E0,0E0,0E0,0E0,0E0,0E0,0E0,0E0,0E0],"parents":[2147483647,0,0,1,1,2,2,3,3,4,4,5,5,6,6,7,7,8,8,9,9,10,10,11,11,12,12,13,13,14,14,15,15,16,16,17,17,18,18,19,19,20,20,21,21,22,22,23,23,24,24,25,25,26,26,27,27,28,28,29,29],"right_children":[2,4,6,8,10,12,14,16,18,20,22,24,26,28,30,32,34,36,38,40,42,44,46,48,50,52,54,56,58,60,-1,-1,-1,-1,-1,-1,-1,-1,-1,-1,-1,-1,-1,-1,-1,-1,-1,-1,-1,-1,-1,-1,-1,-1,-1,-1,-1,-1,-1,-1,-1],"split_conditions":[5.452064E-1,2.333E1,7.759501E-1,7.47E1,1.212E2,6.296E1,9.2038E2,1.096E1,9.52E1,2.085E2,2.046E2,7.02E1,9.19E1,2.39E2,1.03388E3,8.4E-1,3.81E1,6.58E0,3.3495006E-1,9.19E1,8.955E1,1.504E2,3.291E2,5.223E1,3.661E1,7.36E1,8.855E1,1.7437E2,7.7566E2,1.0505E3,7.5098583E-3,-8.417043E-3,-5.782658E-3,4.1960226E-4,-4.0137297E-3,-8.361349E-3,-6.3878926E-3,-7.8956215E-3,-9.086784E-3,8.963964E-4,-1.5790556E-3,-5.5179405E-3,-2.3495771E-3,3.8379186E-3,9.53013E-3,2.0812177E-3,-1.7700178E-4,1.8065777E-3,7.940509E-3,-6.817903E-3,-8.57419E-4,6.8064923E-3,1.1686134E-2,8.186547E-4,3.1171655E-3,3.8739727E-3,7.3294267E-3,-1.4800668E-3,3.244744E-3,6.8368576E-3,5.6599677E-3],"split_indices":[28,22,28,3,22,22,22,22,3,3,3,3,3,3,22,22,3,22,28,23,22,22,3,22,22,22,22,22,22,3,0,0,0,0,0,0,0,0,0,0,0,0,0,0,0,0,0,0,0,0,0,0,0,0,0,0,0,0,0,0,0],"split_type":[0,0,0,0,0,0,0,0,0,0,0,0,0,0,0,0,0,0,0,0,0,0,0,0,0,0,0,0,0,0,0,0,0,0,0,0,0,0,0,0,0,0,0,0,0,0,0,0,0,0,0,0,0,0,0,0,0,0,0,0,0],"sum_hessian":[2.5683E4,1.337E4,1.2313E4,4.08E3,9.29E3,7.684E3,4.629E3,2.562E3,1.518E3,7.951E3,1.339E3,2.794E3,4.89E3,4.101E3,5.28E2,1.349E3,1.213E3,4.26E2,1.092E3,5.651E3,2.3E3,1.74E2,1.165E3,1.497E3,1.297E3,3.34E2,4.556E3,3.571E3,5.3E2,3E2,2.28E2,3.62E2,9.87E2,3.22E2,8.91E2,1.21E2,3.05E2,9.45E2,1.47E2,1.918E3,3.733E3,1.506E3,7.94E2,1.25E2,4.9E1,6.4E2,5.25E2,1.396E3,1.01E2,1.35E2,1.162E3,1.98E2,1.36E2,1.262E3,3.294E3,2.932E3,6.39E2,2.34E2,2.96E2,7.5E1,2.25E2],"tree_param":{"num_deleted":"0","num_feature":"53","num_nodes":"61","size_leaf_vector":"1"}},{"base_weights":[-3.909038E-4,-5.8020517E-2,4.903516E-2,-8.596124E-2,-3.2473337E-2,2.9304156E-2,7.759094E-2,-1.0478183E-1,-7.8922056E-2,-3.4689497E-2,1.370435E-2,2.5854888E-3,3.8301818E-2,6.447333E-2,9.340438E-2,-1.1736356E-1,-9.828319E-2,-8.2174174E-2,-3.7546143E-2,-2.6086575E-4,-3.778523E-2,2.8520504E-2,-1.301193E-2,-3.3568623E-4,6.957261E-2,3.5493225E-2,9.472985E-2,6.0230907E-2,1.13206096E-1,9.052469E-2,1.486615E-1,-5.9197405E-3,-2.9534663E-3,-5.013258E-3,-2.9749013E-3,-4.2257006E-3,-2.2393574E-3,-2.974839E-3,-6.998086E-4,-1.0541526E-3,9.90488E-4,-2.3771715E-3,-1.550641E-3,1.1881423E-3,3.8346685E-3,-8.287872E-4,3.9222725E-3,2.5116808E-3,-2.038651E-4,4.946242E-4,4.375381E-3,1.5956796E-3,3.8665931E-3,4.031447E-3,6.437792E-3,2.8754647E-3,5.187093E-3,4.8134793E-3,7.1798237E-3,4.3721823E-3,6.168924E-3,7.906066E-3,5.1131514E-3],"categories":[],"categories_nodes":[],"categories_segments":[],"categories_sizes":[],"default_left":[0,0,0,0,0,0,0,0,0,0,0,0,0,0,0,0,0,0,0,0,0,0,0,0,0,0,0,0,0,0,0,0,0,0,0,0,0,0,0,0,0,0,0,0,0,0,0,0,0,0,0,0,0,0,0,0,0,0,0,0,0,0,0],"id":26,"left_children":[1,3,5,7,9,11,13,15,17,19,21,23,25,27,29,31,33,35,37,39,41,43,45,47,49,51,53,55,57,59,61,-1,-1,-1,-1,-1,-1,-1,-1,-1,-1,-1,-1,-1,-1,-1,-1,-1,-1,-1,-1,-1,-1,-1,-1,-1,-1,-1,-1,-1,-1,-1,-1],"loss_changes":[7.304164E1,8.447968E0,7.7753754E0,7.407799E-1,6.33533E-1,1.962811E0,1.1639061E0,1.14053726E-1,5.5116653E-1,6.2914276E-1,1.1278756E-1,4.027351E-1,9.6465397E-1,6.31197E-1,3.9310265E-1,2.4146557E-2,7.2366714E-2,3.3021164E-1,1.5528229E-1,2.0435981E-1,3.5645056E-1,4.0119305E-2,3.4545876E-2,3.7351796E-1,9.118563E-2,8.691764E-1,1.2827969E-1,3.3046627E-1,1.1279392E-1,2.3528862E-1,3.8695335E-2,0E0,0E0,0E0,0E0,0E0,0E0,0E0,0E0,0E0,0E0,0E0,0E0,0E0,0E0,0E0,0E0,0E0,0E0,0E0,0E0,0E0,0E0,0E0,0E0,0E0,0E0,0E0,0E0,0E0,0E0,0E0,0E0],"parents":[2147483647,0,0,1,1,2,2,3,3,4,4,5,5,6,6,7,7,8,8,9,9,10,10,11,11,12,12,13,13,14,14,15,15,16,16,17,17,18,18,19,19,20,20,21,21,22,22,23,23,24,24,25,25,26,26,27,27,28,28,29,29,30,30],"right_children":[2,4,6,8,10,12,14,16,18,20,22,24,26,28,30,32,34,36,38,40,42,44,46,48,50,52,54,56,58,60,62,-1,-1,-1,-1,-1,-1,-1,-1,-1,-1,-1,-1,-1,-1,-1,-1,-1,-1,-1,-1,-1,-1,-1,-1,-1,-1,-1,-1,-1,-1,-1,-1],"split_conditions":[5.157232E-1,3.0543125E-1,7.333232E-1,1.551054E-1,1E0,5.956351E-1,8.480655E-1,1.74E1,1E0,2.06E1,1E0,8.53E1,8.53E1,1E0,8.49E1,8.95E1,8.44E1,1E0,1E0,1E0,4.044675E-1,8.28E1,6.513E-1,2.76E1,3.1E0,1E0,7.0585084E-1,7.66E1,1E0,1E0,1.869E2,-5.9197405E-3,-2.9534663E-3,-5.013258E-3,-2.9749013E-3,-4.2257006E-3,-2.2393574E-3,-2.974839E-3,-6.998086E-4,-1.0541526E-3,9.90488E-4,-2.3771715E-3,-1.550641E-3,1.1881423E-3,3.8346685E-3,-8.287872E-4,3.9222725E-3,2.5116808E-3,-2.038651E-4,4.946242E-4,4.375381E-3,1.5956796E-3,3.8665931E-3,4.031447E-3,6.437792E-3,2.8754647E-3,5.187093E-3,4.8134793E-3,7.1798237E-3,4.3721823E-3,